tree
version=v4
num_class=1
num_tree_per_iteration=1
label_index=0
max_feature_idx=47
objective=lambdarank
feature_names=form_type sample_count form_retained_particle_ratio form_retained_particle_share_total form_face_count form_dataset_count form_retention_rank_overall surface_area area_weighted_exposure area_weighted_water_dose area_weighted_cleaning_dose area_weighted_hotspot_score area_weighted_redeposition area_weighted_poor_drainage area_weighted_concavity area_weighted_hiddenness boundary_count boundary_concave_count boundary_sharp_nonconcave_count boundary_smooth_count boundary_mean_angle_score boundary_max_angle_score boundary_mean_concavity_score boundary_max_concavity_score exact_boundary_count exact_boundary_convex_count exact_boundary_concave_count exact_boundary_neutral_count neighbor_count neighbor_surface_area_mean neighbor_surface_area_max neighbor_form_retained_particle_ratio_mean neighbor_form_retained_particle_ratio_max neighbor_form_retained_particle_share_total_mean neighbor_form_retained_particle_share_total_max neighbor_form_retention_rank_mean neighbor_form_retention_rank_min neighbor_area_weighted_concavity_mean neighbor_area_weighted_concavity_max neighbor_area_weighted_cleaning_dose_mean neighbor_area_weighted_cleaning_dose_min neighbor_area_weighted_hotspot_score_mean neighbor_area_weighted_hotspot_score_max neighbor_boundary_concave_count neighbor_boundary_convex_count neighbor_boundary_neutral_count neighbor_mesh_concave_count neighbor_mesh_sharp_nonconcave_count
feature_infos=-1:3:1:2:5:0:4 [1:35630] [0.003372:0.0099659999999999992] [4.6e-05:0.74340899999999999] [1238:64749] [227:1971] [1:6] [0:1772116973.105036] [0:1] [0:1] [0:1] [0:0.828121] [0:1] [0:1] [0:1] [0:0.48088900000000001] [0:12691] [0:2496] [0:12636] [0:1159] [0:1] [0:1] [0:0.99999700000000014] [0:1] [0:973] [0:972] [0:332] [0:106] [0:526] [0:1772116973.105036] [0:1772116973.105036] [0:0.0099660000000000425] [0:0.0099659999999999992] [0:0.74340900000000665] [0:0.74340899999999999] [0:6] [0:6] [0:0.96065100000000003] [0:1] [0:0.88074950000000007] [0:0.87916000000000005] [0:0.71887725000000002] [0:0.828121] [0:319] [0:525] [0:60] [0:318] [0:526]
tree_sizes=1764 1768 1767 1770 1775 1748 1757 1773 1764 1782 1771 1778 1796 1774 1782 1767 1774 1794 1779 1774 1763 1777 1780 1775 1785 1767 1780 1790 1785 1780 1786 1789 1798 1795 1796 1782 1786 1786 1776 1803 1777 1785 1785 1787 1796 1797 1784 1778 1798 1781 1803 1785 1800 1779 1796 1791 1785 1781 1807 1785 1790 1788 1791 1784 1783 1799 1772 1791 1796 1778 1813 1789 1784 1797 1800 1811 1782 1790 1794 1790 1774 1814 1795 1798 1808 1821 1789 1803 1808 1804 1782 1802 1799 1798 1802 1789 1794 1810 1796 1806 1787 1783 1803 1803 1814 1792 1783 1798 1792 1789 1790 1804 1804 1790 1810 1800 1792 1785 1789 1794 1801 1810 1801 1812 1791 1799 1793 1799 1790 1796 1786 1791 1793 1780 1788 1787 1785 1804 1789 1794 1787 1805 1814 1793 1786 1803 1801 1796 1800 1799 1792 1800 1800 1792 1807 1770 1798 1790 1799 1813 1772 1802 1799 1807 1800 1786 1803 1791 1790 1816 1812 1782 1793 1811 1780 1799 1801 1781 1773 1782 1828 1804 1784 1799 1805 1792 1791 1818 1788 1816 1809 1790 1786 1814 1805 1803 1810 1807 1773 1793 1795 1805 1797 1823 1805 1816 1792 1824 1799 1798 1799 1798 1785 1781 1794 1788 1771 1798 1787 1776 1807 1779 1802 1822 1803 1828 1791 1780 1826 1765 1780 1797 1802 1798 1808 1810 1808 1804 1800 1796 1809 1759 1801 1800 1771 1797 1780 1810 1836 1792 1799 1770 1791 1782 1813 1793 1762 1812 1825 1781 1785 1791 1794 1793 1770 1786 1780 1777 1803 1779 1804 1805 1806 1806 1765 1784 1788 1788 1790 1784 1809 1791 1829 1784 1834 1788 1782 1781 1797 1794 1805 1822 1794 1803 1790 1791 1797 1797 1790 1799 1800 1787 1782 1795 1797 1800 1789 1788 1786 1809 1790 1788 1774 1789 1795 1780 1797 1811 1779 1801

Tree=0
num_leaves=15
num_cat=0
split_feature=8 1 20 7 16 1 21 42 10 41 12 15 41 23
split_gain=2812.51 455.093 189.427 123.876 77.9572 50.0848 58.4471 55.8769 44.9675 33.6457 23.9605 22.1369 19.6317 18.3398
threshold=0.99756350000000016 25.500000000000004 0.54990324180327887 123.52900100000001 8.5000000000000018 98.500000000000014 0.94726500000000013 0.67267250000000012 0.17718450000000002 0.47700075000000003 0.0012005000000000002 0.094960500000000017 0.44890200000000008 0.79614050000000003
decision_type=2 2 2 2 2 2 2 2 2 2 2 2 2 2
left_child=1 2 -1 4 12 6 10 11 9 -5 -3 -8 -4 -9
right_child=-2 5 3 8 -6 -7 7 13 -10 -11 -12 -13 -14 -15
leaf_value=-0.035327770725638794 -0.069815368237228018 0.030356495520103634 0.013549538580688272 0.053154554357327792 0.012075114007564161 0.055132822033337366 0.051590174744634079 0.010316854759525883 -0.047091431187875857 0.023100464243557283 0.002405282916728911 0.033200989001429662 -0.032100966035877788 0.042779766678951454
leaf_weight=136.87241464272938 522.09180131675748 74.622757603110585 12.933957118933902 81.05801352304843 151.23298483329381 212.66936869809433 314.11266146415437 81.997825789370836 8.1140800458379072 106.13434864006194 75.82639444994129 110.69193720269686 96.496529450008893 28.820426135585876
leaf_count=12274 43642 2933 756 1052 8337 3206 6001 3712 209 4218 3080 3701 10111 662
internal_value=8.3219e-05 0.0245567 0.000748849 0.0115929 -0.00419385 0.0402557 0.0356268 0.0410433 0.0326541 0.0361667 0.0163026 0.0468205 -0.0266745 0.0188371
internal_weight=2013.68 1491.58 592.842 455.97 260.663 898.741 686.072 535.623 195.306 187.192 150.449 424.805 109.43 110.818
internal_count=103894 60252 36957 24683 19204 23295 20089 14076 5479 5270 6013 9702 10867 4374
is_linear=0
shrinkage=0.035


Tree=1
num_leaves=15
num_cat=0
split_feature=8 1 33 41 1 41 1 33 13 21 1 13 25 33
split_gain=4007.98 804.448 397.434 208.926 205.61 149.556 124.632 123.619 99.1006 160.755 90.2465 86.2602 84.9235 76.487
threshold=0.9961945000000002 43.500000000000007 0.68862353333333337 0.46009200000000006 108.50000000000001 0.51917012500000015 9.5000000000000018 0.3751491500000001 0.54524250000000019 0.23222450000000003 11.500000000000002 0.24147550000000004 2.5000000000000004 0.43577945689655179
decision_type=2 2 2 2 2 2 2 2 2 2 2 2 2 2
left_child=1 2 6 11 5 7 -1 -3 -6 -10 -5 -4 -12 -8
right_child=-2 4 3 10 8 -7 13 -9 9 -11 12 -13 -14 -15
leaf_value=-0.043186704102003162 -0.065754001794543812 0.0078385299563518175 0.037978161080152867 -0.015913513891423009 0.044052715580649861 0.0065525118114628461 -0.026053191089462874 0.034812083097269568 -0.053354517561181238 0.049933318861251803 0.00069938582966453224 -0.0080743717401724601 0.037191412516732365 -0.0012311614590968989
leaf_weight=234.48696275951806 942.12032622506376 284.4249841630226 330.05339563509915 289.32520730968099 780.56220902595669 677.04892780561931 292.51324413041584 779.04551009926945 34.495929260738194 39.240736240521073 330.65900977444835 58.531331905163825 102.13248048047535 316.87112610507756
leaf_count=11246 44103 3646 2511 7506 2600 7798 9280 4624 195 117 3576 582 529 5534
internal_value=-5.51278e-05 0.0135522 -0.00340473 0.0103503 0.0263251 0.0194169 -0.0215092 0.0276025 0.0403897 0.0015753 -0.000784387 0.0310363 0.00932821 -0.0131536
internal_weight=5491.51 4549.39 1954.57 1110.7 2594.82 1740.52 843.871 1063.47 854.299 73.7367 722.117 388.585 432.791 609.384
internal_count=103847 59744 40764 14704 18980 16068 26060 8270 2912 312 11611 3093 4105 14814
is_linear=0
shrinkage=0.035


Tree=2
num_leaves=15
num_cat=0
split_feature=8 1 31 1 7 7 18 12 12 25 38 29 42 31
split_gain=3161.24 601.416 312.595 193.009 151.625 123.19 104.154 80.3464 68.4999 78.285 66.0188 54.8812 61.165 75.7305
threshold=0.9981985000000001 25.500000000000004 0.0098929736842105261 232.50000000000003 128.65300100000005 40.322521000000002 6.5000000000000009 0.0090615000000000018 0.098044500000000021 2.5000000000000004 0.061141500000000008 159.70058862500002 0.67001100000000013 0.0066666200000000024
decision_type=2 2 2 2 2 2 2 2 2 2 2 2 2 2
left_child=1 2 6 5 7 -3 -1 10 9 -6 -4 -7 13 -13
right_child=-2 3 4 -5 8 11 -8 -9 -10 -11 -12 12 -14 -15
leaf_value=-0.042361316372496467 -0.063507705718778826 0.0057803936804830917 0.01200615068189299 0.042479303590699562 0.0045463596334464427 0.034232938392251167 -0.01155482538401215 -0.045090079825272897 -0.055884984635030707 0.032397847631391134 -0.019789790895895398 -0.013141583474682065 0.0039126877952035781 0.025544627905790773
leaf_weight=280.34847885277122 807.58666962284769 774.37560000957455 167.36656963708811 441.11429048934951 215.42012442508712 387.35034305555746 258.91122806735802 67.714357195305638 14.581638396251945 290.68300205818377 152.83455809870793 66.124327109660953 257.23666641826276 951.45339472033083
leaf_count=15522 43499 9866 2987 1471 1962 2397 7596 1675 153 1519 5735 718 3043 5778
internal_value=4.99743e-05 0.0119192 -0.00647825 0.0211761 0.00604918 0.0173154 -0.0275834 -0.0105096 0.0183883 0.0205529 -0.00316772 0.022687 0.0191726 0.0230269
internal_weight=5133.1 4325.51 1447.86 2877.65 908.6 2436.54 539.26 387.915 520.685 506.103 320.201 1662.16 1274.81 1017.58
internal_count=103921 60422 37149 23273 14031 21802 23118 10397 3634 3481 8722 11936 9539 6496
is_linear=0
shrinkage=0.035


Tree=3
num_leaves=15
num_cat=0
split_feature=8 1 31 1 41 41 23 44 18 7 25 10 14 12
split_gain=2622.9 527.857 243.825 230.129 132.415 95.3215 110.735 106.665 87.2732 83.2484 77.3604 61.0434 57.7893 79.6944
threshold=0.9981985000000001 25.500000000000004 0.0098929736842105261 98.500000000000014 0.46397595000000008 0.50117575000000014 0.92406100000000013 1.5000000000000002 6.5000000000000009 353.62043700000009 6.5000000000000009 0.034046000000000007 0.0016515000000000002 0.0020565000000000006
decision_type=2 2 2 2 2 2 2 2 2 2 2 2 2 2
left_child=1 2 8 5 -4 7 9 -3 -1 -7 12 -5 13 -6
right_child=-2 3 4 11 10 6 -8 -9 -10 -11 -12 -13 -14 -15
leaf_value=-0.042566330295420868 -0.061116941679921565 0.0011118835603938608 0.022479723414969312 0.038335900668921931 0.011364077103906181 -0.0074483743242628438 0.029238072571285981 0.026369288856284447 -0.01276143064540613 0.019693082123157291 0.05553702592425705 0.0057751982299441233 -0.023513176489279117 -0.027270602297975479
leaf_weight=239.07657669606851 737.81139583655749 274.91423552343622 296.23927316785557 710.57578601478599 224.9526352576213 588.68848069512751 182.57086983975023 805.08639030647464 243.06930537748849 180.77096649748273 23.344275393523276 78.531651983037591 210.38639467791654 91.982489414309384
leaf_count=15623 43601 3811 3186 2946 3125 8642 1215 5035 7534 1382 68 283 6103 1582
internal_value=-0.000318683 0.0104919 -0.00769224 0.0190591 0.00361782 0.0128262 0.00474831 0.019943 -0.0275556 -0.00106623 -0.00653053 0.0351 -0.00930156 0.000135683
internal_weight=4888 4150.19 1329.05 2821.14 846.905 2032.03 952.03 1080 482.146 769.459 550.666 789.107 527.322 316.935
internal_count=104136 60535 37221 23314 14064 20085 11239 8846 23157 10024 10878 3229 10810 4707
is_linear=0
shrinkage=0.035


Tree=4
num_leaves=15
num_cat=0
split_feature=8 16 41 18 16 14 7 42 8 26 42 31 12 14
split_gain=2340.55 416.601 214.682 133.802 120.291 103.519 100.934 92.5703 73.0759 72.0031 65.0921 60.3626 49.6269 57.3757
threshold=0.9961945000000002 20.500000000000004 0.46323837500000004 6.5000000000000009 57.500000000000007 0.099329000000000015 56.001458000000007 0.67735550000000011 0.70710650000000019 1.0000000180025095e-35 0.67938900000000013 0.0046656500000000012 0.005323500000000001 0.0014875000000000003
decision_type=2 2 2 2 2 2 2 2 2 2 2 2 2 2
left_child=1 2 6 -4 5 7 -1 8 -3 -9 -5 -6 -8 -14
right_child=-2 4 3 10 11 -7 12 9 -10 -11 -12 -13 13 -15
leaf_value=-0.011858192305951722 -0.058556040639973245 -0.028604111021810968 -0.031098546327306905 0.0042089611291090878 -0.020784021545821194 -0.0075111984952952538 0.036786610341397519 -0.011469442940837939 0.021607606130551755 0.025868305592168659 -0.023889503311408784 0.03626289246646159 -0.029319889910094356 0.026719171834257763
leaf_weight=119.05096896717441 708.36684690178663 36.099044704809785 384.39136803118163 360.99266214843374 23.675903497263789 230.03538131224923 190.38292319292668 214.64579284668434 1635.0884770707926 89.47558384295553 139.97110600455198 484.42408197652549 35.485190507955849 59.801494183717296
leaf_count=4201 44096 462 20064 7045 163 3097 1343 3996 11943 580 2967 3144 248 442
internal_value=7.79868e-05 0.0104553 -0.00591726 -0.0155706 0.01824 0.0146989 0.015193 0.0172868 0.0205187 -0.000468768 -0.00364476 0.0335941 0.0264729 0.00581395
internal_weight=4711.89 4003.52 1290.08 885.355 2713.44 2205.34 404.721 1975.31 1671.19 304.121 500.964 508.1 285.67 95.2867
internal_count=103791 59695 36310 30076 23385 20078 6234 16981 12405 4576 10012 3307 2033 690
is_linear=0
shrinkage=0.035


Tree=5
num_leaves=15
num_cat=0
split_feature=8 1 7 1 18 41 41 20 20 7 23 1 13 21
split_gain=2072.26 435.361 230.602 163.035 122.859 109.365 69.2047 77.2301 67.0905 66.8878 54.0902 51.2859 62.144 102.908
threshold=0.99915650000000011 43.500000000000007 119.09666250000002 98.500000000000014 6.5000000000000009 0.43098687500000005 0.51035287500000015 0.67211975000000013 0.5259275952380954 353.62043700000009 0.92406100000000013 370.50000000000006 0.1062965 0.035331000000000008
decision_type=2 2 2 2 2 2 2 2 2 2 2 2 2 2
left_child=1 2 4 6 -1 -4 7 -3 -7 10 -8 12 -5 -14
right_child=-2 3 5 11 -6 8 9 -9 -10 -11 -12 -13 13 -15
leaf_value=-0.032786973606172554 -0.057572453514948371 -0.0024732722095858 0.038199765680035774 0.036417782169662377 -0.0058537802026014324 -0.028758047022355654 -0.0085720429412286317 0.023820369335022625 0.0077540458775212009 0.022275912951476008 0.021271981957876541 0.047577163414053589 -0.031131783392938012 0.026283547487683676
leaf_weight=347.49731264851289 656.22290416246688 166.6517094001174 136.55257462337613 329.63270649081096 515.23504002287518 69.548297946632374 379.54274552222341 760.91865676234011 530.13049292057985 181.2868763951119 92.305622877553105 208.78728537261486 51.038627471774817 150.49088705750182
leaf_count=21186 43102 2441 464 1627 10893 2946 6506 5034 6230 1179 612 584 384 615
internal_value=-1.79358e-05 0.00961985 -0.00443162 0.0193018 -0.0167092 0.00995381 0.0129501 0.0190949 0.00350843 0.00421743 -0.00272354 0.032861 0.0270575 0.0117176
internal_weight=4575.84 3919.62 1598.96 2320.66 862.732 736.231 1580.71 927.57 599.679 653.135 471.848 739.95 531.162 201.53
internal_count=103803 60701 41719 18982 32079 9640 15772 7475 9176 8297 7118 3210 2626 999
is_linear=0
shrinkage=0.035


Tree=6
num_leaves=15
num_cat=0
split_feature=8 1 18 7 42 13 21 13 3 21 13 16 40 11
split_gain=1834.57 433.111 227.999 139.268 95.1832 89.244 67.7161 100.35 64.8254 64.3178 62.9337 60.8685 54.9858 43.4156
threshold=0.9981985000000001 77.500000000000014 9.5000000000000018 140.46707800000004 0.68000350000000009 0.32013550000000007 0.05007000000000001 0.1062965 0.00010750000000000001 0.99999950000000004 0.039390500000000002 24.500000000000004 0.00066050000000000017 0.38297400000000009
decision_type=2 2 2 2 2 2 2 2 2 2 2 2 2 2
left_child=1 2 3 8 9 12 7 -3 10 -4 -1 -9 -5 -14
right_child=-2 6 4 5 -6 -7 -8 11 -10 -11 -12 -13 13 -15
leaf_value=0.034678402052681911 -0.055824429327665043 0.029751094143429444 -0.010653012026687189 -0.0086666114647703518 -0.011506655627720522 -0.024199293659933785 0.037746196896683966 0.059739947250139265 -0.025769384797964052 0.014056202879599978 -0.04775942712976633 -0.030953306331503116 -0.063276285671864024 0.027149925551794851
leaf_weight=43.060092389350757 622.15099036208994 191.86731880623847 139.69383290631231 88.182413285889197 235.66807789861923 96.67197806306649 580.64476724434644 10.361328843981026 529.87581884184328 1660.6934224650031 15.172882763668893 63.807144252583385 6.5242371486965558 202.36404017393943
leaf_count=492 43473 1427 3055 2002 3960 2224 2762 21 27123 14691 350 710 86 1655
internal_value=-5.47401e-05 0.00892546 0.00271791 -0.0111332 0.00939863 0.00497193 0.0310437 0.0163912 -0.0219166 0.012137 0.0130789 -0.0181333 0.0144805 0.0242594
internal_weight=4486.74 3864.59 3017.91 981.851 2036.06 393.743 846.681 266.036 588.109 1800.39 58.233 74.1685 297.071 208.888
internal_count=104031 60558 55638 33932 21706 5967 4920 2158 27965 17746 842 731 3743 1741
is_linear=0
shrinkage=0.035


Tree=7
num_leaves=15
num_cat=0
split_feature=8 16 41 18 16 7 14 42 43 47 39 24 7 10
split_gain=1682.56 363.761 159.718 124.521 101.464 67.1763 65.9425 51.9606 49.3526 44.6928 39.8261 38.8253 38.3842 36.6464
threshold=0.9961945000000002 20.500000000000004 0.46397595000000008 6.5000000000000009 57.500000000000007 90.010653000000005 0.099329000000000015 0.67735550000000011 1.0000000180025095e-35 8.5000000000000018 0.0091581785714285723 4.5000000000000009 30.513787000000004 0.018862000000000004
decision_type=2 2 2 2 2 2 2 2 2 2 2 2 2 2
left_child=1 2 5 10 6 -1 7 12 -9 13 -4 -6 -3 -5
right_child=-2 4 3 9 11 -7 -8 8 -10 -11 -12 -13 -14 -15
leaf_value=-0.0061404026857046412 -0.054080200617892406 0.0076284836794867326 -0.039950482460035693 -0.001897861338988419 0.021695367413130814 0.024743520995847087 -0.0066162063554221252 -0.0096236055912384353 0.022445658955919 0.051789604482141607 -0.015971019632374527 0.041178342673314092 0.020433017356440594 -0.029638696668291994
leaf_weight=141.21268800334656 604.30406659426808 378.86134602234233 220.84182871718076 422.88405518763466 284.89670508052222 220.98965146369301 192.38878379610833 182.51464990456589 86.464842120883986 16.921569560887292 138.86016809687135 225.783278263174 1190.475679242285 67.510994731797837
leaf_count=4748 44209 4499 15663 8754 2263 1621 3072 4005 581 52 4310 1029 7948 1153
internal_value=0.000127777 0.0088184 -0.006811 -0.0149654 0.0163787 0.0127012 0.0128679 0.0149084 0.000687741 -0.00378924 -0.0307123 0.0303254 0.0173443 -0.00573094
internal_weight=4374.91 3770.61 1229.22 867.019 2541.39 362.202 2030.71 1838.32 268.979 507.317 359.702 510.68 1569.34 490.395
internal_count=103907 59698 36301 29932 23397 6369 20105 17033 4586 9959 19973 3292 12447 9907
is_linear=0
shrinkage=0.035


Tree=8
num_leaves=15
num_cat=0
split_feature=8 1 20 41 1 1 23 13 24 1 14 10 13 20
split_gain=1500.59 362.412 195.941 165.783 112.561 84.5028 50.2845 50.078 45.2777 44.8993 41.3564 40.6632 37.5475 40.1346
threshold=0.9981985000000001 74.500000000000014 0.70271083214285723 0.47700075000000003 10.500000000000002 29.500000000000004 0.97186650000000008 0.039390500000000002 4.5000000000000009 467.00000000000006 0.20753500000000003 0.21410300000000002 0.54524250000000019 0.11757918686868687
decision_type=2 2 2 2 2 2 2 2 2 2 2 2 2 2
left_child=1 2 5 11 -5 -1 10 -7 9 12 -6 -4 -3 -14
right_child=-2 8 3 4 6 7 -8 -9 -10 -11 -12 -13 13 -15
leaf_value=-0.027832241466964742 -0.053123843100568328 0.021662088092160747 0.019275080127644662 -0.021144808702494699 0.0034690289672071519 0.013352794117867888 0.023538651501235842 -0.015576963922642429 0.042139742478001313 0.045394495383222606 -0.021982430911280149 -0.032615455096821191 -0.059718708722359591 0.022725344299815514
leaf_weight=319.96436411702598 566.96898531547049 480.40766413975507 915.78518187944428 269.49462483442039 882.18336927867495 139.46793693478685 141.50002982397564 154.0178739457624 218.38334428239614 96.574440876953304 85.607089468510821 18.681889932136983 14.608397240750493 13.944537552772088
leaf_count=15859 43462 3631 7582 12123 10997 1770 1083 3583 829 310 2161 235 252 76
internal_value=-6.37687e-05 0.00795909 0.00218515 0.00684935 -0.00086346 -0.0153967 0.0040651 -0.00182351 0.0284615 0.0235133 0.0012118 0.0182291 0.0193418 -0.0195162
internal_weight=4317.59 3750.62 2926.7 2313.25 1378.79 613.45 1109.29 293.486 823.918 605.535 967.79 934.467 508.961 28.5529
internal_count=103953 60491 55393 34181 26364 21212 14241 5353 5098 4269 13158 7817 3959 328
is_linear=0
shrinkage=0.035


Tree=9
num_leaves=15
num_cat=0
split_feature=2 1 15 47 20 41 42 9 1 22 9 7 44 23
split_gain=1010.92 288.265 177.959 221.033 129.087 87.0526 58.7469 57.9134 54.0972 52.6876 54.0963 45.7577 44.7752 41.1258
threshold=0.0097410000000000014 77.500000000000014 0.0028410000000000002 3.5000000000000004 0.90002990000000016 0.50117575000000014 0.68000350000000009 1.0000000180025095e-35 370.50000000000006 2.6689903846153851e-05 0.05906850000000001 35.772661500000005 6.5000000000000009 0.92406100000000013
decision_type=2 2 2 2 2 2 2 2 2 2 2 2 2 2
left_child=1 4 -2 -4 6 -6 9 -5 -3 10 -1 -11 -9 -7
right_child=2 8 3 7 5 13 -8 12 -10 11 -12 -13 -14 -15
leaf_value=0.0076721693038273231 -0.051797610043480491 0.02243234622940651 -0.035965724762386478 0.04825437405478665 0.018836198318717374 -0.0048725864703492855 -0.027788373868137484 -0.010358726790187586 0.043770042179720407 -0.025039930613442757 -0.038470305145265594 -0.0020902592811725693 0.026451934853173917 0.016234279757274633
leaf_weight=501.61565954130492 334.0379628323426 608.56317383795977 417.47180390516587 33.792036525526782 726.40652869781479 429.76546797860647 127.8637472334085 158.16786393188522 192.02979300310835 180.86032327922294 32.97602244920563 258.73509600164834 54.17332207763684 153.23120782489423
leaf_count=8753 21333 4270 30736 231 5162 6794 4735 4738 584 8775 761 4743 1145 1096
internal_value=-0.000191046 0.00936743 -0.0309633 -0.0204609 0.00332432 0.0107531 -0.00550096 0.00583784 0.0275622 -0.0025688 0.0048093 -0.0115434 -0.000943158 0.000675675
internal_weight=4209.69 3212.05 997.643 663.605 2411.45 1309.4 1102.05 246.133 800.593 974.187 534.592 439.595 212.341 582.997
internal_count=103856 45673 58183 36850 40819 13052 27767 6114 4854 23032 9514 13518 5883 7890
is_linear=0
shrinkage=0.035


Tree=10
num_leaves=15
num_cat=0
split_feature=8 1 7 1 41 42 47 1 25 2 10 14 9 39
split_gain=1311.67 327.597 172.247 125.211 79.8307 48.55 46.8988 48.3752 44.0339 42.303 41.0829 40.2522 32.6993 31.607
threshold=0.99756350000000016 43.500000000000007 119.09666250000002 98.500000000000014 0.43383850000000007 0.67735550000000011 1.5000000000000002 10.500000000000002 6.5000000000000009 0.0040895000000000003 0.12879700000000002 0.11097950000000002 0.0033235000000000005 0.0083451250000000036
decision_type=2 2 2 2 2 2 2 2 2 2 2 2 2 2
left_child=1 2 6 5 10 9 -1 13 -6 -3 -4 -11 -7 -8
right_child=-2 3 4 -5 8 12 7 -9 -10 11 -12 -13 -14 -15
leaf_value=-0.032226401966546997 -0.051038217578412426 -0.014483141761041624 0.041116082805149355 0.029309438869008851 -0.00034452602825178785 0.011081506257144238 -0.034360645469015495 -0.0032190530067400434 0.039974315278716768 0.01726999487883173 -0.01516362750388041 -0.0021580301739500983 -0.016577674307780829 -0.010078690622800162
leaf_weight=169.46938477460935 531.25207039692759 62.745537814917043 109.66765149123967 652.93083240091801 506.99809262019699 92.47448402910959 139.05878705867508 365.54682240483817 35.300262021366507 1083.8503515552729 18.419283667579293 148.31135507952422 120.08058165304828 125.191306055116
leaf_count=10338 43565 1355 372 3215 8821 1368 10450 6699 166 8245 144 2210 2611 4280
internal_value=0.000316182 0.00783471 -0.00491199 0.0165064 0.00816838 0.0109566 -0.0158847 -0.0114757 0.00229052 0.0135015 0.0329982 0.0149301 -0.0045369 -0.0228797
internal_weight=4161.3 3630.04 1469.65 2160.39 670.385 1507.46 799.266 629.797 542.298 1294.91 128.087 1232.16 212.555 264.25
internal_count=103839 60274 41270 19004 9503 15789 31767 21429 8987 11810 516 10455 3979 14730
is_linear=0
shrinkage=0.035


Tree=11
num_leaves=15
num_cat=0
split_feature=8 1 33 1 7 18 10 40 28 23 42 12 12 39
split_gain=1183.67 299.441 134.493 129.717 81.3025 66.3939 64.6385 53.2123 48.6864 48.2743 41.3072 38.2994 37.9336 36.5215
threshold=0.9981985000000001 37.500000000000007 0.68862353333333337 182.50000000000003 56.001458000000007 5.5000000000000009 0.19638200000000003 0.013821000000000002 4.5000000000000009 0.0009565000000000001 0.67735550000000011 0.013652000000000003 0.0043495000000000001 0.0049871250000000011
decision_type=2 2 2 2 2 2 2 2 2 2 2 2 2 2
left_child=1 2 5 8 9 -1 7 12 10 -4 -3 -5 13 -6
right_child=-2 3 4 11 6 -7 -8 -9 -10 -11 -12 -13 -14 -15
leaf_value=-0.034848359826026153 -0.050124335952006452 0.010986233706110833 -0.0001986856254211282 0.03587517878383864 0.0017060938716780077 -0.0099218868777532204 -0.044999242277380447 0.038116891116515964 0.026817267447611079 -0.030088362714321935 -0.006190043339958695 0.00016734045479323238 -0.01241954121914998 0.024776345185051622
leaf_weight=198.12910232860304 506.43463851872366 1338.7324341365602 172.50508615397848 386.25478105223738 157.33933263359359 386.66453296507825 23.44436841053539 93.00395275268238 208.39281467697583 107.32876208025846 196.44635746290442 40.779208012856543 82.23435967171099 180.78321053553373
leaf_count=14134 43470 12432 4135 1651 2372 11489 293 439 1563 5382 3991 225 978 1332
internal_value=-5.86142e-05 0.0070415 -0.00556872 0.0151837 0.00360484 -0.018379 0.0115786 0.0141823 0.0109455 -0.0116823 0.00878664 0.0324711 0.00886701 0.0140535
internal_weight=4078.47 3572.04 1401.43 2170.61 816.639 584.794 536.805 513.361 1743.57 279.834 1535.18 427.034 420.357 338.123
internal_count=103886 60416 40554 19862 14931 25623 5414 5121 17986 9517 16423 1876 4682 3704
is_linear=0
shrinkage=0.035


Tree=12
num_leaves=15
num_cat=0
split_feature=2 1 15 47 18 41 23 14 12 13 1 20 37 39
split_gain=806.884 224.257 149.473 172.034 119.044 75.7194 56.91 53.0694 49.6461 42.7636 72.5993 70.6396 52.4301 39.4738
threshold=0.0097410000000000014 98.500000000000014 0.0021800000000000005 3.5000000000000004 13.500000000000002 0.48075237500000007 0.86942550000000007 0.0015665000000000002 0.0049185000000000001 0.037619000000000007 35.500000000000007 0.80137754999999999 1.2125000000000002e-05 0.080521250000000016
decision_type=2 2 2 2 2 2 2 2 2 2 2 2 2 2
left_child=1 4 -2 13 9 -6 7 -7 -5 10 12 -11 -1 -4
right_child=2 -3 3 8 5 6 -8 -9 -10 11 -12 -13 -14 -15
leaf_value=0.022095538636570468 -0.049096349345951119 0.026954357181206146 -0.038493206491285299 0.013658441511328731 0.016359500754678971 0.0056333056515383206 0.018029755150226992 -0.012617984127158555 -0.02425598925712812 -0.030467833399665394 0.022850967533970805 -0.00019997185937705017 -0.023752713702146402 -0.0077589133419510526
leaf_weight=39.552844453806756 302.16364240979601 637.06486820941791 318.05875260715402 177.8997299093171 800.87398368632421 444.01619332522387 211.90268364665098 347.82184529036749 55.273741370154312 206.77472965244669 114.25770126562566 173.96285169242765 131.74157250788994 61.319002253818326
leaf_count=630 21111 3205 28361 4704 5977 5282 1543 6234 1567 8976 1427 5581 6611 2616
internal_value=-6.20577e-05 0.00844168 -0.0289531 -0.019001 0.00366612 0.00833446 0.00192763 -0.00238269 0.00465025 -0.00897394 0.00125934 -0.0166501 -0.0131425 -0.0335369
internal_weight=4022.68 3107.97 914.715 612.551 2470.9 1804.61 1003.74 791.838 233.173 666.29 285.552 380.738 171.294 379.378
internal_count=103825 45466 58359 37248 42261 19036 13059 11516 6271 23225 8668 14557 7241 30977
is_linear=0
shrinkage=0.035


Tree=13
num_leaves=15
num_cat=0
split_feature=8 1 7 1 18 41 24 19 42 1 44 20 12 13
split_gain=1037.84 291.542 115.568 100.885 73.9912 60.6796 43.6266 36.2184 37.3385 42.3273 36.1611 36.3839 35.5745 32.7871
threshold=0.99756350000000016 45.500000000000007 119.09666250000002 212.50000000000003 6.5000000000000009 0.42998175000000005 5.5000000000000009 27.500000000000004 0.67735550000000011 63.500000000000007 6.5000000000000009 0.75201581250000016 0.098044500000000021 0.073554000000000022
decision_type=2 2 2 2 2 2 2 2 2 2 2 2 2 2
left_child=1 2 4 6 -1 -4 7 8 -3 -10 11 -7 -13 -9
right_child=-2 3 5 -5 -6 10 -8 13 9 -11 -12 12 -14 -15
leaf_value=-0.028474097729766307 -0.048464818204195396 0.013289138400836578 0.030431100088970837 0.031886977075659781 -0.0061985067779004093 -0.018498107512281106 0.028363807684725496 0.007397707831391283 -0.012654256032702715 0.028329013292493661 0.035356682361997203 0.0057927913710308617 -0.049623127370658951 -0.029594423092192963
leaf_weight=297.03523860353744 476.22538089760201 1246.8649666171405 99.729258564766496 357.12991757993586 474.99961650470505 119.70190646449919 168.14279643027112 66.061365553410724 141.49230474984506 39.259742279537022 34.298325991258025 363.34544360759901 14.563631847035138 52.454324565595016
leaf_count=21017 43621 10862 412 1524 10871 4085 1096 759 3294 378 166 4790 146 880
internal_value=-2.05357e-05 0.00662018 -0.00569351 0.0149651 -0.0147763 0.00540656 0.0114354 0.0095899 0.011134 -0.00372146 0.000701667 -0.00169669 0.00362746 -0.00898232
internal_weight=3951.3 3475.08 1403.67 2071.41 772.035 631.639 1714.28 1546.13 1427.62 180.752 531.909 497.611 377.909 118.516
internal_count=103901 60280 41487 18793 31888 9599 17269 16173 14534 3672 9187 9021 4936 1639
is_linear=0
shrinkage=0.035


Tree=14
num_leaves=15
num_cat=0
split_feature=8 1 1 20 41 18 18 9 10 39 13 42 9 10
split_gain=964.369 262.971 112.034 108.08 81.2398 59.4053 50.8529 50.5865 38.1026 35.2915 34.4121 33.6371 35.4517 31.8969
threshold=0.9981985000000001 21.500000000000004 306.50000000000006 0.54990324180327887 0.46323837500000004 6.5000000000000009 61.500000000000007 0.15377500000000002 0.099096500000000018 0.0091581785714285723 0.43967150000000005 0.67999850000000006 0.034138500000000009 0.0019695000000000003
decision_type=2 2 2 2 2 2 2 2 2 2 2 2 2 2
left_child=1 3 6 -1 7 -6 8 10 9 13 -5 12 -7 -3
right_child=-2 2 -4 4 5 11 -8 -9 -10 -11 -12 -13 -14 -15
leaf_value=-0.031770034137696399 -0.047777035116572504 0.011439195058842805 0.033276878937383222 0.023220570827066432 -0.023559098962322764 0.0060017511651783212 0.029086108664554414 -0.041109795428324943 -0.0093997279626031986 0.016290484134693133 -0.030136839721370538 -0.023724060042381225 -0.040389904572436824 -0.00015089955868776781
leaf_weight=193.94528144061042 457.69728564369143 630.40422978415154 285.74569265102036 202.19727232670994 231.03914210796938 321.65612155833514 156.94895446696319 18.193902244558558 137.00973611394875 646.21275166235864 15.778240038664078 68.586850846477319 21.32369695790112 539.37535235576797
leaf_count=11974 43603 9063 1055 2337 12895 5877 1250 241 2285 4425 411 1927 482 6123
internal_value=-3.68466e-05 0.0062649 0.0127137 -0.00813528 -0.00291106 -0.00936376 0.0099252 0.0146321 0.00838166 0.00972505 0.0193262 -0.00138317 0.00309054 0.00609449
internal_weight=3926.11 3468.42 2395.7 1072.72 878.775 642.606 2109.95 236.169 1953 1815.99 217.976 411.567 342.98 1169.78
internal_count=103948 60345 24201 36144 24170 21181 23146 2989 21896 19611 2748 8286 6359 15186
is_linear=0
shrinkage=0.035


Tree=15
num_leaves=15
num_cat=0
split_feature=8 1 18 42 39 10 33 1 7 25 22 28 12 21
split_gain=901.506 255.791 148.016 89.7429 76.7904 51.244 49.7403 48.1107 36.8602 35.7943 33.3004 38.3306 32.1256 38.0397
threshold=0.9981985000000001 54.500000000000007 6.5000000000000009 0.58009100000000013 0.05465550000000001 0.08679350000000001 0.5719019884615385 370.50000000000006 353.62043700000009 2.5000000000000004 0.44855920454545462 2.5000000000000004 0.020903000000000001 0.37785450000000004
decision_type=2 2 2 2 2 2 2 2 2 2 2 2 2 2
left_child=1 2 4 6 -1 -6 -4 12 10 -8 11 -5 -3 -14
right_child=-2 7 3 8 5 -7 9 -9 -10 -11 -12 -13 13 -15
leaf_value=-0.023009168748717335 -0.047075624775048633 0.01921937933310346 -0.0025913483477817919 -0.026355439912927957 0.021793179196000712 -0.028400555505137013 0.01156705989636214 0.037481366476620426 0.0084101821543035582 0.02883400034942293 0.014207377225615853 -0.0054109630248447187 -0.041991845419792548 0.013243612492366622
leaf_weight=433.39440520826611 442.9929152006589 778.17243520962074 217.92752835276769 141.27167789055966 91.078521753486712 34.059561590838712 520.16909978177864 173.29531888966449 237.56167942011962 205.53781713522039 75.269869465380907 441.85742845755885 23.264741823077202 43.51512188045308
leaf_count=25094 43609 6958 4176 3601 1005 804 3800 571 2893 1156 523 9301 266 258
internal_value=-0.000110555 0.00598118 -0.000258995 0.00453175 -0.016037 0.00809418 0.0120637 0.0206766 -0.00339996 0.0164665 -0.00766517 -0.0104954 0.0172199 -0.00604109
internal_weight=3859.37 3416.38 2398.13 1839.6 558.532 125.138 943.634 1018.25 895.961 725.707 658.399 583.129 844.952 66.7799
internal_count=104015 60406 52353 25450 26903 1809 9132 8053 16318 4956 13425 12902 7482 524
is_linear=0
shrinkage=0.035


Tree=16
num_leaves=15
num_cat=0
split_feature=8 1 20 7 41 1 22 14 28 10 7 10 35 42
split_gain=837.969 245.975 109.16 53.8397 51.5901 40.1608 38.7375 36.8224 32.4136 29.5672 29.3878 28.8596 28.5787 31.5093
threshold=0.9981985000000001 56.500000000000007 0.90903984166666685 94.01833550000002 0.5155965583333334 370.50000000000006 2.0156250000000007e-06 0.0032395000000000006 11.500000000000002 0.19638200000000003 566.8668785000001 0.055034500000000007 3.2402597402597406 0.65483700000000011
decision_type=2 2 2 2 2 2 2 2 2 2 2 2 2 2
left_child=1 2 3 6 7 8 11 -4 -3 12 -9 -1 -5 -14
right_child=-2 5 4 9 -6 -7 -8 10 -10 -11 -12 -13 13 -15
leaf_value=-0.0031167230747686371 -0.046442562552842383 0.015332690917284029 0.019722352106192789 -0.014859676950692237 -0.0018559993739383925 0.036477979140772429 -0.022455914277701518 -0.0013539135488811456 0.041185514648203761 -0.053771860454682054 0.021851094014848322 -0.041696409657682662 0.014393238778470187 -0.0051856314278169212
leaf_weight=330.52356423558376 426.44585281153559 668.30632589408197 420.29902054715785 97.333871671464294 483.23298340977635 171.5365471362602 337.74990868764871 268.04475903557613 65.226161384489387 11.637528063176431 88.81239152722992 25.411920194266713 240.3846500441432 172.86344215000281
leaf_count=8457 43613 6035 3023 3121 8184 572 18442 4166 266 211 516 976 3112 3389
internal_value=-0.000220369 0.0056109 -9.58433e-05 -0.00757761 0.00712053 0.0212232 -0.0139665 0.0127034 0.0176445 0.000907798 0.00442531 -0.00589789 0.00217809 0.00620053
internal_weight=3807.81 3381.36 2476.29 1215.9 1260.39 905.069 693.685 777.156 733.532 522.219 356.857 355.935 510.582 413.248
internal_count=104083 60470 53597 37708 15889 6873 27875 7705 6301 9833 4682 9433 9622 6501
is_linear=0
shrinkage=0.035


Tree=17
num_leaves=15
num_cat=1
split_feature=8 1 1 20 41 29 12 0 9 14 42 38 8 16
split_gain=782.515 243.55 93.6745 87.5511 64.8798 50.3182 46.0145 45.2166 35.9298 35.5464 39.8376 31.6597 29.7631 27.3322
threshold=0.99756350000000016 18.500000000000004 104.50000000000001 0.54990324180327887 0.46090558928571435 4231.0050761000011 0.0012345000000000001 0 0.052143000000000002 0.10813450000000001 0.67735550000000011 0.22183750000000005 0.70710650000000019 70.500000000000014
decision_type=2 2 2 2 2 2 2 1 2 2 2 2 2 2
left_child=1 3 7 -1 -5 -6 -7 -3 -4 10 12 -12 -9 -11
right_child=-2 2 8 4 5 6 -8 9 -10 13 11 -13 -14 -15
leaf_value=-0.030934747923565296 -0.045716890145547709 -0.015775898112956207 0.026103864105978567 0.012862927842566502 -0.015278796734950566 0.020084405615997676 -0.023891036609732491 -0.02282898051518939 -0.013708677810128163 -0.0098328691046738626 -0.011271151207447415 0.017309780223294609 0.014171693462867082 0.029713269546551398
leaf_weight=180.38490047560481 409.86943190964666 87.209924072492868 541.17122206906788 208.13380176445935 472.353279997973 107.21022172062658 39.789258281118236 27.016109344083816 29.09184019966051 172.09765212924685 156.92337249475531 67.816344001912512 1222.3209475250915 24.236731095705181
leaf_count=11599 43672 2404 2846 2691 18254 1842 990 482 162 3066 3717 593 11352 247
internal_value=-9.0647e-05 0.0055174 0.0117402 -0.00885327 -0.00403127 -0.00971372 0.00815312 0.00773796 0.0240657 0.00900888 0.0109264 -0.00263121 0.0133667 -0.00491688
internal_weight=3745.63 3335.76 2327.88 1007.87 827.487 619.353 146.999 1757.62 570.263 1670.41 1474.08 224.74 1249.34 196.334
internal_count=103917 60245 24869 35376 23777 21086 2832 21861 3008 19457 16144 4310 11834 3313
cat_boundaries=0 1
cat_threshold=32
is_linear=0
shrinkage=0.035


Tree=18
num_leaves=15
num_cat=1
split_feature=8 1 7 1 18 42 20 12 9 0 42 10 20 25
split_gain=740.05 237.575 87.7593 80.12 60.797 43.505 33.2933 31.9761 31.2501 30.9643 24.3451 30.0264 27.019 23.7913
threshold=0.99756350000000016 43.500000000000007 119.09666250000002 98.500000000000014 6.5000000000000009 0.43000550000000004 0.5259275952380954 0.069324500000000025 0.052143000000000002 0 0.67735550000000011 0.11402200000000001 0.99812299264705906 4.5000000000000009
decision_type=2 2 2 2 2 2 2 2 2 1 2 2 2 2
left_child=1 2 4 9 -1 -4 -7 13 -5 -3 11 -11 -12 -8
right_child=-2 3 5 8 -6 6 7 -9 -10 10 12 -13 -14 -15
leaf_value=-0.026868090936607244 -0.045158588334231975 -0.0060187032011719743 0.039618692444408153 0.025420100678081283 -0.0062050305005322721 -0.022629731110729277 0.0039042469410744433 -0.039085425056496065 -0.013320618494438474 0.01362948050877634 0.019131111041892242 -0.014098452220855455 -0.01128852745555896 0.031957481374051085
leaf_weight=284.43855817837175 398.60406278182199 159.60773528262507 38.909373534144834 572.83738271542825 451.73382429045159 62.331713734718505 424.2349464186118 19.565920540015213 26.516220295336097 992.80848771333694 51.189788263756782 50.044603643938899 117.39167064195499 40.41927487985231
leaf_count=20897 43716 3447 181 3045 10793 2975 5853 210 172 8415 835 706 2336 314
internal_value=-0.000129395 0.00532469 -0.00615429 0.0130249 -0.0141962 0.00395624 0.00140064 0.00450565 0.0236994 0.00835447 0.0102156 0.0122947 -0.00202951 0.006361
internal_weight=3690.63 3292.03 1321.63 1970.4 736.172 585.461 546.552 484.22 599.354 1371.04 1211.43 1042.85 168.581 464.654
internal_count=103895 60179 41223 18956 31690 9533 9352 6377 3217 15739 12292 9121 3171 6167
cat_boundaries=0 1
cat_threshold=33
is_linear=0
shrinkage=0.035


Tree=19
num_leaves=15
num_cat=0
split_feature=8 1 1 20 41 28 13 44 14 41 20 7 37 11
split_gain=696.134 228.261 93.6097 70.0419 61.703 41.4041 33.7245 32.4442 32.1582 29.0313 52.3343 28.5831 27.5016 27.2343
threshold=0.99756350000000016 18.500000000000004 210.50000000000003 0.54990324180327887 0.46397595000000008 9.5000000000000018 0.32819150000000002 7.5000000000000009 0.13792650000000004 0.50301850000000015 0.011715164705882354 31.361862500000004 4.5833333333333341e-06 0.43116950000000004
decision_type=2 2 2 2 2 2 2 2 2 2 2 2 2 2
left_child=1 3 5 -1 6 8 -5 12 11 -4 -11 -3 13 -6
right_child=-2 2 9 4 7 -7 -8 -9 -10 10 -12 -13 -14 -15
leaf_value=-0.028952411698352533 -0.044733815411800611 0.0012979041752265829 0.037037506985848227 0.016357511332644382 -0.04817497698523529 0.032544902302645722 -0.026301230091080839 0.040829690946551471 -0.0078901888819373333 -0.022634680082319295 0.027337348568102698 0.011390127834992778 -0.015744293257781334 0.0082360270358329754
leaf_weight=175.57580809129286 381.95932240557886 477.00276030448731 193.39295538049191 192.44385846541263 11.368868973222559 82.194197999313474 25.524915362591855 14.532446021214126 158.42448055103887 32.611349628306925 117.76728952536359 1234.9177272334928 452.56186378642451 111.29045883956132
leaf_count=11594 43676 8031 838 2444 265 507 576 64 2749 216 502 12087 19030 1420
internal_value=-2.80197e-05 0.00518051 0.0112228 -0.00892787 -0.00456685 0.00825466 0.0113345 -0.0104487 0.0071829 0.0280617 0.016473 0.00857957 -0.011761 0.00292333
internal_weight=3661.57 3279.61 2296.31 983.298 807.722 1952.54 217.969 589.754 1870.34 343.772 150.379 1711.92 575.221 122.659
internal_count=103999 60323 24930 35393 23799 23374 3020 20779 22867 1556 718 20118 20715 1685
is_linear=0
shrinkage=0.035


Tree=20
num_leaves=15
num_cat=0
split_feature=8 1 1 7 18 42 42 44 13 23 14 46 25 1
split_gain=650.58 216.545 77.536 75.1062 56.3527 37.5715 31.7701 37.4507 33.14 32.0736 52.3352 31.847 26.7071 25.8323
threshold=0.9981985000000001 45.500000000000007 98.500000000000014 119.09666250000002 6.5000000000000009 0.43000550000000004 0.57186500000000018 1.5000000000000002 0.089505000000000015 0.86942550000000007 0.0010585000000000002 1.5000000000000002 4.5000000000000009 786.50000000000011
decision_type=2 2 2 2 2 2 2 2 2 2 2 2 2 2
left_child=1 3 6 4 -1 -5 7 -3 -9 10 -8 -12 -7 -4
right_child=-2 2 13 5 -6 12 9 8 -10 -11 11 -13 -14 -15
leaf_value=-0.0257576290676708 -0.044267587392472683 -0.00089658645866703154 0.020574109404035881 0.03796326977154902 -0.0058179845230979079 -0.0012470651520636159 0.0096947459328047131 -0.0013572655843323883 0.020794716420911838 0.015811153075572834 -0.018703424007105014 0.024360446265202788 0.026834501727236913 0.044578545282315682
leaf_weight=281.31021412050177 366.12013985493832 191.29363019450102 511.92278390261345 35.983643147628754 454.28767135605449 492.80378467025002 209.36584390548524 99.851490772794932 477.53678995394148 148.02048667764757 210.01345367298927 23.170123629970476 45.094468683702871 61.725468400400132
leaf_count=21052 43538 3064 3002 178 10887 9013 2350 1054 2915 1083 4929 262 387 211
internal_value=-5.45347e-05 0.00493976 0.0123844 -0.006048 -0.0134507 0.00343905 0.00782649 0.0125161 0.0169617 0.00171737 -0.00299767 -0.0143997 0.00111299 0.0231747
internal_weight=3608.5 3242.38 1932.9 1309.48 735.598 573.882 1359.25 768.682 577.388 590.57 442.549 233.184 537.898 573.648
internal_count=103925 60387 18870 41517 31939 9578 15657 7033 3969 8624 7541 5191 9400 3213
is_linear=0
shrinkage=0.035


Tree=21
num_leaves=15
num_cat=0
split_feature=8 1 1 41 29 16 12 21 12 14 42 38 33 12
split_gain=623.358 209.731 95.9298 56.409 49.1651 38.3008 36.594 28.9298 31.4903 28.4464 26.2875 44.2923 27.6426 25.7371
threshold=0.9961945000000002 18.500000000000004 210.50000000000003 0.46323837500000004 4231.0050761000011 63.500000000000007 0.0012705000000000001 0.98702700000000021 0.0058590000000000005 0.13792650000000004 0.67735550000000011 0.21270400000000003 0.53807583333333342 0.0007825000000000001
decision_type=2 2 2 2 2 2 2 2 2 2 2 2 2 2
left_child=1 3 5 7 -5 9 -6 -1 -9 10 12 -12 -3 -4
right_child=-2 2 13 4 6 -7 -8 8 -10 -11 11 -13 -14 -15
leaf_value=-0.021246334071092419 -0.043413551066325919 0.0033511243074862448 0.037390420537230462 -0.018769524548072288 0.013583605594101289 0.021948694961103393 -0.026615907575645657 0.019133797685607638 -0.0099636266627316748 -0.0093419554185680126 -0.013427074513847777 0.020098023533759328 0.013564135968936792 0.01780878283627128
leaf_weight=42.035474430595059 361.98456125850498 556.49640488193836 176.48232348519377 545.92193908529589 113.99861334764864 210.1901192876976 36.428770989790792 151.70884928148007 64.846730296383612 134.12639836687595 162.3038110070629 68.459690024377778 781.38674470130354 155.96830204548314
leaf_count=2318 44173 8761 732 25899 2161 1882 1118 2498 969 2560 4192 609 5254 823
internal_value=0.000106297 0.00503168 0.0108748 -0.00870525 -0.0138886 0.00785597 0.00381452 0.0052461 0.0104115 0.00611296 0.00743657 -0.00346495 0.00931845 0.0282252
internal_weight=3562.34 3200.35 2245.41 954.94 696.349 1912.96 150.427 258.591 216.556 1702.77 1568.65 230.764 1337.88 332.451
internal_count=103949 59776 24813 34963 29178 23258 3279 5785 3467 21376 18816 4801 14015 1555
is_linear=0
shrinkage=0.035


Tree=22
num_leaves=15
num_cat=0
split_feature=8 1 1 18 41 41 44 12 39 29 1 39 12 11
split_gain=585.839 189.408 87.7694 56.0816 39.7485 32.8663 45.8612 38.986 36.1849 27.4829 26.0047 25.9244 25.379 24.5977
threshold=0.9961945000000002 18.500000000000004 98.500000000000014 3.5000000000000004 0.46323837500000004 0.50117575000000014 1.5000000000000002 0.0020075000000000002 0.013991375000000002 5036.5750088750001 364.50000000000006 0.057107750000000006 0.00049950000000000005 0.49378050000000007
decision_type=2 2 2 2 2 2 2 2 2 2 2 2 2 2
left_child=1 3 5 11 -5 6 -3 8 -7 -6 12 -1 -4 -14
right_child=-2 2 10 4 9 7 -8 -9 -10 -11 -12 -13 13 -15
leaf_value=-0.027944538659165442 -0.042834124704465348 -0.0040453665159734887 0.02805523319817502 0.011357985053623728 -0.011842604933136047 0.0033641012088859923 0.015293421302703558 -0.0081307323792899708 0.029741821451398899 0.0086402706300545938 0.034252837610286996 0.00011453141139038968 0.018159400135542115 -0.0057005401702799954
leaf_weight=202.49068049959897 350.13977090778644 192.2581434387248 166.5706896064803 173.98675872350577 422.16750676819356 391.02447418577503 683.45390321849845 323.64810675248737 75.978466898668557 98.811197586590424 160.89443188416772 50.200978634238709 158.63072634721175 79.123446712037548
leaf_count=15299 44203 4133 1040 2449 14024 6563 5334 5124 478 2013 595 1095 1004 555
internal_value=0.000120406 0.00485407 0.0104212 -0.00825321 -0.0031137 0.00637571 0.0110457 0.00119957 0.00767023 -0.00795255 0.0223384 -0.0223676 0.0175783 0.0102135
internal_weight=3529.38 3179.24 2231.58 947.657 694.965 1666.36 875.712 790.651 467.003 520.979 565.219 252.692 404.325 237.754
internal_count=103909 59706 24826 34880 18486 21632 9467 12165 7041 16037 3194 16394 2599 1559
is_linear=0
shrinkage=0.035


Tree=23
num_leaves=15
num_cat=0
split_feature=8 1 1 7 18 41 25 2 9 10 12 1 42 38
split_gain=542.749 192.898 79.0418 61.782 41.0166 32.6513 31.5309 30.6658 29.5375 23.6877 22.365 19.0195 18.821 21.8638
threshold=0.9981985000000001 35.500000000000007 98.500000000000014 119.09666250000002 6.5000000000000009 0.43492200000000009 6.5000000000000009 0.0040895000000000003 0.03812850000000001 0.12165100000000002 0.0035700000000000007 326.50000000000006 0.67735550000000011 0.22700200000000004
decision_type=2 2 2 2 2 2 2 2 2 2 2 2 2 2
left_child=1 3 7 4 -1 -5 10 -3 11 12 -7 -4 -9 -14
right_child=-2 2 8 5 -6 6 -8 9 -10 -11 -12 -13 13 -15
leaf_value=-0.024194953266511859 -0.043013388799155026 -0.016012236014407648 0.018893245107418799 0.02154534434055674 -0.0066313438929390973 0.00020058578990932624 0.031834537656343635 0.010695737115142701 -0.007159993493820834 -0.012347613435820241 -0.019345279130642511 0.032521466551590904 -0.011555111007757895 0.013777117001151029
leaf_weight=268.36862650878902 326.63430048380542 69.051978959352709 313.62778860412072 89.94362407666631 415.46227101446129 322.82276211783756 31.964557568542659 1076.3120566840516 38.845346296904609 67.082900968118338 91.928262608824298 211.85449524805881 106.81801522837486 68.197542841429822
leaf_count=20498 43398 2103 2125 542 10375 7096 158 10370 258 1432 1508 847 2441 585
internal_value=-6.79778e-05 0.00435578 0.0111806 -0.00655694 -0.0135318 0.00232913 -0.00154394 0.00668509 0.0222239 0.00787744 -0.00413471 0.0244012 0.00896489 -0.00166957
internal_weight=3498.91 3172.28 1951.79 1220.49 683.831 536.659 446.716 1387.46 564.328 1318.41 414.751 525.482 1251.33 175.016
internal_count=103736 60338 20161 40177 30873 9304 8762 16931 3230 14828 8604 2972 13396 3026
is_linear=0
shrinkage=0.035


Tree=24
num_leaves=15
num_cat=0
split_feature=2 1 15 44 18 42 21 13 5 12 39 10 20 33
split_gain=387.473 137.482 76.6213 85.0723 75.7745 42.1211 34.429 70.3304 53.0257 31.4838 30.7883 33.0798 27.8855 27.628
threshold=0.0097410000000000014 54.500000000000007 0.0021800000000000005 3.5000000000000004 10.500000000000002 0.57393950000000016 0.036348000000000012 0.13278300000000001 410.00000000000006 0.0049185000000000001 0.0028196250000000005 0.0032735000000000004 0.50000775000000008 0.57888326666666667
decision_type=2 2 2 2 2 2 2 2 2 2 2 2 2 2
left_child=1 4 -2 -4 10 13 7 -3 -9 -5 -1 12 -12 -6
right_child=2 6 3 9 5 -7 -8 8 -10 -11 11 -13 -14 -15
leaf_value=-0.024722763569190863 -0.042576526779780223 0.016388168076597886 -0.027619196035657521 0.0096917281245408882 -0.0038053525924552517 -0.0020981707623303849 0.021338664709237083 -0.041281876922202115 0.039615593543744096 -0.025441185686318243 -0.014506586122769762 -0.014998154981273906 0.026390096477355331 0.013095821255734358
leaf_weight=163.49437421781477 187.83630836291559 204.82557534310035 307.87386994175176 147.98293720989022 146.62008615769446 694.40088133336394 648.00126161857042 51.304223601473495 12.104769363999365 39.386044670580304 31.424293625284918 150.61445151481894 57.403196138810017 612.24230048293248
leaf_count=10923 21142 2010 31424 4128 2479 11717 5008 769 55 1616 1613 5653 1246 4349
internal_value=6.28463e-05 0.00588117 -0.0235444 -0.0163081 0.00040391 0.00412865 0.0169731 0.00641223 -0.025735 0.002278 -0.0130211 -0.00500975 0.0119024 0.00982789
internal_weight=3455.51 2772.44 683.079 495.243 1856.2 1453.26 916.236 268.235 63.409 187.369 402.936 239.442 88.8275 758.862
internal_count=104132 45822 58310 37168 37980 18545 7842 2834 824 5744 19435 8512 2859 6828
is_linear=0
shrinkage=0.035


Tree=25
num_leaves=15
num_cat=0
split_feature=8 1 1 20 41 16 18 12 42 9 18 42 39 9
split_gain=483.766 174.049 84.3252 64.8649 38.9064 37.7698 33.2348 29.2558 23.7079 23.469 23.1709 20.209 19.4158 24.033
threshold=0.9981985000000001 18.500000000000004 260.50000000000006 0.58901871307506071 0.46323837500000004 63.500000000000007 6.5000000000000009 0.0096615000000000017 0.67735550000000011 0.119244 48.500000000000007 0.67997550000000018 0.0091581785714285723 0.015725500000000003
decision_type=2 2 2 2 2 2 2 2 2 2 2 2 2 2
left_child=1 3 5 -1 7 8 12 -5 9 -3 -10 -8 -6 -14
right_child=-2 2 -4 4 6 -7 11 -9 10 -11 -12 -13 13 -15
leaf_value=-0.027337843406883076 -0.042387708470072887 0.0076585160653444831 0.027647627235920492 0.017313086996016285 -0.02970391615455828 0.020543226629778161 0.0016205115856256491 -0.015462788457382868 0.0025527401646363562 -0.013537512651536389 -0.01984516131295028 -0.020536952219449799 0.0049113960256911881 -0.031782479680296245
leaf_weight=185.28402057025232 303.88242936247843 1379.132151759346 268.05646096763667 142.58221398713067 112.91761391979526 213.9983168663457 289.49206803255947 43.308274822309613 169.4626778322272 66.869233312318102 84.634355577174574 60.830590621684678 61.063101869891398 33.773024826834444
leaf_count=12751 43414 15471 1261 1957 9809 1961 5995 567 2614 879 2671 1851 1471 1144
internal_value=-0.000252221 0.00386494 0.00926705 -0.00881819 -0.00419743 0.00668944 -0.00881791 0.00965923 0.00494236 0.00667538 -0.00491039 -0.00223148 -0.019903 -0.00817699
internal_weight=3415.29 3111.4 2182.15 929.251 743.967 1914.1 558.076 185.89 1700.1 1446 254.097 350.323 207.754 94.8361
internal_count=103816 60402 24857 35545 22794 23596 20270 2524 21635 16350 5285 7846 12424 2615
is_linear=0
shrinkage=0.035


Tree=26
num_leaves=15
num_cat=0
split_feature=8 1 18 41 11 12 21 11 19 12 20 1 39 12
split_gain=462.497 168.117 90.579 56.2166 47.6762 39.711 35.2691 52.1135 42.2298 32.5012 31.2621 29.625 24.7103 25.0627
threshold=0.9981985000000001 70.500000000000014 6.5000000000000009 0.48147041666666673 0.45823200000000003 0.0068810000000000008 0.072215000000000015 0.46771800000000008 25.500000000000004 0.0087665000000000017 0.56372490277777787 178.50000000000003 0.0017935500000000003 0.00018850000000000003
decision_type=2 2 2 2 2 2 2 2 2 2 2 2 2 2
left_child=1 2 4 10 9 12 7 11 -9 -1 -4 -3 -5 -14
right_child=-2 6 3 5 -6 -7 -8 8 -10 -11 -12 -13 13 -15
leaf_value=0.0020752948778570706 -0.042076243387514929 -0.00054560273629992756 -0.012549182790726785 -0.0064871309615235446 -0.023027290720864391 -0.017187509582354821 0.024564402996151719 0.042697163580065783 -0.033457380568869793 -0.031837159120199784 0.012601573689322819 0.029608819752007919 0.020518973372548963 0.001834102076812748
leaf_weight=245.42428681653109 293.91962557979423 65.357478374848142 66.009747515316121 331.39136712561594 280.22028795973165 175.6212813287857 464.99275930726435 10.646657245699314 50.070389832253568 40.089667405598448 703.77843718824442 101.8284312710166 110.26045444677584 432.92497866327176
leaf_count=8850 43556 940 1625 8392 17829 3930 3036 51 734 1223 6137 602 1336 5679
internal_value=-0.000143471 0.00386181 -0.000545703 0.003256 -0.0127758 -0.00200907 0.0190357 0.00773611 -0.0199787 -0.00269926 0.0104399 0.0178236 0.0010401 0.00563629
internal_weight=3372.54 3078.62 2385.72 1819.99 565.734 1050.2 692.896 227.903 60.717 285.514 769.788 167.186 874.577 543.185
internal_count=103920 60364 55001 27099 27902 19337 5363 2327 785 10073 7762 1542 15407 7015
is_linear=0
shrinkage=0.035


Tree=27
num_leaves=15
num_cat=0
split_feature=8 1 18 41 13 7 12 16 31 44 7 39 12 11
split_gain=445.957 168.111 86.6853 48.9841 37.0524 33.67 32.5335 30.5523 29.6939 28.8592 28.4316 26.6946 20.0871 17.7386
threshold=0.99756350000000016 72.500000000000014 6.5000000000000009 0.48147041666666673 0.024717000000000003 37.607878000000007 0.0029595000000000003 20.500000000000004 0.0099659999999999957 1.5000000000000002 1.6703515000000002 0.0044246250000000006 0.00018850000000000003 0.43822050000000007
decision_type=2 2 2 2 2 2 2 2 2 2 2 2 2 2
left_child=1 2 4 9 7 -3 11 8 -1 -4 -10 13 -13 -5
right_child=-2 5 3 6 -6 -7 -8 -9 10 -11 -12 12 -14 -15
leaf_value=-0.028268748658056859 -0.041694778943002664 0.0060924579444058399 -0.0076157472839590472 -0.020795490347142384 -0.022447568745131308 0.023929674027389661 -0.01152420483546047 0.016581597106360174 -0.049908080095012887 0.01258950240128393 0.0025959505708068029 0.028820918265731247 0.005876640375645204 -0.00037682214699487115
leaf_weight=75.615613111731363 286.49883669936389 175.23855258210097 99.18440065626055 59.652884672570508 251.34917610506818 502.97142626915593 293.61934380591265 66.783617437118664 13.583690586907322 670.49331345182145 151.02297321340302 58.409693697467446 233.37795233429642 404.95832138461992
leaf_count=6366 43755 1966 1855 1108 15378 3249 5643 888 1370 5938 3861 499 2643 9514
internal_value=4.27679e-05 0.00395836 -0.000425108 0.00327589 -0.0124867 0.0193266 -0.00163922 -0.00431671 -0.0101428 0.00998218 -0.00178148 0.00219766 0.0104922 -0.00301002
internal_weight=3342.76 3056.26 2378.05 1819.7 558.355 678.21 1050.02 307.006 240.222 769.678 164.607 756.399 291.788 464.611
internal_count=104033 60278 55063 27200 27863 5215 19407 12485 11597 7793 5231 13764 3142 10622
is_linear=0
shrinkage=0.035


Tree=28
num_leaves=15
num_cat=0
split_feature=8 1 1 20 10 39 16 14 29 12 14 10 8 15
split_gain=424.379 162.733 73.2641 49.3494 29.5431 39.4626 27.1156 29.9053 26.0287 34.8207 28.539 22.0939 20.2196 19.7241
threshold=0.9981985000000001 18.500000000000004 220.50000000000003 0.50000775000000008 0.15990650000000003 0.097867750000000017 63.500000000000007 0.13792650000000004 2628.067974000001 0.0012705000000000001 0.20036800000000002 0.025683500000000005 0.70491800000000004 0.21523450000000002
decision_type=2 2 2 2 2 2 2 2 2 2 2 2 2 2
left_child=1 3 6 -1 5 8 7 12 10 -10 -5 -4 -3 -14
right_child=-2 2 11 4 -6 -7 -8 -9 9 -11 -12 -13 13 -15
leaf_value=-0.029187750578289658 -0.041582908504519046 -0.025530380096712602 0.028630227094804922 -0.0074008618902762927 -0.04081368875413259 0.022046974470822208 0.01861923437929976 -0.011348024707204698 0.012682886269561421 -0.021377160048100061 -0.031493886136472651 -0.0022036763643357308 0.0062150505887023843 0.032242495354314511
leaf_weight=123.92793863231782 275.14067881547089 23.781571298488416 261.80121126037557 416.61998903690255 27.648801646661013 64.441985181765631 200.26740568713285 126.58873070077971 147.38723040922196 48.751977281528525 70.345012382458663 31.789949671598151 1457.075314175745 36.413900977233425
leaf_count=8772 43561 780 1292 15455 652 531 1925 2552 2881 1500 5768 193 17749 381
internal_value=2.34262e-05 0.00379607 0.00905073 -0.00869449 -0.00540936 -0.00408698 0.00646255 0.00497838 -0.00656067 0.00419492 -0.0108963 0.0252864 0.00634299 0.00685505
internal_weight=3311.98 3036.84 2137.72 899.123 775.195 747.546 1844.13 1643.86 683.104 196.139 486.965 293.591 1517.27 1493.49
internal_count=103992 60431 24872 35559 26787 26135 23387 21462 25604 4381 21223 1485 18910 18130
is_linear=0
shrinkage=0.035


Tree=29
num_leaves=15
num_cat=0
split_feature=8 1 1 7 28 18 42 42 10 25 14 7 11 39
split_gain=399.371 158.527 60.1045 49.4856 38.2213 34.3191 30.293 28.0272 25.4117 23.1162 18.7497 18.0154 15.0882 16.9767
threshold=0.9981985000000001 43.500000000000007 364.50000000000006 119.09666250000002 4.5000000000000009 5.5000000000000009 0.67735550000000011 0.43000550000000004 0.11402200000000001 5.5000000000000009 0.0048285000000000003 353.62043700000009 0.39295350000000001 0.092153500000000013
decision_type=2 2 2 2 2 2 2 2 2 2 2 2 2 2
left_child=1 3 4 5 6 -1 8 -5 -3 -9 11 -8 -7 -14
right_child=-2 2 -4 7 -6 12 10 9 -10 -11 -12 -13 13 -15
leaf_value=-0.023455907664074502 -0.041214622717338674 0.0092069224050900893 0.03171665301469364 0.035989120420647475 0.022177341390005999 -0.056727694044043743 -0.024403439004164289 -0.0022011326594791199 -0.014734652751765656 0.026762842374456541 0.0080635018986323376 0.0050978611821698031 -0.0073574382079991058 0.029224278160841364
leaf_weight=229.62069397902815 265.03078956627724 1213.5068668606691 145.15155295352452 27.838277871022001 210.41601219272707 7.1271159285679451 82.185994279250735 445.52376959878893 56.622777926153503 36.320561357308179 64.570402229204774 36.415599292784464 434.93272847495973 15.904769347980617
leaf_count=18810 43365 12007 574 181 1590 193 2758 9115 818 249 657 563 12712 100
internal_value=-4.37088e-05 0.00358797 0.0101268 -0.00628973 0.00823859 -0.012415 0.00621649 0.00197177 0.00813607 -4.05174e-06 -0.00707886 -0.0153373 -0.00686754 -0.00605063
internal_weight=3271.17 3006.14 1808.87 1197.27 1663.72 687.585 1453.3 509.683 1270.13 481.844 183.172 118.602 457.965 450.837
internal_count=103692 60327 18967 41360 18393 31815 16803 9545 12825 9364 3978 3321 13005 12812
is_linear=0
shrinkage=0.035


Tree=30
num_leaves=15
num_cat=0
split_feature=8 1 1 20 42 31 2 12 7 10 7 14 41 13
split_gain=378.934 146.361 60.3639 54.0805 32.311 27.9566 26.6908 26.6119 25.013 22.6273 20.8471 21.4774 18.6197 18.353
threshold=0.9981985000000001 35.500000000000007 98.500000000000014 0.8333337500000001 0.67758450000000015 0.0097845937500000025 0.0040895000000000003 0.0058590000000000005 5.0001145000000013 0.029358000000000006 123.52900100000001 0.21540400000000001 0.42998175000000005 0.53075700000000003
decision_type=2 2 2 2 2 2 2 2 2 2 2 2 2 2
left_child=1 3 6 4 5 -1 -3 8 -7 -4 11 -5 -12 -11
right_child=-2 2 9 10 -6 7 -8 -9 -10 13 12 -13 -14 -15
leaf_value=-0.020953213737105198 -0.040942334422912931 -0.015566132293625976 0.021837656097376996 -0.0028609833498265255 -0.034831409370703961 -0.027827219878266817 0.0067581325364062554 -0.031647269388701528 0.01189567869710711 0.0071388892124117712 0.027739360824941914 -0.028317293382855109 0.0028542748051429692 -0.048368654183742081
leaf_weight=176.04906139231753 255.00782529536809 68.990447740652598 479.49155432800762 333.69242460484384 89.421831157014822 23.074738423514646 1256.3025827869424 28.597176602313993 116.71124494198011 35.067001641262323 42.18083082139492 46.076353661919711 283.86958240164677 8.9946765871718508
leaf_count=11223 43590 2139 2911 8885 6406 2023 14813 1355 2689 218 200 3489 3848 93
internal_value=-5.40245e-06 0.00348963 0.00957086 -0.00637411 -0.0160957 -0.0112091 0.00559251 -0.000998229 0.00529565 0.0196321 -0.000393052 -0.00596742 0.00609403 -0.00432015
internal_weight=3243.53 2988.52 1848.85 1139.67 433.854 344.432 1325.29 168.383 139.786 523.553 705.819 379.769 326.05 44.0617
internal_count=103882 60292 20174 40118 23696 17290 16952 6067 4712 3222 16422 12374 4048 311
is_linear=0
shrinkage=0.035


Tree=31
num_leaves=15
num_cat=0
split_feature=8 1 1 7 12 16 14 23 12 39 2 37 11 41
split_gain=354.938 138.019 55.231 42.6377 27.4701 27.0329 27.3534 22.9589 26.5811 25.4487 21.8988 21.1753 20.9864 20.4495
threshold=0.9981985000000001 37.500000000000007 212.50000000000003 119.09666250000002 0.050479500000000004 104.50000000000001 0.10299300000000002 2.5000000000000002e-06 0.0016435000000000002 0.0049871250000000011 0.0040895000000000003 0.17039129166666669 0.33182050000000007 0.43098687500000005
decision_type=2 2 2 2 2 2 2 2 2 2 2 2 2 2
left_child=1 3 5 7 13 6 10 8 9 -1 -3 -8 -12 -5
right_child=-2 2 -4 4 -6 -7 11 -9 -10 -11 12 -13 -14 -15
leaf_value=-0.0072147321589880707 -0.040695795650703664 -0.0054066410056542577 0.02310310992148926 0.022590248694589869 -0.038792616731596404 0.027860241159969757 8.0688447547175356e-05 -0.018339874207417953 -0.021575953558400408 0.018718659863146928 -0.04405460589738025 -0.028898414289320773 0.0090085333064707507 0.00028823544693925624
leaf_weight=133.37722553938511 245.19933210054296 154.57014058972709 288.48709545203019 57.218691249843687 19.865931020351127 68.647872668458149 96.01976964075584 356.43449458904797 84.116910866141552 70.767676345945802 8.9967779314611089 45.252931878785603 1167.679561655561 411.45503650404862
leaf_count=4855 43523 2947 1525 408 320 489 1657 22089 2878 1265 429 948 11888 8705
internal_value=-0.000244261 0.00310531 0.00905038 -0.0064916 0.00130406 0.00641609 0.00541154 -0.0124003 -0.00504234 0.00177614 0.00696643 -0.00921735 0.00859391 0.00302322
internal_weight=3208.09 2962.89 1829.65 1133.24 488.54 1541.17 1472.52 644.696 288.262 204.145 1331.25 141.273 1176.68 468.674
internal_count=103926 60403 19883 40520 9433 18358 17869 31087 8998 6120 15264 2605 12317 9113
is_linear=0
shrinkage=0.035


Tree=32
num_leaves=15
num_cat=0
split_feature=1 15 1 14 20 15 9 40 14 9 41 16 39 47
split_gain=256.555 87.8061 67.7653 51.2635 44.0707 31.903 28.0069 28.0365 27.9693 25.1309 24.7721 27.5732 22.7557 20.3075
threshold=35.500000000000007 0.0014635000000000002 306.50000000000006 0.18123450000000005 0.48278543181818184 0.00098150000000000017 0.0013275000000000003 0.00069250000000000008 0.13792650000000004 0.18652850000000001 0.43098687500000005 6.5000000000000009 0.0001670555555555556 2.5000000000000004
decision_type=2 2 2 2 2 2 2 2 2 2 2 2 2 2
left_child=1 -1 5 4 -3 -2 12 -8 13 10 -6 -12 -7 -9
right_child=2 3 -4 -5 9 6 7 8 -10 -11 11 -13 -14 -15
leaf_value=-0.04044920571611043 -0.039591234727345291 -0.023534147492368967 0.026584952209623942 -0.025341891613669992 0.018898561143128066 0.003151587601565595 -0.0090927096480757762 0.0058030472736912749 -0.01370301047294587 -0.038721578524941506 -0.016582271457528518 -0.00015115593523862077 0.018538530325391496 0.022795742631783314
leaf_weight=117.95334644785908 18.353349770302884 144.8656164080312 223.39851232715955 193.22213960704539 65.695930812507868 180.22704864686239 183.63708143947588 730.46483066430665 81.029803594356054 22.889114565536147 156.31666143005714 624.59903822082561 341.53448625814053 97.644460752955638
leaf_count=17656 3244 9781 1290 21760 795 3514 3578 7090 2009 647 11372 16034 4508 773
internal_value=0.000112853 -0.0116466 0.00851138 -0.00882562 -0.00567341 0.00603468 0.00655926 0.0033707 0.00589156 -0.00269093 -0.00170582 -0.00344583 0.0132302 0.00781383
internal_weight=3181.83 1325.54 1856.29 1207.59 1014.37 1632.89 1614.54 1092.78 909.139 869.501 846.612 780.916 521.762 828.109
internal_count=104051 78045 26006 60389 38629 24716 21472 13450 9872 28848 28201 27406 8022 7863
is_linear=0
shrinkage=0.035


Tree=33
num_leaves=15
num_cat=0
split_feature=8 1 1 20 41 42 20 12 12 13 19 31 12 37
split_gain=325.203 127.378 53.6572 49.8365 29.5166 29.4101 24.5378 23.657 22.9079 26.6533 23.9457 19.7946 18.5407 17.543
threshold=0.99863050000000009 35.500000000000007 98.500000000000014 0.82760605000000009 0.51091908333333336 0.67586800000000002 0.66934316666666671 0.0016815000000000001 0.00057350000000000012 0.53735250000000012 13.500000000000002 0.0087526804451510346 0.0013745000000000001 0.00059612500000000008
decision_type=2 2 2 2 2 2 2 2 2 2 2 2 2 2
left_child=1 3 4 5 6 11 -3 -6 -4 -10 -11 -1 13 -13
right_child=-2 2 8 -5 7 -7 -8 -9 9 10 -12 12 -14 -15
leaf_value=-0.023138126482534396 -0.040438435964984275 -0.0036171268978196182 0.026169532055820698 -0.00067289911676970428 0.0052695994306437904 -0.03303193800327061 0.012339922772204118 -0.0092374510753181916 0.014824913453720426 0.021540340806319492 -0.047919953798481345 0.016134583684036492 -0.019563554270547363 -0.0084559305513641631
leaf_weight=107.57868026845972 228.09017726781894 145.38536564790411 238.04707654064987 686.88898788494407 304.98935889452696 95.785759603881161 622.28543448692653 250.64724800243857 245.04372507880908 9.4276693221181649 16.332251986837946 63.742163460206939 69.179516016825801 79.744689597049728
leaf_count=7672 43352 2928 1380 16660 4516 6980 5279 4286 1576 53 196 1410 3250 4446
internal_value=-0.000199793 0.00292917 0.00858637 -0.00646677 0.00486896 -0.0160236 0.00931546 -0.00127234 0.0182446 0.0112577 -0.0224612 -0.0109135 -0.00470547 0.00246316
internal_weight=3163.17 2935.08 1832.16 1102.92 1323.31 416.031 767.671 555.637 508.851 270.804 25.7599 320.245 212.666 143.487
internal_count=103984 60632 20214 40418 17009 23758 8207 8802 3205 1825 249 16778 9106 5856
is_linear=0
shrinkage=0.035


Tree=34
num_leaves=15
num_cat=0
split_feature=8 1 18 42 13 16 12 14 7 39 36 15 12 12
split_gain=306.859 133.207 64.674 54.5677 33.5914 31.9319 30.8734 27.6928 25.5637 23.9912 22.308 21.9135 21.3443 18.5141
threshold=0.9961945000000002 72.500000000000014 6.5000000000000009 0.65694200000000014 0.037619000000000007 20.500000000000004 0.00018850000000000003 1.0000000180025095e-35 8.7751825000000014 0.0042572857142857161 3.5000000000000004 0.13001150000000003 0.0096615000000000017 0.00015050000000000003
decision_type=2 2 2 2 2 2 2 2 2 2 2 2 2 2
left_child=1 2 4 7 5 10 9 12 -3 -5 -1 -9 -4 -10
right_child=-2 8 3 6 -6 -7 -8 11 13 -11 -12 -13 -14 -15
leaf_value=-0.028583904766481365 -0.039378762262021402 -0.002959246216514346 0.00059540158043465462 -0.0029290478025671522 -0.022391484000770807 0.016027962553292769 -0.013228948328287606 0.010840836385632366 0.030423435255535067 0.025198215839390456 -0.0040290309998572962 -0.0049575896673388683 -0.026382308097925414 0.015718949119437681
leaf_weight=62.368555889348499 227.59764779369652 70.763941811863333 176.15618104790337 151.66269900446059 220.36251795962744 71.295242756721564 354.2726917002874 843.93855721736327 139.33626831765287 48.953453354304656 165.57778268828406 122.97639755543787 44.889931964688003 433.12449964985717
leaf_count=5952 44159 923 3391 3650 14768 1038 7516 8517 912 384 5744 2886 734 3383
internal_value=-0.000260441 0.00280554 -0.00118987 0.00204062 -0.0120255 -0.00437633 -0.00701786 0.00627372 0.0168576 0.00394399 -0.0107743 0.00882911 -0.0048942 0.0193104
internal_weight=3133.28 2905.68 2262.45 1742.85 519.604 299.242 554.889 1187.96 643.225 200.616 227.946 966.915 221.046 572.461
internal_count=103957 59798 54580 27078 27502 12734 11550 15528 5218 4034 11696 11403 4125 4295
is_linear=0
shrinkage=0.035


Tree=35
num_leaves=15
num_cat=0
split_feature=8 1 1 20 16 42 12 23 42 38 25 42 15 40
split_gain=297.86 117.117 60.6386 37.2655 26.809 24.6014 25.089 30.4128 17.2663 20.9674 17.192 21.0641 19.364 15.5502
threshold=0.99534000000000011 21.500000000000004 316.50000000000006 0.58901871307506071 107.50000000000001 0.67997550000000018 0.0058590000000000005 0.74243900000000007 0.67735550000000011 0.054817000000000005 2.5000000000000004 0.58184500000000006 0.076015000000000013 0.0025555000000000005
decision_type=2 2 2 2 2 2 2 2 2 2 2 2 2 2
left_child=1 3 4 -1 8 6 7 13 10 -10 -3 -12 -13 -5
right_child=-2 2 -4 5 -6 -7 -8 -9 9 -11 11 12 -14 -15
leaf_value=-0.022376178432105948 -0.038773028834713272 0.0038631120866136019 0.02519393428219641 0.0018072649090632882 0.02611083131015985 -0.019824380660873029 -0.018618270478201662 -0.017173514279804146 -0.013114200119729968 0.0067929480037981545 0.01824802622658778 -0.014819423681113218 0.014366314957306397 0.017818038450201207
leaf_weight=172.90052653047314 226.23649421576556 1099.0157227633754 213.29114762193058 314.50400192529196 73.670645935693756 104.67254474639776 88.042472879169509 86.791936304420233 137.44979901288752 122.19389615440741 251.86168131441809 54.829189218813553 56.177583983168006 97.25361219397746
leaf_count=12916 44273 13806 990 8852 629 4694 2971 4907 3834 1485 1989 620 766 1304
internal_value=-0.000124543 0.0029211 0.0075569 -0.00785062 0.00545786 -0.00420951 -0.00141437 0.00162652 0.00457009 -0.00374072 0.00604767 0.0126534 -3.42852e-05 0.00559993
internal_weight=3098.89 2872.65 2008.49 864.165 1795.2 691.265 586.592 498.55 1721.53 259.644 1461.88 362.868 111.007 411.758
internal_count=104036 59763 24119 35644 23129 22728 18034 15063 22500 5319 17181 3375 1386 10156
is_linear=0
shrinkage=0.035


Tree=36
num_leaves=15
num_cat=0
split_feature=1 1 15 39 10 42 21 12 21 13 16 11 15 1
split_gain=223.063 87.6936 48.2389 34.0881 55.3388 31.8788 34.3305 31.1352 29.6424 51.1487 38.5197 23.9372 21.493 19.766
threshold=10.500000000000002 77.500000000000014 0.0021800000000000005 0.0083451250000000036 0.0013245000000000004 0.66059750000000006 0.79295400000000005 0.00018850000000000003 0.032870000000000003 0.12724450000000001 24.500000000000004 0.40168950000000003 0.0014635000000000002 178.50000000000003
decision_type=2 2 2 2 2 2 2 2 2 2 2 2 2 2
left_child=3 2 -2 -1 -5 6 -4 -7 9 13 -11 -8 -6 -3
right_child=1 8 5 4 12 7 11 -9 -10 10 -12 -13 -14 -15
leaf_value=-0.0280658733276603 -0.038822927946617375 -0.0016494805745718407 -0.0093772697957601788 0.025326275941350885 -0.039554014937593189 0.0061648560753672808 -0.022279852915588153 -0.011203421402627421 0.021032467023651854 0.04793263760579395 -0.041295350058624149 0.0081567486999429024 -0.012805032302173841 0.025526834860623081
leaf_weight=274.88120982199325 36.382026755876723 53.54923687025439 177.40461770287948 43.544149355213449 43.581882789709198 193.20788444648497 32.428244730923325 364.58963370948914 442.32035445497604 6.8002774268388739 38.753175066434778 1041.3538259192137 237.05448176077334 83.786731532774866
leaf_count=37430 5548 782 5898 2212 4884 4260 519 9031 4754 17 598 16184 11289 539
internal_value=0.000159195 0.00480599 0.000966241 -0.0189968 -0.011289 0.00177165 0.00487443 -0.00518427 0.0161326 0.00426275 -0.0277857 0.00723196 -0.0169905 0.0149307
internal_weight=3069.64 2470.58 1845.37 599.062 324.181 1808.98 1251.19 557.798 625.21 182.889 45.5535 1073.78 280.636 137.336
internal_count=103945 48130 41440 55815 18385 35892 22601 13291 6690 1936 615 16703 16173 1321
is_linear=0
shrinkage=0.035


Tree=37
num_leaves=15
num_cat=0
split_feature=8 1 20 16 10 42 11 1 39 10 9 39 40 1
split_gain=280.214 113.218 46.9802 41.5629 24.389 23.5634 18.4182 18.176 17.2444 19.0959 18.9835 28.5764 27.1203 21.8746
threshold=0.99863050000000009 37.500000000000007 0.8333337500000001 57.500000000000007 0.099096500000000018 0.67586800000000002 0.42353050000000009 245.50000000000003 0.092153500000000013 0.099096500000000018 0.00045450000000000004 0.0011861250000000003 0.00015650000000000004 3.5000000000000004
decision_type=2 2 2 2 2 2 2 2 2 2 2 2 2 2
left_child=1 2 5 4 7 -1 -5 -3 10 -10 12 -12 -4 -13
right_child=-2 3 8 6 -6 -7 -8 -9 9 -11 11 13 -14 -15
leaf_value=-0.010678298703507099 -0.039750502531166312 0.0056044565610010519 -0.0022233813274242491 -0.030892490513672582 -0.012070356450055662 -0.030806746156895246 0.020354778016065979 0.019429414422136818 0.027913177313197854 -0.011643897569754574 -0.027166326685940646 -0.021892519576930253 0.027761912672774208 0.0012832322702456581
leaf_weight=313.60862144928251 200.70226943684247 1192.6951104960754 107.28550638625165 8.6088810516521317 87.754556685831631 92.384363653647597 350.89695649512578 129.12133065436501 49.637807236984372 21.149402774637565 65.55162301834207 58.537888243066845 56.066734077292494 330.41863820818253
leaf_count=17027 43204 14008 3795 79 2162 7102 2924 760 289 304 2243 2261 1275 6520
internal_value=0.00020639 0.00300994 -0.00583548 0.0084842 0.00577152 -0.0152758 0.0191062 0.006959 -0.000264584 0.0160704 -0.00214348 -0.00582327 0.00807901 -0.00220968
internal_weight=3064.42 2863.72 1094.64 1769.08 1409.57 405.993 359.506 1321.82 688.648 70.7872 617.86 454.508 163.352 388.957
internal_count=103953 60749 40816 19933 16930 24129 3003 14768 16687 593 16094 11024 5070 8781
is_linear=0
shrinkage=0.035


Tree=38
num_leaves=15
num_cat=0
split_feature=8 1 1 20 41 23 41 44 1 18 7 8 20 7
split_gain=263.618 107.427 52.7567 36.3837 28.1476 25.8807 24.7046 20.9171 22.4176 19.7818 19.5055 21.8864 19.1936 19.142
threshold=0.9981985000000001 18.500000000000004 322.50000000000006 0.82760605000000009 0.51603020833333346 0.97337950000000006 0.49203667500000009 1.5000000000000002 77.500000000000014 87.500000000000014 421.48559400000005 0.84324850000000018 0.99999975000000008 132.13002700000001
decision_type=2 2 2 2 2 2 2 2 2 2 2 2 2 2
left_child=1 3 4 6 7 10 13 8 -3 -9 11 -6 -12 -1
right_child=-2 2 -4 -5 5 -7 -8 9 -10 -11 12 -13 -14 -15
leaf_value=-0.016977352219781069 -0.039472822371740469 -0.0076037478192041638 0.023814212475470206 -0.0020006334026872732 0.0077402000082622694 0.018225055852840458 -0.026448013426942266 0.010518246709383833 0.010519142309981563 0.039403718311589231 0.020246500460442698 -0.0099880040134569491 -0.0058204406920304361 0.0074027972187570212
leaf_weight=99.962446998688392 195.21193318051519 172.39337334461743 202.55134568293579 479.48667533139815 109.28039352604537 80.655792013509199 169.08788118745724 740.67966059356695 161.9355958015658 30.116266682744026 78.064840872189961 385.23737660713959 61.754139920696616 64.816259975428693
leaf_count=6522 43548 4111 971 14069 2045 567 13586 6569 1837 264 753 7294 563 1401
internal_value=-0.000152421 0.0025561 0.00687605 -0.00818379 0.00498772 -0.000421229 -0.017052 0.00848823 0.00117007 0.011659 -0.00279986 -0.00606528 0.00872909 -0.00737938
internal_weight=3031.23 2836.02 2022.67 813.353 1820.12 714.993 333.867 1105.12 334.329 770.796 634.337 494.518 139.819 164.779
internal_count=104100 60552 24974 35578 24003 11222 21509 12781 5948 6833 10655 9339 1316 7923
is_linear=0
shrinkage=0.035


Tree=39
num_leaves=15
num_cat=1
split_feature=8 1 18 1 41 12 39 39 10 25 0 11 23 41
split_gain=250.343 106.561 50.5104 44.4901 34.7394 26.1805 27.8393 19.5497 26.3413 17.7074 17.6572 17.4319 16.2153 20.2524
threshold=0.9981985000000001 45.500000000000007 6.5000000000000009 370.50000000000006 0.51603020833333346 0.0016815000000000001 0.013547625000000002 0.0099022500000000013 0.007837000000000002 2.5000000000000004 0 0.42353050000000009 0.0053900000000000016 0.55875675000000014
decision_type=2 2 2 2 2 2 2 2 2 2 1 2 2 2
left_child=1 2 7 4 9 6 10 -1 -9 -3 -6 -11 13 -12
right_child=-2 3 -4 -5 5 -7 -8 8 -10 11 12 -13 -14 -15
leaf_value=-0.023195108379966536 -0.039326538497305386 0.0075861543224150342 -0.00032695715412464394 0.027601349753631602 0.016448078816280944 -0.0083759104059742337 0.029363211734497578 0.00767060980680008 -0.01878457914630904 -0.025052427253542685 0.0030199746795748009 0.020136520712757552 0.0067018821922751031 -0.026153107832967544
leaf_weight=211.18401877352153 186.99234522296319 678.56460717995651 710.07027019621455 131.11667260713875 66.267261085798964 265.95052538823802 53.631471948232502 79.277363671979401 109.4805700551442 10.708591293310745 55.89950144442264 253.35358926607296 107.41735411714762 60.416628634906374
leaf_count=19620 43353 7220 15455 578 648 4288 296 2116 4275 283 783 1912 1350 1357
internal_value=-0.000142078 0.00248302 -0.00593375 0.00803425 0.00637693 -0.000131611 0.00624505 -0.0158787 -0.00766792 0.0105869 0.00194636 0.0182798 -0.0029545 -0.0121369
internal_weight=2980.33 2793.34 1110.01 1683.33 1552.21 609.583 343.632 399.942 188.758 942.627 290.001 264.062 223.733 116.316
internal_count=103534 60181 41466 18715 18137 8722 4434 26011 6391 9415 4138 2195 3490 2140
cat_boundaries=0 1
cat_threshold=20
is_linear=0
shrinkage=0.035


Tree=40
num_leaves=15
num_cat=0
split_feature=8 1 1 20 9 39 41 39 12 41 13 19 1 39
split_gain=239.845 107.119 52.5417 31.8939 22.0084 29.1203 27.1684 25.7196 26.672 20.4342 18.7044 31.441 26.5964 18.1423
threshold=0.99756350000000016 18.500000000000004 185.50000000000003 0.82760605000000009 0.0020095000000000004 0.0023942500000000005 0.44956487500000003 0.0059676250000000016 0.0049185000000000001 0.47855935714285713 0.15122450000000004 48.500000000000007 375.50000000000006 0.042284125000000013
decision_type=2 2 2 2 2 2 2 2 2 2 2 2 2 2
left_child=1 3 4 9 5 -3 -6 -8 13 -1 -4 -12 -13 -9
right_child=-2 2 10 -5 6 -7 7 8 -10 -11 11 12 -14 -15
leaf_value=-0.0063213295356723239 -0.039065997225207358 0.0050897969350461392 0.026275816280542243 -0.0026750692025695588 0.010427363167295301 0.022326447053001124 -0.011132819154068363 0.0052172603672092314 -0.0058407076230083677 -0.024159620229339072 0.021967704241125669 -0.041481327765600158 0.021325861270207466 0.02746009704149184
leaf_weight=134.06454863914405 182.24943213067309 480.04979241953697 201.98692401312292 484.86665748886298 283.2642244665185 160.19549806753639 262.46461748913862 197.64090751775075 245.87142422271427 191.90117557431222 66.778134809923358 22.571849192492664 12.762488774023948 58.109996516141109
leaf_count=6196 43758 8399 1187 14015 2098 1746 4571 1893 4046 15219 330 275 67 305
internal_value=-0.00018174 0.0023489 0.0067152 -0.00837317 0.0042995 0.00941093 0.00117201 -0.0022587 0.00238362 -0.0168368 0.0201038 0.00785032 -0.0187543 0.0102955
internal_weight=2984.78 2802.53 1991.7 810.832 1687.6 640.245 1047.35 764.087 501.622 325.966 304.099 102.112 35.3343 255.751
internal_count=104105 60347 24917 35430 23058 10145 12913 10815 6244 21415 1859 672 342 2198
is_linear=0
shrinkage=0.035


Tree=41
num_leaves=15
num_cat=0
split_feature=8 1 18 13 16 41 7 10 9 28 8 30 18 13
split_gain=231.99 120.463 65.8052 35.7992 32.8953 32.3022 18.754 18.4477 17.7363 17.6888 19.7523 17.9284 17.5382 18.147
threshold=0.99915650000000011 98.500000000000014 6.5000000000000009 0.037619000000000007 20.500000000000004 0.50117575000000014 3.8395410000000001 0.030952000000000004 1.5000000000000002e-06 9.5000000000000018 0.9446905000000001 177.49004450000004 46.500000000000007 0.089505000000000015
decision_type=2 2 2 2 2 2 2 2 2 2 2 2 2 2
left_child=1 2 3 4 6 12 -1 -3 -8 10 11 -7 -4 -14
right_child=-2 7 5 -5 -6 9 8 -9 -10 -11 -12 -13 13 -15
leaf_value=-0.033955469173911151 -0.039140557439310449 0.020666093528702547 0.0018597532897951714 -0.021842971213956616 0.013549745755749514 0.0088396698177646317 0.033843837987733653 -0.0045284946602247448 -0.0095100014451796923 0.025258991248037949 -0.034504333162852036 -0.0048984685008634666 -0.0036479032203127083 0.014542505592593758
leaf_weight=36.680777059023967 174.32982690852805 432.01976693957113 433.91022806801629 233.00515276275109 94.204475354054011 141.25181749550393 12.208092291904903 38.604287291760556 167.24227875145152 27.032778687367681 24.09217460265063 654.66645196135505 80.209648344432935 406.68553535966203
leaf_count=4212 43280 2929 7725 15931 1370 2324 255 305 7579 321 980 12922 1280 2623
internal_value=1.95277e-06 0.00245819 -0.000828225 -0.0114793 -0.00368343 0.00244528 -0.0112085 0.0185947 -0.00651648 -0.00248573 -0.00340844 -0.00245655 0.00698275 0.011542
internal_weight=2956.14 2781.81 2311.19 543.341 310.336 1767.85 216.131 470.624 179.45 847.043 820.01 795.918 920.805 486.895
internal_count=104036 60756 57522 29347 13416 28175 12046 3234 7834 16547 16226 15246 11628 3903
is_linear=0
shrinkage=0.035


Tree=42
num_leaves=15
num_cat=0
split_feature=8 1 18 42 13 12 14 22 1 21 13 20 9 16
split_gain=218.768 96.8459 51.8984 36.4763 26.43 24.6007 24.6005 24.7246 22.6962 24.2598 58.5209 21.5061 20.7847 18.6423
threshold=0.9981985000000001 57.500000000000007 6.5000000000000009 0.59058250000000012 0.024717000000000003 0.0021065000000000003 0.00056150000000000004 0.00022350000000000004 986.00000000000011 0.035331000000000008 0.13278300000000001 0.98902838679245286 0.023692000000000001 20.500000000000004
decision_type=2 2 2 2 2 2 2 2 2 2 2 2 2 2
left_child=1 2 4 11 13 6 -5 12 9 10 -3 -4 -8 -1
right_child=-2 8 3 5 -6 -7 7 -9 -10 -11 -12 -13 -14 -15
leaf_value=-0.0093696874280361619 -0.038826455875370751 0.011887326214927201 -0.00039276404397677414 0.0085747447776206888 -0.021191762316843291 -0.012850609113711097 -0.025480636086300475 0.0013014093411482051 0.039048330625129739 0.015841284951647421 -0.036397355268848755 0.011180212109686663 0.038146996319047291 0.01281060065448917
leaf_weight=211.99690316207125 168.08529673728481 130.54727392201312 325.32521507283673 239.02597145762411 204.51201512789703 256.9513855354744 89.568047574022785 163.30426278989762 39.971046097809449 494.54999106167816 40.00251864711754 496.15907077095471 6.5671540871262541 59.178470554528758
leaf_count=11620 43487 1459 6130 4588 15153 5727 2558 3097 168 4460 728 3903 49 822
internal_value=-8.4498e-05 0.00227892 -0.00156476 0.00149127 -0.0116955 -0.00405783 0.000474541 -0.00698243 0.0134683 0.0119171 0.00052252 0.00659596 -0.0210458 -0.00451697
internal_weight=2925.74 2757.66 2052.59 1576.9 475.687 755.417 498.465 259.439 705.071 665.1 170.55 821.484 96.1352 271.175
internal_count=103949 60462 53647 26052 27595 16019 10292 5704 6815 6647 2187 10033 2607 12442
is_linear=0
shrinkage=0.035


Tree=43
num_leaves=15
num_cat=0
split_feature=8 1 18 41 11 10 39 12 44 7 12 22 39 1
split_gain=212.469 96.0635 49.6913 39.1248 27.721 23.2355 34.3157 23.0888 21.8103 21.3354 19.3238 19.3206 18.873 16.9267
threshold=0.9981985000000001 57.500000000000007 6.5000000000000009 0.49755687500000007 0.45823200000000003 0.0052895000000000017 0.0045084166666666675 0.0087665000000000017 1.5000000000000002 8.7751825000000014 0.00060550000000000003 0.46111275000000007 0.057107750000000006 786.50000000000011
decision_type=2 2 2 2 2 2 2 2 2 2 2 2 2 2
left_child=1 2 4 8 7 6 -5 -1 -4 -3 -7 -12 -6 -11
right_child=-2 9 3 5 12 10 -8 -9 -10 13 11 -13 -14 -15
leaf_value=0.00070019501398048054 -0.038692068836485488 -0.0032602715059231891 -0.0071884983086876507 -0.004905317375755276 -0.024093526971634902 -0.0373797775488535 0.016231066881202974 -0.031056939245822823 0.0094759677736163499 0.014165195345775398 -0.01149788242789637 0.016837279464962326 0.0073209017840869346 0.035903039034321849
leaf_weight=219.17285111677484 162.80142728656938 80.662100309040397 111.87425326323137 329.28445303827175 195.48415734388982 30.834176369477063 131.49290628288873 31.943395849608351 676.77714045834728 570.10598093841691 261.11313975410303 33.002545837778598 26.428345199441537 47.601290487742517
leaf_count=8806 43491 1247 2451 8739 16937 376 1523 1206 7407 5351 5254 211 549 206
internal_value=0.000131108 0.00243628 -0.00138667 0.00160144 -0.0113322 -0.00392437 0.00112704 -0.00335403 0.00710859 0.0136437 -0.0110889 -0.00830318 -0.0203412 0.0158543
internal_weight=2908.58 2745.78 2047.41 1574.38 473.029 785.727 460.777 251.116 788.651 698.369 324.95 294.116 221.913 617.707
internal_count=103754 60263 53459 25961 27498 16103 10262 10012 9858 6804 5841 5465 17486 5557
is_linear=0
shrinkage=0.035


Tree=44
num_leaves=15
num_cat=0
split_feature=1 18 1 15 14 21 13 17 13 15 15 7 9 7
split_gain=158.796 60.7756 52.2036 23.2345 22.5746 20.0226 19.8369 18.926 18.3114 16.1889 15.4673 16.945 15.3319 15.2908
threshold=37.500000000000007 6.5000000000000009 182.50000000000003 0.0021800000000000005 0.10299300000000002 0.013734000000000001 0.32013550000000007 45.500000000000007 0.10347600000000001 0.00098150000000000017 0.0028410000000000002 0.85478950000000009 1.5000000000000002e-06 119.09666250000002
decision_type=2 2 2 2 2 2 2 2 2 2 2 2 2 2
left_child=1 6 4 -3 5 8 10 -6 -2 -7 -1 -12 -13 -5
right_child=2 3 -4 13 7 9 -8 -9 -10 -11 11 12 -14 -15
leaf_value=-0.037739273883302962 -0.0018927996965556755 -0.037526904649568898 0.02008057529859724 -0.0065372312598095915 -0.014272618256928188 -0.037304016536795347 -0.031101137319521369 0.018565591056775913 -0.042140887657737394 0.0070806338385548057 -0.03655757668787353 0.027319467899136255 -0.011736173698955845 0.0040838535406399982
leaf_weight=33.264915715535608 54.466481565614231 23.079198281342542 302.15712963141414 384.80252701134305 126.17660662615526 9.9469600519369106 127.48904736558325 25.686724519116979 18.424787651165389 1164.7779263678676 32.734582511126064 12.658150739254777 284.85479913649033 291.59937875911419
leaf_count=8092 1101 4261 2474 11421 3544 2847 19764 884 667 14132 5257 538 23802 5224
internal_value=3.06411e-05 -0.00977291 0.00689068 -0.00314255 0.00403917 0.00559111 -0.0192098 -0.00868962 -0.0121778 0.00669703 -0.0150198 -0.0127045 -0.0100514 -0.001956
internal_weight=2892.12 1190.48 1701.64 699.481 1399.48 1247.62 491.001 151.863 72.8913 1174.72 363.512 330.248 297.513 676.402
internal_count=104008 78359 25649 20906 23175 18747 57453 4428 1768 16979 37689 29597 24340 16645
is_linear=0
shrinkage=0.035


Tree=45
num_leaves=15
num_cat=0
split_feature=8 1 18 41 13 16 28 22 31 8 14 13 41 12
split_gain=199.291 97.6531 61.7648 33.4975 29.8948 24.293 20.9822 21.1219 19.3162 17.3643 18.1188 17.4226 17.2953 15.4912
threshold=0.99863050000000009 104.50000000000001 6.5000000000000009 0.50117575000000014 0.037619000000000007 20.500000000000004 7.5000000000000009 0.43851100000000004 0.0099659999999999957 0.9446905000000001 0.0015665000000000002 0.085384500000000016 0.62895187500000016 0.00049950000000000005
decision_type=2 2 2 2 2 2 2 2 2 2 2 2 2 2
left_child=1 2 4 -4 5 8 7 9 -1 10 -5 -12 -13 -3
right_child=-2 13 3 6 -6 -7 -8 -9 -10 -11 11 12 -14 -15
leaf_value=-0.026081640865106816 -0.038610128627502689 0.024929352016243824 0.0072398931734105497 0.00040877535187665737 -0.020762044739315071 0.011025513830404083 0.019565042823409533 0.010077607951072674 -0.0031926942925173192 -0.037547928585042523 -0.019291188273596344 0.0022725811231901049 -0.030775480298975217 0.011631864688800116
leaf_weight=66.162805817031767 153.24760348718337 193.64133803697769 919.08818289310875 338.20545890525682 223.17034412706562 92.741181352641433 49.663244119728915 113.80881729419343 142.30239380162675 20.809948603156954 160.81293547415407 128.09483141731471 22.644103284459561 243.75489951489726
leaf_count=6695 43427 1229 11666 6443 15947 1403 760 860 5308 888 4144 2762 783 1781
internal_value=0.000194726 0.00238847 -0.000520289 0.00263137 -0.0110574 -0.00385225 -0.00244551 -0.00384599 -0.0104836 -0.00621401 -0.00519654 -0.0112834 -0.00271453 0.0175315
internal_weight=2868.15 2714.9 2277.5 1753.13 524.377 301.206 834.039 784.376 208.465 670.567 649.757 311.552 150.739 437.396
internal_count=104096 60669 57659 28306 29353 13406 16640 15880 12003 15020 14132 7689 3545 3010
is_linear=0
shrinkage=0.035


Tree=46
num_leaves=15
num_cat=0
split_feature=8 1 18 42 10 12 1 2 13 13 39 21 7 22
split_gain=195.006 95.3356 45.1337 32.7997 32.7954 28.0194 22.6664 22.8551 31.2484 22.3682 22.1589 18.7948 18.41 21.7774
threshold=0.99534000000000011 75.500000000000014 9.5000000000000018 0.65694200000000014 0.11402200000000001 0.00011750000000000001 370.50000000000006 0.0040895000000000003 0.53735250000000012 0.62039200000000017 0.0032345000000000008 0.85034100000000012 115.59668300000001 5.3541666666666678e-06
decision_type=2 2 2 2 2 2 2 2 2 2 2 2 2 2
left_child=1 2 9 4 11 10 7 8 -3 12 -5 -4 13 -1
right_child=-2 6 3 5 -6 -7 -8 -9 -10 -11 -12 -13 -14 -15
leaf_value=-0.00039781839489056429 -0.037836668724853577 0.0067743261212275261 -0.009095389581163545 -0.00041658777039580314 -0.023977379911914273 -0.01105219767078941 0.028046960281903704 0.018649342960628663 -0.043024819309070275 -0.02718391802087243 0.032210422880716919 0.00854794134685616 0.0018382374701734028 -0.018179691642920888
leaf_weight=136.93083195525105 156.94692984192807 196.01065527799074 80.468478143797256 98.6478437926271 43.344857051270083 327.29788516837289 125.47250684234314 238.29892429785104 16.549439751543105 73.12157058158482 34.1382080106996 882.71604469628073 201.74657030121307 220.49362934088276
leaf_count=5319 44320 2283 2069 2281 710 6544 577 1895 282 5537 245 9680 5051 17223
internal_value=5.44381e-05 0.00228069 -0.00118111 0.00218798 0.00572727 -0.00555027 0.0148871 0.0112101 0.00285205 -0.00899676 0.00799422 0.00707054 -0.00660647 -0.0113763
internal_weight=2832.18 2675.24 2098.91 1466.61 1006.53 460.084 576.332 450.859 212.56 632.293 132.786 963.185 559.171 357.424
internal_count=104016 59696 54659 21529 12459 9070 5037 4460 2565 33130 2526 11749 27593 22542
is_linear=0
shrinkage=0.035


Tree=47
num_leaves=15
num_cat=0
split_feature=8 1 1 20 1 42 20 23 41 21 13 12 39 39
split_gain=178.637 93.9877 45.698 24.3967 20.6336 20.5291 27.5809 24.8507 19.9822 18.863 49.6416 17.5198 19.4333 16.5695
threshold=0.99863050000000009 77.500000000000014 21.500000000000004 0.83448200000000006 659.00000000000011 0.5836380000000001 0.66934316666666671 0.97942450000000003 0.48147041666666673 0.036348000000000012 0.15122450000000004 0.015976500000000005 0.097867750000000017 0.23321450000000005
decision_type=2 2 2 2 2 2 2 2 2 2 2 2 2 2
left_child=1 2 3 8 9 6 -4 -7 -1 10 -3 12 -5 -8
right_child=-2 4 5 11 -6 7 13 -9 -10 -11 -12 -13 -14 -15
leaf_value=-0.005494188857835868 -0.038406935102725893 0.011844992875786496 -0.010403476616505661 -0.0030260062251791721 0.032780324250924503 -0.0052770645670790015 0.0097210444447093525 0.017613550621512913 -0.022792469475034591 0.016521289890161502 -0.036834092362201913 -0.024503020757250086 0.024559919073702224 -0.035843105050133189
leaf_weight=144.69833617433324 141.73586635823449 126.19572980329394 103.82590915961191 398.87461282946606 66.247616082022432 490.77525243669515 632.87983339605853 65.676410485175438 189.44463156093843 351.66091357904952 31.995962693705224 41.957791285647545 33.7393186558038 9.7225831523537618
leaf_count=6835 43359 1381 2881 12632 285 9898 5826 470 15569 2731 575 1173 266 188
internal_value=-0.00013857 0.00188157 -0.00153668 -0.00807145 0.0144098 0.00251882 0.00631212 -0.00256685 -0.0153146 0.0120075 0.001954 -0.00296363 -0.000860197 0.009018
internal_weight=2829.43 2687.69 2111.59 808.715 576.1 1302.88 746.428 556.452 334.143 509.853 158.192 474.572 432.614 642.602
internal_count=104069 60710 55738 36475 4972 19263 8895 10368 22404 4687 1956 14071 12898 6014
is_linear=0
shrinkage=0.035


Tree=48
num_leaves=15
num_cat=0
split_feature=1 1 15 12 22 21 42 30 39 15 42 16 10 47
split_gain=147.463 51.7041 38.582 27.7916 27.5636 22.7765 22.4971 20.3455 22.9923 20.0895 18.9083 17.7524 16.3997 15.5242
threshold=25.500000000000004 114.50000000000001 0.0021800000000000005 0.0058590000000000005 2.6689903846153851e-05 0.79295400000000005 0.67735550000000011 17009.771270000001 0.037721013157894744 0.041886000000000007 0.67999850000000006 8.5000000000000018 0.11402200000000001 2.5000000000000004
decision_type=2 2 2 2 2 2 2 2 2 2 2 2 2 2
left_child=2 6 -1 4 5 -4 9 8 11 -2 -7 -6 -11 -13
right_child=1 -3 3 -5 7 10 -8 -9 -10 12 -12 13 -14 -15
leaf_value=-0.037732221486805148 -0.024245018726392203 0.017000259333638908 -0.022456184738910083 -0.022797259952388391 -0.030503183006725828 0.0068654483649583367 -0.0073031757300255238 0.0056468058709308079 0.010621919417877747 0.0063494570159107876 -0.019686434110668755 -0.019905373670610436 -0.012606294987293622 0.0033362598340291676
leaf_weight=61.545320952220209 28.390478666635317 407.29959919076646 46.102006999601144 150.54995329448138 114.81851421090323 284.42183841924998 223.85383633859601 59.55736364951008 33.539726721792249 1153.0449092284616 36.923375980404671 109.26237675095763 58.518315934576094 51.645986250106944
leaf_count=16912 3841 4019 2880 10479 19548 6402 6231 4204 982 15791 1523 7819 943 2462
internal_value=0.000273732 0.00597276 -0.0109674 -0.00909984 -0.00629124 0.0004895 0.0029013 -0.013048 -0.0166552 0.00474585 0.00379878 -0.0199848 0.00543052 -0.0124399
internal_weight=2819.47 1871.11 948.366 886.821 736.271 367.447 1463.81 368.824 309.267 1239.95 321.345 275.727 1211.56 160.908
internal_count=104036 30825 73211 56299 45820 10805 26806 35015 30811 20575 7925 29829 16734 10281
is_linear=0
shrinkage=0.035


Tree=49
num_leaves=15
num_cat=0
split_feature=8 1 18 42 1 2 10 12 39 12 16 33 11 21
split_gain=168.515 85.2535 43.3306 27.464 24.1915 17.8532 24.6685 17.8234 24.4592 20.734 17.4099 18.2369 17.1033 34.2915
threshold=0.99915650000000011 57.500000000000007 6.5000000000000009 0.59058250000000012 364.50000000000006 0.0040895000000000003 0.034046000000000007 0.0068810000000000008 0.032326750000000008 0.0024725000000000003 20.500000000000004 0.55366618610421847 0.46933200000000003 0.05007000000000001
decision_type=2 2 2 2 2 2 2 2 2 2 2 2 2 2
left_child=1 2 10 -4 5 6 12 8 9 -5 11 -1 -3 -14
right_child=-2 4 3 7 -6 -7 -8 -9 -10 -11 -12 -13 13 -15
leaf_value=-0.026763235191243351 -0.038253120533418901 0.012630573764737077 0.0056134123852309556 -0.0015730037352062324 0.02690561718465808 0.014687605866232535 -0.035573828051835482 -0.016068597699114315 0.016677185933390175 -0.023463026857018149 0.0020619138732625177 -0.0094606259371940102 -0.045374423090563103 0.0085896824326725761
leaf_weight=108.33904247940518 133.22361332342552 135.17983617982827 807.69798772374634 467.41029795715076 121.38810376316542 339.2219786766218 19.423465155996382 120.1267814328894 80.063528960745316 59.62929729372263 94.72790582900052 241.90457772546506 21.309122877544723 43.548617550171912
leaf_count=12590 43188 1675 10050 10442 591 3265 297 3487 793 1412 2309 12906 582 406
internal_value=0.000129675 0.00205545 -0.00161634 0.0011708 0.0127451 0.00965669 0.00186613 -0.00376118 -0.00131855 -0.00406092 -0.0112307 -0.01483 0.00554216 -0.0091984
internal_weight=2793.19 2659.97 1979.9 1534.93 680.071 558.683 219.461 727.23 607.103 527.04 444.972 350.244 200.038 64.8577
internal_count=103993 60805 53989 26184 6816 6225 2960 16134 12647 11854 27805 25496 2663 988
is_linear=0
shrinkage=0.035


Tree=50
num_leaves=15
num_cat=1
split_feature=8 16 16 42 12 41 20 42 0 23 40 12 29 12
split_gain=160.133 69.9004 34.4678 25.5498 24.9868 23.1617 22.6729 18.1145 18.0537 17.2248 13.5832 14.2239 13.0125 12.9247
threshold=0.99863050000000009 20.500000000000004 57.500000000000007 0.57393950000000016 0.0058590000000000005 0.41427400000000003 0.83448200000000006 0.67470000000000019 0 0.95785550000000008 0.0095985000000000011 0.0015675000000000001 534.90970770833349 0.00035250000000000006
decision_type=2 2 2 2 2 2 2 2 1 2 2 2 2 2
left_child=1 4 3 -3 5 -1 7 12 -5 -10 11 -11 -7 -4
right_child=-2 2 13 8 -6 6 -8 -9 9 10 -12 -13 -14 -15
leaf_value=0.029381503182278015 -0.038085497379612906 0.0076562817675521417 0.023668516247827037 0.010122951753556861 -0.020246716760052231 -0.015208723456804634 0.00033303889728856497 -0.029388833565642841 -0.0069846391718037023 0.010279997102377847 0.03688030227468788 -0.03389651651858297 0.0024264714353150678 0.0097153215385758825
leaf_weight=24.605352043639868 128.39090535819196 809.51306646096054 148.10446484852582 121.30984146293486 135.70293493806093 122.9531245334947 391.63795699707407 62.157673768233508 464.72547006246168 51.69417877739761 18.281719481572509 10.577741568908094 87.450837050331756 182.56915364332963
leaf_count=208 43251 8855 1654 1739 6066 9133 11499 6101 8867 557 61 96 3955 1673
internal_value=5.06276e-05 0.00191486 0.00576883 0.00347817 -0.00652772 -0.00381728 -0.00505824 -0.0128058 -0.00159393 -0.00431309 0.0105228 0.0026635 -0.0078753 0.0159806
internal_weight=2759.67 2631.28 1806.78 1476.1 824.508 688.805 664.2 272.562 666.589 545.279 80.5536 62.2719 210.404 330.674
internal_count=103715 60464 23502 20175 36962 30896 30688 19189 11320 9581 714 653 13088 3327
cat_boundaries=0 1
cat_threshold=28
is_linear=0
shrinkage=0.035


Tree=51
num_leaves=15
num_cat=0
split_feature=8 1 18 13 42 16 8 12 1 7 11 39 9 10
split_gain=153.062 80.8457 46.3485 29.8833 26.0748 24.276 17.3663 17.2411 16.0762 14.5807 14.3866 15.2315 25.6745 18.2218
threshold=0.9981985000000001 104.50000000000001 6.5000000000000009 0.037619000000000007 0.67929700000000015 20.500000000000004 0.70491800000000004 2.0500000000000004e-05 687.00000000000011 4.0803285000000011 0.33182050000000007 0.0079286666666666689 0.0064565000000000013 0.0032735000000000004
decision_type=2 2 2 2 2 2 2 2 2 2 2 2 2 2
left_child=1 2 3 5 6 9 -4 -6 -3 -1 -8 13 -13 -12
right_child=-2 8 4 -5 7 -7 10 -9 -10 -11 11 12 -14 -15
leaf_value=-0.030716529066130923 -0.037864296749403524 0.01317883306708399 -0.026930418727926182 -0.020301126833461931 0.011806019367028259 0.011422408785486714 -0.047149803654296399 -0.012256417768458205 0.03384585358737336 -0.0056698074466341921 0.0043869067168051581 0.021023401290371887 0.0043703236316171819 -0.007495140870655414
leaf_weight=34.263881867067539 125.22525187298743 366.03500924358377 22.175400032894686 211.0820771685103 43.43913082164363 95.666045587509871 6.4639601025264701 221.08906699271756 52.869866702356376 166.48109643418866 603.82133376449929 152.37953307700809 444.04311057418818 213.90819638030371
leaf_count=4198 43649 2768 820 15811 753 1402 169 6048 246 7711 11355 1463 4711 2990
internal_value=-8.83777e-05 0.00170983 -0.000956745 -0.0102417 0.00180303 -0.0030634 0.00365609 -0.00829249 0.0158063 -0.0099799 0.00413849 0.0043808 0.00863356 0.00127549
internal_weight=2758.94 2633.72 2214.81 507.493 1707.32 296.411 1442.79 264.528 418.905 200.745 1420.62 1414.15 596.423 817.73
internal_count=104094 60445 57431 29122 28309 13311 21508 6801 3014 11909 20688 20519 6174 14345
is_linear=0
shrinkage=0.035


Tree=52
num_leaves=15
num_cat=1
split_feature=1 1 18 9 0 39 12 14 42 1 15 20 41 20
split_gain=136.424 43.3416 38.88 22.1797 26.4518 24.3261 20.8149 19.1781 15.7476 19.3834 15.6453 14.3128 14.0545 23.2072
threshold=25.500000000000004 216.50000000000003 6.5000000000000009 0.0016515000000000002 0 0.0039042500000000006 0.0058590000000000005 0.13792650000000004 0.67179700000000009 56.500000000000007 0.089921500000000015 0.72332148076923086 0.50476841666666683 0.012779711764705883
decision_type=2 2 2 2 1 2 2 2 2 2 2 2 2 2
left_child=2 3 10 5 -5 -2 -4 8 11 -10 -1 -6 -3 -14
right_child=1 12 6 4 7 -7 -8 -9 9 -11 -12 -13 13 -15
leaf_value=-0.026850679431231074 0.005998612948065773 0.026226544414883413 -0.001402403452918868 -0.015203162527480144 -0.001892858979290383 0.02663040335012961 -0.022023647883119619 -0.013422120917502561 -0.011896205763481318 0.018525372379389896 -0.013092670952925742 0.0095789805903217923 -0.021351047198435714 0.01861702027683659
leaf_weight=175.79056671830767 481.44631238291186 145.28625436943548 419.89564578579666 108.50417012552862 184.0546944253656 81.864995881096547 69.807391646136239 85.02397960255621 128.32860765466467 31.832910838886164 242.29479722369433 479.47286206670105 23.26790651131887 73.275880598666845
leaf_count=33178 10730 1105 13421 5840 2723 1346 3307 1567 3079 247 23444 3377 253 612
internal_value=2.95211e-05 0.00555205 -0.0110536 0.00343813 0.000350508 0.00900849 -0.00435333 0.00235391 0.00401593 -0.00582329 -0.0188917 0.00639458 0.0193465 0.00894205
internal_weight=2730.15 1822.36 907.788 1580.53 1017.22 563.311 489.703 908.713 823.689 160.162 418.085 663.528 241.83 96.5438
internal_count=104229 30879 73350 28909 16833 12076 16728 10993 9426 3326 56622 6100 1970 865
cat_boundaries=0 1
cat_threshold=40
is_linear=0
shrinkage=0.035


Tree=53
num_leaves=15
num_cat=0
split_feature=8 1 1 20 42 9 20 40 1 10 41 40 23 1
split_gain=144.489 80.9356 41.2148 20.2153 18.0982 26.8455 22.5649 17.3328 16.7374 16.4815 17.6549 14.2568 15.0518 15.6409
threshold=0.99534000000000011 104.50000000000001 18.500000000000004 0.57684701299694197 0.58009100000000013 0.0015425000000000003 0.66934316666666671 0.00042550000000000004 900.50000000000011 0.15990650000000003 0.46323837500000004 0.00080750000000000017 0.8944470000000001 56.500000000000007
decision_type=2 2 2 2 2 2 2 2 2 2 2 2 2 2
left_child=1 2 3 -1 6 7 -4 -6 -3 10 -5 -7 13 -13
right_child=-2 8 4 9 5 11 -8 -9 -10 -11 -12 12 -14 -15
leaf_value=-0.019880185600203316 -0.036686038023741992 0.013464633442789862 -0.007026579148146121 0.0078493395241953541 0.0020423641542297163 -0.018609016863775502 0.0085118422107194804 0.024649644812502116 0.037881112529386689 -0.037488985792882019 -0.0072031933527405279 -0.011925053526615858 0.0107304051244818 0.01129117861058686
leaf_weight=140.6384017917444 127.54481280563778 369.36840344406664 138.64866087160772 120.09157578402665 169.59942095680162 104.26974156437791 650.49966475262772 54.93148851551814 37.93485972911003 18.500133872148581 460.89968289875833 198.403116687492 69.057882875204086 43.056158187973779
leaf_count=12339 44283 2823 3699 2307 3593 2882 6196 732 186 564 19564 3813 522 470
internal_value=-0.000352283 0.0014488 -0.0012396 -0.00794224 0.00223263 -0.00214199 0.00577853 0.00759804 0.0157605 -0.00513302 -0.00408718 -0.00741976 -0.00364729 -0.00777206
internal_weight=2703.44 2575.9 2168.6 740.13 1428.47 639.318 789.148 224.531 407.303 599.491 580.991 414.787 310.517 241.459
internal_count=103973 59690 56681 34774 21907 12012 9895 4325 3009 22435 21871 7687 4805 4283
is_linear=0
shrinkage=0.035


Tree=54
num_leaves=15
num_cat=0
