tree
version=v4
num_class=1
num_tree_per_iteration=1
label_index=0
max_feature_idx=9
objective=binary sigmoid:1
feature_names=area_weighted_exposure sample_count area_weighted_cleaning_dose area_weighted_water_dose neighbor_area_weighted_cleaning_dose_mean area_weighted_poor_drainage area_weighted_hiddenness neighbor_area_weighted_hotspot_score_max neighbor_area_weighted_cleaning_dose_min neighbor_area_weighted_hotspot_score_mean
feature_infos=[0:1] [1:35630] [0:1] [0:1] [0:0.88074950000000007] [0:1] [0:0.48088900000000001] [0:0.828121] [0:0.87916000000000005] [0:0.71887725000000002]
tree_sizes=3450 3494 3496 3496 3494 3491 3487 3498 3481 3494 3480 3497 3480 3495 3487 3489 3497 3484 3481 3494 3485 3502 3494 3464 3504 3502 3514 3505 3496 3463 3503 3477 3480 3511 3512 3509 3492 3516 3509 3497 3493 3490 3512 3479 3479 3501 3517 3490 3481 3501 3492 3486 3483 3539 3517 3515 3509 3512 3477 3512 3513 3496 3504 3473 3507 3539 3522 3510 3510 3526 3507 3512 3514 3527 3509 3490 3521 3514 3525 3491 3530 3531 3479 3484 3515 3531 3529 3530 3530 3503 3513 3515 3531 3530 3502 3551 3489 3512 3528 3529 3522 3521 3545 3504 3523 3494 3517 3525 3498 3510 3519 3528 3464 3519 3489 3510 3502 3532 3497 3502 3508 3515 3543 3479 3516 3489 3525 3530 3514 3536 3546 3514 3482 3514 3528 3492 3528 3530 3537 3488 3495 3485 3499 3476 3509 3527 3490 3524 3470 3495 3554 3510 3515 3487 3505 3451 3473 3510 3492 3499 3480 3481 3467 3529 3546 3511 3498 3467 3481 3470 3512 3509 3500 3503 3468 3503 3503 3512 3512 3517 3519 3546 3506 3511 3482 3510 3454 3503 3498 3478 3493 3508 3518 3477 3523 3489 3520 3468 3503 3488 3495 3532 3508 3474 3513 3480 3480 3477 3485 3478 3491 3478 3502 3483 3519 3480 3541 3461 3507 3456 3528 3477 3470 3527 3479 3471 3510 3521 3503 3484 3480 3477 3468 3493 3443 3515 3520 3479 3496 3490 3486 3478 3514 3458 3470 3459 3507 3490 3471 3423 3517 3474 3488 3496 3495 3478 3480 3529 3443 3507 3516 3492 3493 3470 3495 3487 3480 3479 3515 3476 3520 3467 3498 3499 3481 3465 3464 3457 3469 3500 3464 3494 3496 3484 3466 3499 3443 3497 3429 3476 3458 3515 3506 3499 3436 3472 3476 3503 3474 3447 3462 3489 3518 3470 3454 3499 3465 3445 3456 3471 3457 3481 3486 3471 3485 3479 3440 3500 3448 3480 3484 3496 3479 3491 3513 3470 3449 3476 3487 3504 3499 3459 3450 3501 3465 3503 3486 3442 3507 3505 3441 3463 3515 3429 3469 3530 3483 3468 3487 3483 3475 3417 3495 3429 3492 3487 3467 3497 3504 3455

Tree=0
num_leaves=31
num_cat=0
split_feature=0 1 2 9 2 1 7 4 2 6 9 5 2 4 2 9 5 4 5 4 5 0 1 4 0 7 2 2 4 2
split_gain=45055.8 4482.76 2608.94 1737.26 1478.73 1438.22 709.384 697.584 692.01 396.957 318.416 305.926 286.994 340.336 353.429 258.769 258.001 213.864 210.749 207.731 203.256 196.496 187.372 179.002 177.786 173.883 305.866 161.346 177.087 159.932
threshold=0.99756350000000016 3.5000000000000004 0.063737500000000016 0.55790745833333344 0.0011885000000000001 26.500000000000004 0.67630800000000013 0.0031010161290322582 0.0107045 0.07863050000000002 0.5730872857142858 0.53075700000000003 0.00041350000000000008 0.00069395000000000014 3.750000000000001e-05 0.66564575000000004 0.58072850000000009 0.00018910000000000002 0.52462100000000012 0.00092680357142857158 1.0000000180025095e-35 0.70644950000000006 6.5000000000000009 0.01730866666666667 0.84324850000000018 0.42981250000000004 0.042371500000000013 0.00043750000000000006 0.004347000000000001 0.00039950000000000006
decision_type=2 2 2 2 2 2 2 2 2 2 2 2 2 2 2 2 2 2 2 2 2 2 2 2 2 2 2 2 2 2
left_child=1 4 3 5 7 8 10 12 16 15 23 21 13 14 -1 29 22 -16 -10 -14 -7 -11 -3 -4 -23 26 -6 -24 -29 -5
right_child=-2 2 6 9 25 20 -8 -9 18 11 -12 -13 19 -15 17 -17 -18 -19 -20 -21 -22 24 27 -25 -26 -27 -28 28 -30 -31
leaf_value=-0.46385766551091795 -0.55962754497450695 -0.46035558135759275 -0.44462323676473248 -0.4624334031740438 -0.41645917538915378 -0.44568789571392764 -0.54489741008523374 -0.42875316007693509 -0.47745922740413349 -0.53631129196348293 -0.43540926110978662 -0.49578870044388168 -0.55062376185583362 -0.4453048469342194 -0.55037081924277176 -0.54643705292637168 -0.4665430687500608 -0.4914324847793875 -0.52835170588001257 -0.49367965712543127 -0.41967008704488251 -0.42674102989681839 -0.42866384282079029 -0.50792619364900404 -0.46098020665681994 -0.52835475100944773 -0.54630575283202343 -0.45463147747346155 -0.43145610124566602 -0.49832251438602321
leaf_weight=270.00693753361702 10246.645885080099 680.41748258471489 64.566876366734505 215.77076138556004 46.722939625382423 423.79349760711193 390.92308782041073 301.23382683098316 463.23798935115337 34.513930276036263 130.07290729880333 285.03341057896614 129.83811865746975 270.2417261749506 141.10797344148159 104.95052267611027 749.91492041945457 161.53458523750305 126.78586632013321 197.69203600287437 2915.6053480803967 258.03271682560444 1012.1738327890635 352.41775064170361 669.85199372470379 1435.9673303961754 42.027166798710823 1122.2897055745125 634.63369752466679 515.12627908587456
leaf_count=1150 43642 2898 275 919 199 1805 1665 1283 1973 147 554 1214 553 1151 601 447 3194 688 540 842 12418 1099 4311 1501 2853 6116 179 4780 2703 2194
internal_value=-0.503737 -0.463254 -0.453041 -0.44791 -0.501261 -0.440601 -0.508901 -0.476236 -0.452899 -0.47643 -0.483175 -0.463925 -0.488469 -0.477666 -0.492956 -0.4951 -0.447913 -0.51892 -0.488403 -0.516263 -0.422968 -0.454494 -0.443865 -0.498105 -0.451442 -0.525415 -0.477925 -0.439817 -0.446252 -0.487717
internal_weight=24393.1 14146.5 11150.1 10212.1 2996.37 8128.85 937.981 1471.66 4789.45 2083.28 547.058 1247.43 1170.42 842.891 572.649 835.848 4199.43 302.643 590.024 327.53 3339.4 962.399 3449.51 416.985 927.885 1524.72 88.7501 2769.1 1756.92 730.897
internal_count=103894 60252 47490 43495 12762 34622 3995 6268 20399 8873 2330 5313 4985 3590 2439 3560 17886 1289 2513 1395 14223 4099 14692 1776 3952 6494 378 11794 7483 3113
is_linear=0
shrinkage=1


Tree=1
num_leaves=31
num_cat=0
split_feature=0 1 3 9 3 1 7 3 8 6 6 5 2 2 8 1 2 5 5 3 5 1 3 7 3 0 0 2 2 8
split_gain=42142.7 4183.99 2338.94 1551.72 1458.71 1243.85 667.488 630.503 399.786 362.944 345.582 338.344 303.061 293.02 289.732 282.251 267.143 237.548 179.602 176.621 173.915 170.578 164.842 160.096 285.808 160.056 173.195 151.761 131.997 197.341
threshold=0.99756350000000016 3.5000000000000004 0.062918000000000016 0.55790745833333344 0.0012845000000000003 26.500000000000004 0.67699500000000012 0.011970000000000001 0.00050050000000000019 0.075605000000000019 0.074880500000000016 0.53075700000000003 0.15990650000000003 0.00041350000000000008 0.00020550000000000003 43.500000000000007 2.9500000000000002e-05 0.59145400000000004 0.62039200000000017 0.0019595000000000003 1.0000000180025095e-35 6.5000000000000009 0.00031150000000000009 0.42981250000000004 0.034138500000000009 0.70644950000000006 0.84324850000000018 0.00026250000000000009 0.0055585000000000001 0.0019785000000000007
decision_type=2 2 2 2 2 2 2 2 2 2 2 2 2 2 2 2 2 2 2 2 2 2 2 2 2 2 2 2 2 2
left_child=1 4 3 5 8 7 12 17 13 10 -5 25 15 14 16 -4 -1 21 -9 -19 -7 -3 -13 24 -6 -11 -27 -23 29 -25
right_child=-2 2 6 9 23 20 -8 18 -10 11 -12 22 -14 -15 -16 -17 -18 19 -20 -21 -22 27 -24 28 -26 26 -28 -29 -30 -31
leaf_value=0.042225250031443652 -0.054769805791912922 0.041482130493998098 -0.0021012170612485634 0.03126017084438882 0.083871265830683106 0.055485460638180203 -0.03995057602721002 0.022445991732471398 0.05934198309764168 -0.028667375019085589 -0.022585220740694422 0.040294656889926096 -0.017514270257528095 -0.01481539906536581 0.064010392974921976 0.060016779848115376 -0.002797009559348548 0.046252389496500158 -0.030800430313752153 0.0088478399888715139 0.079389762253728971 0.073660046132845824 -0.0068735340778237923 -0.024168078700367097 -0.040204712083109932 0.072782534096708248 0.039918812147738007 0.05570485910119246 -0.033727445917721061 0.023318871361577547
leaf_weight=272.43365225195885 10100.562584787607 697.33339028060436 140.83773255348206 277.56507973372936 45.977457046508789 429.56270985305309 381.28481362760067 455.22989584505558 348.29890637099743 34.22910775244236 307.61548154056072 134.2674905359745 180.42250654101372 276.94599241018295 195.44345182180405 245.80874709784985 395.64732570946217 526.57268907129765 93.333423137664795 219.2398310303688 2964.3026537597179 811.13877457380295 278.9852741509676 413.9443079829216 44.618410587310791 261.6557315737009 795.62396074831486 2029.1857682615519 863.10011391341686 144.43335239589214
leaf_count=1149 43649 2940 599 1178 192 1805 1641 1928 1466 147 1312 569 767 1182 822 1038 1683 2223 400 926 12387 3396 1186 1774 192 1095 3358 8525 3699 619
internal_value=-6.82071e-05 0.0386641 0.0484476 0.0532832 0.00193887 0.0601257 -0.00415101 0.0487145 0.0265302 0.0263475 0.0029539 0.0354422 0.0199223 0.0164993 0.0265456 0.0373961 0.0155669 0.053239 0.0133754 0.0352646 0.0763682 0.0570256 0.00845945 -0.0222726 0.0227907 0.0456531 0.0480658 0.0608379 -0.0251487 -0.0118777
internal_weight=24365.6 14265 11264.2 10315.8 3000.84 8225.9 948.354 4832.03 1488.77 2089.94 585.181 1504.76 567.069 1140.47 863.524 386.646 668.081 4283.47 548.563 745.813 3393.87 3537.66 413.253 1512.07 90.5959 1091.51 1057.28 2840.32 1421.48 558.378
internal_count=103847 60198 47420 43375 12778 34530 4045 20338 6302 8845 2490 6355 2404 4836 3654 1637 2832 18010 2328 3149 14192 14861 1755 6476 384 4600 4453 11921 6092 2393
is_linear=0
shrinkage=0.035


Tree=2
num_leaves=31
num_cat=0
split_feature=0 1 2 9 3 1 7 4 2 6 1 2 2 4 2 4 9 2 8 3 4 0 0 2 6 4 7 2 4 0
split_gain=39498.3 3847.38 2100.15 1371.59 1299.43 1156.23 860.696 641.213 436.47 345.833 343.402 354.18 258.008 319.016 282.602 232.342 225.459 202.03 285.659 180.736 168.268 164.51 177.705 160.828 151.462 141.065 130.133 130.131 522.684 116.946
threshold=0.99756350000000016 2.5000000000000004 0.041460500000000004 0.55790745833333344 0.0012845000000000003 26.500000000000004 0.67699500000000012 0.0029554500000000005 0.011099500000000002 0.07863050000000002 14.500000000000002 0.15990650000000003 0.00038850000000000006 0.00077329166666666681 3.750000000000001e-05 0.00018910000000000002 0.66564575000000004 0.00043750000000000006 0.0010825000000000003 0.0021655000000000003 0.0012126250000000004 0.70644950000000006 0.83153000000000021 0.0025515000000000004 0.15799300000000002 3.2083333333333345e-05 0.67938900000000013 0.018037000000000001 0.025617875000000002 0.97156350000000014
decision_type=2 2 2 2 2 2 2 2 2 2 2 2 2 2 2 2 2 2 2 2 2 2 2 2 2 2 2 2 2 2
left_child=1 4 3 5 7 8 10 12 17 16 -4 -12 13 14 25 -16 23 29 19 -19 -14 -11 -23 -5 -24 -1 -20 28 -6 -3
right_child=-2 2 6 9 27 -7 -8 -9 -10 21 11 -13 20 -15 15 -17 -18 18 26 -21 -22 22 24 -25 -26 -27 -28 -29 -30 -31
leaf_value=0.008325257294851519 -0.0537002312625929 0.062493538708288526 -0.015328497506270031 0.028078844109297538 -0.027194632631989291 0.073484817392343416 -0.036747455368665437 0.067674449042063767 0.015919122041049658 -0.033371175721559398 0.052685431116058341 -0.011978518801458558 -0.040387968186955003 0.059657091496380821 -0.048089012799528617 0.013232693785415301 -0.040706711289298522 0.043524146644532032 0.061981785112857013 0.019166588411837816 0.010608801610530783 0.064115979560802672 0.037820051050926111 -0.0058510916127756532 -0.0032234287955770964 0.059596855618668877 0.0080248742360836955 -0.037793293769793929 0.041669821421762274 0.027621619766130309
leaf_weight=124.60277517139912 9941.8863636255264 1553.3129949867725 198.09721580147743 442.27063685655594 789.98334240913391 3326.9800159335136 436.73954705893993 322.89636845886707 504.86447478830814 38.945594906806946 454.26968291401863 134.32244120538235 159.42563058435917 206.48761449754238 135.84067079424858 170.4015508890152 101.49429370462894 1142.9090428054333 972.29620748758316 555.24971815943718 157.21659395098686 278.35207271575928 810.61140286922455 278.84783630073071 127.33112053573132 139.33177454769611 58.170047461986542 479.58466768264771 162.63793395459652 128.16492260992527
leaf_count=521 43640 6443 844 1866 3405 13712 1891 1341 2138 168 1895 573 686 860 586 721 439 4762 4046 2319 665 1154 3402 1184 534 583 243 2074 693 533
internal_value=-5.00559e-05 0.0370121 0.0460014 0.0511416 0.000581499 0.0575486 0.00264074 0.0243534 0.0467584 0.0257238 0.0245136 0.0379265 0.0115473 0.0224029 0.00889215 -0.0139759 0.00807983 0.0502875 0.0443963 0.0355641 -0.0150712 0.0372821 0.0395509 0.0149581 0.0322468 0.0354229 0.0589398 -0.0229236 -0.0154295 0.0598402
internal_weight=24333.5 14391.6 11543.2 10319.8 2848.41 8241.95 1223.43 1416.2 4914.97 2077.85 786.689 588.592 1093.31 776.664 570.177 306.242 822.613 4410.1 2728.63 1698.16 316.642 1255.24 1216.29 721.118 937.943 263.935 1030.47 1432.21 952.621 1681.48
internal_count=103921 60281 48146 42943 12135 34196 5203 5963 20484 8747 3312 2468 4622 3271 2411 1307 3489 18346 11370 7081 1351 5258 5090 3050 3936 1104 4289 6172 4098 6976
is_linear=0
shrinkage=0.035


Tree=3
num_leaves=31
num_cat=0
split_feature=0 1 3 3 9 1 7 4 3 1 2 6 2 4 2 9 4 2 5 5 5 4 4 5 2 4 2 2 5 9
split_gain=37266.2 3465.92 1934.47 1228.04 1215.07 1065.88 838.469 589.869 407.035 315.937 314.73 310.309 239.327 302.537 261.545 213.172 212.453 200.903 207.618 182.688 220.81 176.948 167.979 152.428 141.411 500.886 134.726 133.043 132.231 120.609
threshold=0.99756350000000016 2.5000000000000004 0.041572500000000005 0.0012575000000000002 0.55790745833333344 26.500000000000004 0.67699500000000012 0.0031010161290322582 0.011970000000000001 14.500000000000002 0.15990650000000003 0.07863050000000002 0.00038850000000000006 0.00077329166666666681 3.750000000000001e-05 0.66564575000000004 0.00018910000000000002 0.00043750000000000006 0.59145400000000004 0.13278300000000001 0.0083835000000000003 0.0045084166666666675 0.0012126250000000004 0.022113500000000005 0.018037000000000001 0.021787250000000005 0.0041365000000000004 0.00029650000000000005 1.0000000180025095e-35 0.46946410714285719
decision_type=2 2 2 2 2 2 2 2 2 2 2 2 2 2 2 2 2 2 2 2 2 2 2 2 2 2 2 2 2 2
left_child=1 3 4 7 5 8 9 12 17 -4 -11 15 13 14 -1 26 -16 -3 21 20 -13 23 -14 -19 25 -5 -6 -21 -7 -10
right_child=-2 2 6 24 11 28 -8 -9 29 10 -12 19 22 -15 16 -17 -18 18 -20 27 -22 -23 -24 -25 -26 -27 -28 -29 -30 -31
leaf_value=0.034544103945892989 -0.052692675368810005 0.057501939412763603 -0.013278036750963857 -0.026458473229272892 0.025222793812185996 0.051625985943377403 -0.035676597224748786 0.065936009760498029 0.041038705352494154 0.050298561387542955 -0.010578878303726325 0.027765264197532634 -0.039042781288352146 0.058812661397510249 -0.046798024938523614 -0.039127636166602323 0.012390435953542438 0.025776224617436679 0.019477235474463155 0.049797198214638586 0.06961706802894492 0.058402246247782612 0.011633581619012146 0.04868457134746286 -0.037084788501688525 0.036899430072141019 -0.0074648004803136315 0.013501156446516881 0.072907492797550044 0.0024100292590161026
leaf_weight=268.18885661661625 9801.0263795852661 1700.2822133749723 205.56754796206951 767.3887160718441 500.92313712835312 410.37255316972733 442.48335807025433 321.27227000892162 140.76051616668701 472.87759147584438 133.21931435167789 295.87893246114254 158.36322611570358 206.33913820981979 129.44443449378014 100.79607543349266 173.76949317753315 635.05850577354431 418.84629260003567 167.50427137315273 324.25493265688419 904.21400673687458 161.76492317020893 812.91760517656803 482.49737447500229 190.65540082752705 223.07266837358475 473.46021848917007 2947.733407407999 333.19588425755501
leaf_count=1114 43744 6981 879 3331 2103 1683 1935 1318 592 1953 570 1228 689 850 566 441 733 2625 1745 696 1339 3723 682 3360 2109 807 949 1981 12002 1408
internal_value=2.72559e-05 0.0356551 0.0441344 0.00112982 0.049091 0.0550905 0.00307157 0.0242369 0.0447525 0.0242011 0.0369158 0.0252047 0.012023 0.0225063 0.00937663 0.00850651 -0.012886 0.0480218 0.0422006 0.0361213 0.0496669 0.0462441 -0.0134386 0.0386435 -0.021633 -0.013843 0.0151496 0.0230018 0.0703106 0.0138985
internal_weight=24304.1 14503.1 11643.4 2859.68 10389.3 8303.38 1254.15 1419.14 4945.28 811.664 606.097 2085.89 1097.87 777.742 571.403 824.792 303.214 4471.32 2771.04 1261.1 620.134 2352.19 320.128 1447.98 1440.54 958.044 723.996 640.964 3358.11 473.956
internal_count=104136 60392 48193 12199 42856 34119 5337 5952 20434 3402 2523 8737 4634 3263 2413 3493 1299 18434 11453 5244 2567 9708 1371 5985 6247 4138 3052 2677 13685 2000
is_linear=0
shrinkage=0.035


Tree=4
num_leaves=31
num_cat=0
split_feature=0 1 3 3 9 1 7 3 8 7 2 8 2 2 8 3 1 5 6 5 7 0 7 2 3 5 0 2 8 0
split_gain=34881.4 3186.02 1761.81 1127.25 1119.48 1012.84 574.09 513.397 334.497 290.367 257.254 260.238 247.626 225.114 282.652 212.024 201.079 198.095 194.895 160.444 149.484 147.469 128.789 256.885 126.52 125.913 123.067 111.536 162.422 111.49
threshold=0.99756350000000016 2.5000000000000004 0.062918000000000016 0.0012845000000000003 0.55790745833333344 19.500000000000004 0.67699500000000012 0.011970000000000001 0.00050050000000000019 0.67752350000000006 0.00038850000000000006 0.00020050000000000002 2.9500000000000002e-05 0.0006215000000000002 0.0010825000000000003 0.18652850000000001 44.500000000000007 1.0000000180025095e-35 0.07863050000000002 0.015990000000000001 0.67938900000000013 0.90176600000000018 0.42981250000000004 0.042371500000000013 0.0021655000000000003 0.7957995000000001 0.70644950000000006 0.0055585000000000001 0.0012075000000000002 0.89421300000000004
decision_type=2 2 2 2 2 2 2 2 2 2 2 2 2 2 2 2 2 2 2 2 2 2 2 2 2 2 2 2 2 2
left_child=1 3 4 8 5 7 15 13 10 -6 11 12 -1 -3 24 16 -4 -7 19 -11 -16 -21 23 -5 -15 26 -20 28 -24 -12
right_child=-2 2 6 22 9 17 -8 -9 -10 18 29 -13 -14 14 20 -17 -18 -19 25 21 -22 -23 27 -25 -26 -27 -28 -29 -30 -31
leaf_value=0.037252557683547995 -0.051762939695198053 0.053998403425617826 -0.001109554182654489 0.076332111056381047 0.039196986714851723 0.04569145428917195 -0.037949550928694946 0.006884047697814347 0.052730937214425039 0.02423876569749666 0.010447927199530482 0.059443974351424241 -0.0073704352322541376 0.035306843746818826 0.055332514835274495 -0.017364329471504993 0.048870742458134171 0.067874734967594649 -0.044813312360474075 -0.027125039125620899 -0.0021852858266727293 0.025839345722403009 -0.028454810079300341 -0.045576819719195291 0.012685418609833608 -0.012539113821769813 0.034192116962745669 -0.032104431411405426 0.010613195321050945 -0.034695030490762092
leaf_weight=272.36466619372368 9606.7623771429062 1788.1160333901644 154.51673883199692 46.066087394952774 887.68610611557961 577.34082490205765 364.49456092715263 492.83043716847897 348.25486797094345 186.15900835394859 114.63331060111523 186.90609215199947 345.14380928874016 782.67393511533737 891.60431477427483 151.89166688919067 271.94341471791267 3477.4785851538181 24.990558937191963 292.80361440777779 58.935832515358925 82.33442585170269 297.99376557767391 38.844849452376366 494.98489883542061 93.575217053294182 593.94407123327255 799.00898607075214 231.37818709015846 160.73747612535954
leaf_count=1123 43638 7291 656 188 3681 2354 1621 2080 1426 784 488 764 1474 3215 3642 653 1117 14072 108 1255 244 345 1303 173 2046 392 2453 3508 999 698
internal_value=-3.27544e-05 0.0342177 0.0423108 0.000981074 0.0463431 0.0520241 -0.00355712 0.0406056 0.0229113 0.0238308 0.0132842 0.0232791 0.0123143 0.0447424 0.0373096 0.0181206 0.0307655 0.064719 0.0131166 -0.00230542 0.0517647 -0.0154883 -0.0211769 0.0205649 0.0265477 0.0252653 0.0309859 -0.0238491 -0.0113781 -0.0159023
internal_weight=24116.4 14509.6 11668.3 2841.33 10725.5 8563.96 942.846 4509.15 1428.04 2161.49 1079.79 804.415 617.508 4016.32 2228.2 578.352 426.46 4054.82 1273.81 561.297 950.54 375.138 1413.29 84.9109 1277.66 712.51 618.935 1328.38 529.372 275.371
internal_count=103791 60153 48009 12144 43962 34944 4047 18518 5973 9018 4547 3361 2597 16438 9147 2426 1773 16426 5337 2384 3886 1600 6171 361 5261 2953 2561 5810 2302 1186
is_linear=0
shrinkage=0.035


Tree=5
num_leaves=31
num_cat=0
split_feature=0 2 9 0 7 9 7 2 0 6 3 5 5 5 5 5 5 5 5 3 4 6 5 7 5 4 2 4 2 0
split_gain=32672.4 2128.48 1004.7 670.982 555.525 514.753 405.086 380.273 325.419 309.12 293.257 282.594 237.392 321.245 242.658 196.819 195.527 318.418 175.496 167.984 210.071 156.496 141.017 138.648 129.455 125.174 138.828 121.434 120.964 120.255
threshold=0.9981985000000001 0.018037000000000001 0.57734612500000015 0.92355300000000007 0.67699500000000012 0.46090558928571435 0.57840000000000014 0.15990650000000003 0.91351350000000009 0.17934950000000002 0.0016515000000000002 1.0000000180025095e-35 0.6601840000000001 0.0010345000000000003 0.15766000000000002 0.58072850000000009 0.72145950000000014 1.0000000180025095e-35 1.0000000180025095e-35 0.0013275000000000003 0.013118992857142861 0.075605000000000019 0.33715200000000006 0.57840000000000014 0.6601840000000001 0.0048851250000000014 0.0055585000000000001 0.0032345000000000008 0.10432950000000001 0.73131850000000009
decision_type=2 2 2 2 2 2 2 2 2 2 2 2 2 2 2 2 2 2 2 2 2 2 2 2 2 2 2 2 2 2
left_child=1 2 3 6 7 -6 11 8 9 15 -8 19 13 25 -15 18 17 23 -3 27 -21 -4 -19 -5 -23 -12 -27 -1 -7 -16
right_child=-2 4 21 16 5 28 10 -9 -10 -11 12 -13 -14 14 29 -17 -18 22 -20 20 -22 24 -24 -25 -26 26 -28 -29 -30 -31
leaf_value=0.042318818752213473 -0.051039857322378049 0.017565372535683969 -0.0057797085478937457 0.028632976781788382 0.075691653908916745 -0.016205107062772846 0.046745709950602621 -0.025008775020936833 -0.017417582738405643 -0.003942097383896663 -0.014220131356408634 0.060971414708334316 -0.0032157653393278278 0.059324853095729525 -0.018506374740441978 -0.023208237863652122 -0.0052326606043692952 0.048921691908129387 0.052715092855308898 0.0056428622349614238 0.051898136721674669 0.025701558560954806 0.023228902133440001 -0.0028967448470218296 -0.0031629680424963219 0.049913273427498961 -0.0022786203669869199 0.073457281588041573 -0.044832244281272908 0.032605420371995486
leaf_weight=531.25728338956833 9390.0744210630655 243.43369673192501 434.08267304301262 288.93735054135323 61.651332974433899 390.77240107953548 2726.2948372066021 254.1211928576231 221.7996352314949 272.95591358840466 180.02979665994644 2811.4768032729626 249.40720668435097 576.24124756455421 64.456415235996246 59.108063042163849 237.16312663257122 744.09176087379456 613.77677173912525 287.01015408337116 207.02953822910786 832.05278450250626 405.03757183253765 417.31780223548412 246.58944948017597 125.77647306025028 123.61667709052563 216.92732034623623 337.3603767156601 441.86976891756058
leaf_count=2177 43449 1021 1847 1203 250 1687 11118 1108 959 1165 751 11370 1044 2340 275 250 1003 3049 2511 1201 856 3444 1686 1754 1034 519 519 878 1517 1818
internal_value=-0.000107983 0.0326456 0.0386531 0.0424497 0.00292054 -0.0212507 0.0468017 0.0143869 0.0214855 0.0287441 0.039552 0.0548249 0.0284125 0.0336305 0.0437902 0.0384814 0.0246817 0.0285066 0.0427416 0.0409047 0.025043 0.011961 0.0398728 0.0100044 0.0191018 0.00800557 0.0240552 0.0513666 -0.0294798 0.0260906
internal_weight=23991.7 14601.6 12146.7 10633.9 2454.98 789.784 8541.39 1665.2 1411.07 1189.27 4487.69 4053.7 1761.4 1511.99 1082.57 916.319 2092.55 1855.38 857.21 1242.22 494.04 1512.72 1149.13 706.255 1078.64 429.423 249.393 748.185 728.133 506.326
internal_count=103803 60354 49886 43561 10468 3454 34866 7014 5906 4947 18384 16482 7266 6222 4433 3782 8695 7692 3532 5112 2057 6325 4735 2957 4478 1789 1038 3055 3204 2093
is_linear=0
shrinkage=0.035


Tree=6
num_leaves=31
num_cat=0
split_feature=0 1 3 3 9 1 7 4 2 1 6 6 5 2 2 4 2 5 4 7 3 1 0 0 3 7 4 5 1 4
split_gain=30895.1 2882.41 1543.89 1053.95 1043.47 842.509 677.706 457.2 301.462 284.503 247.177 276.548 266.253 234.279 210.753 241.136 318.921 201.747 163.037 138.886 198.403 135.408 134.121 137.678 133.101 133.075 128.97 125.996 118.011 114.924
threshold=0.9981985000000001 3.5000000000000004 0.041572500000000005 0.0014685000000000002 0.55790745833333344 26.500000000000004 0.67699500000000012 0.0031010161290322582 0.011099500000000002 14.500000000000002 0.075605000000000019 0.074903500000000012 0.53075700000000003 0.15990650000000003 0.00038850000000000006 0.00056783333333333349 3.750000000000001e-05 0.59145400000000004 0.00092680357142857158 0.42981250000000004 0.034138500000000009 6.5000000000000009 0.70644950000000006 0.85663100000000014 0.00033450000000000005 0.67970750000000002 0.00018910000000000002 0.52462100000000012 1.5000000000000002 4.6291666666666683e-05
decision_type=2 2 2 2 2 2 2 2 2 2 2 2 2 2 2 2 2 2 2 2 2 2 2 2 2 2 2 2 2 2
left_child=1 3 4 7 5 8 9 14 17 -4 11 -6 22 -11 15 16 29 21 -16 20 -5 -3 -12 -24 -14 -19 -18 -10 -21 -1
right_child=-2 2 6 19 10 -7 -8 -9 27 13 12 -13 24 -15 18 -17 26 25 -20 28 -22 -23 23 -25 -26 -27 -28 -29 -30 -31
leaf_value=0.01156211631518278 -0.050240802599094941 0.032819199092639577 -0.015563007600392118 0.072193781637635471 0.026212364689983406 0.062621061947543161 -0.033521483068844046 0.055842982262740475 0.023080699220719713 0.04419217966834741 -0.032573262317812414 -0.022179627007434293 0.032582137439889941 -0.0084417563566989862 -0.04214494560180241 0.044606197497079371 -0.044696370648074676 0.034490481422021352 0.0056827008538539725 -0.050686314320887403 -0.034468640218511773 0.049641141839581841 0.05830006810040772 0.031389746705902409 -0.008876884362153831 -0.00017689357974171862 0.0038004827773674005 -0.020502621963376037 -0.019655259897890201 0.056316091883791143
leaf_weight=153.43209466338158 9215.2141499519348 734.67299276590347 196.03053097426891 45.459800735116005 290.42878653109074 3424.8785482794046 423.50345706939697 350.23234331607819 385.08275489509106 480.8011916577816 31.634623900055885 287.82758818566799 144.43947753310204 131.88942810893059 133.66924324631691 314.82417054474354 137.82238103449345 590.5939969420433 250.78793834149837 172.44443620741367 39.952936425805092 2948.4459185600281 350.38022501766682 699.35093800723553 275.3522447347641 175.93075197935104 130.68623070418835 102.7633477896452 1162.9933709651232 129.90861466526985
leaf_count=628 43473 2985 842 183 1211 13731 1912 1417 1598 1950 137 1241 595 571 590 1280 606 2408 1056 762 181 11904 1416 2864 1155 720 548 439 5099 529
internal_value=-1.66381e-07 0.0315032 0.0393898 0.00103823 0.0437621 0.0492797 0.0023361 0.0205067 0.040023 0.0211195 0.0215699 0.00212285 0.0290585 0.0328601 0.0106061 0.0201729 0.00621974 0.0428868 -0.0109549 -0.0209021 0.0223166 0.0462881 0.0382414 0.040383 0.00539265 0.0265335 -0.0211006 0.0138918 -0.0236706 0.0321127
internal_weight=23911.4 14696.2 11674 3022.21 10441.8 8362.37 1232.22 1601.36 4937.49 808.721 2079.41 578.256 1501.16 612.691 1251.13 866.673 551.849 4449.64 384.457 1420.85 85.4127 3683.12 1081.37 1049.73 419.792 766.525 268.509 487.846 1335.44 283.341
internal_count=104031 60558 47679 12879 42404 33785 5275 6654 20054 3363 8619 2452 6167 2521 5237 3591 2311 18017 1646 6225 364 14889 4417 4280 1750 3128 1154 2037 5861 1157
is_linear=0
shrinkage=0.035


Tree=7
num_leaves=31
num_cat=0
split_feature=0 1 3 2 9 1 7 3 8 6 5 9 5 2 8 2 9 5 7 2 7 5 2 8 9 9 0 6 7 6
split_gain=29142.1 2731.8 1423.72 987.807 938.37 825.811 464.846 446.409 310.084 254.532 231.514 226.777 224.698 142.677 145.674 234.011 172.036 141.468 136.623 132.538 255.156 126.373 126.057 204.966 114.805 114.642 149.662 109.468 99.9365 99.3068
threshold=0.9981985000000001 3.5000000000000004 0.074234000000000008 0.00091850000000000015 0.5815935000000001 18.500000000000004 0.67586800000000002 0.011970000000000001 0.00043050000000000006 0.075605000000000019 1.0000000180025095e-35 0.55711112500000015 0.58072850000000009 2.9500000000000002e-05 0.00011050000000000002 0.00038850000000000006 0.51661100000000004 0.78154350000000006 0.67981200000000019 0.018037000000000001 0.43946000000000002 0.61388900000000013 0.0006215000000000002 0.0010825000000000003 0.51268934722222237 0.52622695833333344 0.70491800000000004 0.074903500000000012 0.51667500000000011 0.080208000000000015
decision_type=2 2 2 2 2 2 2 2 2 2 2 2 2 2 2 2 2 2 2 2 2 2 2 2 2 2 2 2 2 2
left_child=1 3 4 8 5 7 11 12 13 27 24 28 22 -1 -15 16 -16 -11 -14 20 -5 -9 -3 -24 -7 -12 -27 -6 -4 -13
right_child=-2 2 6 19 9 10 -8 21 -10 17 25 29 18 14 15 -17 -18 -19 -20 -21 -22 -23 23 -25 -26 26 -28 -29 -30 -31
leaf_value=0.03422005710773967 -0.049474568749078393 0.050818798295968304 0.022407749379204363 0.050730516786520609 0.012924417015583596 0.050089786902437504 -0.036826967980498532 0.013352183425971545 0.053143700389955209 0.030038790308937593 0.062723127977700063 -0.0064642832799008286 0.031571136157402514 -0.013848445430839119 0.062095892001621501 -0.012338019091072317 0.0099859246611321908 -0.0096544976564664903 0.00059466669157041778 -0.033197696173921605 -0.015916352913456271 -0.029844376235622153 0.026892277593416846 0.049472630008957179 0.021170954803086686 -0.020364238724323431 0.051608873617984899 -0.023702485852069344 -0.015377184416028438 0.065208497692025039
leaf_weight=294.62434700131416 9060.2791565805674 1467.6489801704884 147.12287099659443 75.293576970696449 166.72395233809948 374.09771996736526 345.18990090489388 429.05407889187336 307.32784003019333 750.50859998166561 2924.8001962453127 29.202317342162132 654.42288872599602 294.37244257330894 155.39479264616966 201.32272140681744 155.21225699782372 128.70269490778446 237.94269028306007 493.15338811278343 1035.8064590394497 102.63100393116474 1073.5292006582022 912.15635733306408 306.75359638035297 36.595516294240952 970.47478610277176 248.89804862439632 204.95214793086052 123.32667756080627
leaf_count=1197 43611 5900 615 309 696 1504 1592 1789 1242 3068 11714 122 2663 1267 630 872 634 540 978 2225 4504 445 4348 3675 1241 153 3916 1084 873 500
internal_value=-0.000135846 0.0303835 0.0380747 0.000677873 0.0415115 0.045325 -0.00553913 0.0352806 0.022068 0.0135574 0.0559432 0.0158669 0.0389843 0.0133835 0.00576095 0.0170413 0.036085 0.0242255 0.0233154 -0.0180983 -0.0113901 0.00500259 0.0430311 0.0372697 0.0370732 0.0592083 0.0489882 -0.00900649 0.000410933 0.0514845
internal_weight=23707.5 14647.2 11634.7 3012.51 10784.9 9490.11 849.794 4877.39 1408.25 1294.83 4612.72 504.604 4345.7 1100.93 806.302 511.93 310.607 879.211 892.366 1604.25 1111.1 531.685 3453.33 1985.69 680.851 3931.87 1007.07 415.622 352.075 152.529
internal_count=103907 60296 47416 12880 43714 38326 3702 19798 5842 5388 18528 2110 17564 4600 3403 2136 1264 3608 3641 7038 4813 2234 13923 8023 2745 15783 4069 1780 1488 622
is_linear=0
shrinkage=0.035


Tree=8
num_leaves=31
num_cat=0
split_feature=0 1 9 3 2 7 5 4 1 3 5 3 2 1 3 7 4 2 4 2 3 1 9 5 4 8 8 0 7 4
split_gain=27491.9 2496.4 1507.6 879.69 858.515 479.475 466.587 423.568 396.455 349.111 326.466 254.672 228.446 222.787 292.735 191.365 173.611 157.241 323.738 248.356 144.943 133.7 127.218 155.581 127.194 125.133 123.742 119.174 118.067 127.567
threshold=0.9981985000000001 6.5000000000000009 0.59386958333333351 0.0014685000000000002 0.15990650000000003 0.67662450000000007 0.63919350000000008 0.0031010161290322582 2.5000000000000004 0.0036955000000000004 1.0000000180025095e-35 0.0015775000000000001 0.014512500000000003 29.500000000000004 0.022770500000000003 0.67979350000000005 0.30707562500000002 1.8500000000000006e-05 0.00018910000000000002 0.00036150000000000006 0.019108000000000003 2.5000000000000004 0.52930250000000012 0.13845650000000004 0.00098541666666666699 0.0020795000000000002 5.5000000000000007e-06 0.89992050000000012 0.64701500000000001 0.018649750000000003
decision_type=2 2 2 2 2 2 2 2 2 2 2 2 2 2 2 2 2 2 2 2 2 2 2 2 2 2 2 2 2 2
left_child=1 3 4 7 6 -4 10 17 28 15 11 -3 -7 14 -12 -8 -13 26 -19 -20 25 24 -15 -24 -21 -10 -1 -11 29 -5
right_child=-2 2 5 8 -6 12 9 -9 20 27 13 16 -14 22 -16 -17 -18 18 19 21 -22 -23 23 -25 -26 -27 -28 -29 -30 -31
leaf_value=0.01908063603275768 -0.048774144521347547 0.046023153435974837 0.034988878242094193 -0.025645283794994627 -0.024391228825517117 0.0021573392593400437 0.044402469719448209 0.053390764150162563 0.0064857122440072417 -0.030463039018388934 0.048399408107185224 0.015449960101755866 -0.034971353530485985 0.062542877758041002 0.0065026650544119068 0.0067388987135105207 0.066689335846330772 -0.027755199092095732 0.032830051788925514 -0.038120690683353081 -0.014991674871243687 0.025856083652238709 0.059985498264493807 0.028661954839334244 0.0041500573306861551 0.039953549158501529 0.06094495327423434 0.019753529025056317 -0.03461153688569351 0.0011472148496249356
leaf_weight=226.62126091122627 8843.0702990293503 1307.8280918598175 378.07830400764942 459.26864781975746 222.76903189718723 519.03299939632416 629.08750928938389 435.02149845659733 344.6210158765316 160.96250453591347 2272.3528300076723 730.36156216263771 333.0917789041996 2435.4958634972572 224.65203215181828 224.37337411940098 90.984331831336021 238.26589716970921 589.1362099647522 139.68003650009632 197.19878488779068 167.83387288451195 446.9890852868557 345.10311825573444 231.29487277567387 227.06954942643642 140.14745001494884 90.134990081191063 477.29977515339851 413.44967247545719
leaf_count=918 43462 5252 1545 2042 996 2176 2541 1752 1407 677 9142 2967 1520 9757 938 921 365 1025 2396 623 852 682 1798 1400 972 928 565 370 2140 1824
internal_value=-1.21935e-05 0.0293252 0.0385809 0.0068455 0.0434561 0.00219443 0.045144 0.022519 -0.00919095 0.0238351 0.04814 0.0364291 -0.0123588 0.0524939 0.0446315 0.0345067 0.021143 0.0147632 0.00929615 0.0171279 0.0108665 -4.34292e-05 0.0585729 0.0463512 -0.011773 0.0197912 0.0351068 -0.0124288 -0.0206157 -0.012953
internal_weight=23541.3 14698.2 10411.3 4286.91 9181.09 1230.2 8958.33 2168 2118.91 1104.56 7853.77 2129.17 852.125 5724.59 2497 853.461 821.346 1732.98 1366.21 1127.94 768.889 538.809 3227.59 792.092 370.975 571.691 366.769 251.097 1350.02 872.718
internal_count=103953 60491 42365 18126 37124 5241 36128 8933 9193 4509 31619 8584 3696 23035 10080 3462 3332 7181 5698 4673 3187 2277 12955 3198 1595 2335 1483 1047 6006 3866
is_linear=0
shrinkage=0.035


Tree=9
num_leaves=31
num_cat=0
split_feature=0 1 3 3 7 1 5 7 4 7 1 1 4 3 3 2 4 2 4 3 5 2 5 1 2 4 7 4 3 2
split_gain=25933.5 2251.06 1289.48 824.415 792.097 476.148 446.872 399.039 395.996 318.272 241.579 245.463 207.878 207.39 186.844 186.394 220.301 186.27 180.689 165.815 164.134 222.182 158.47 149.589 143.827 132.89 120.773 127.571 343.392 117.696
threshold=0.99756350000000016 2.5000000000000004 0.062918000000000016 0.0016165000000000001 0.63360950000000005 26.500000000000004 0.15766000000000002 0.67699500000000012 0.0029554500000000005 0.67964550000000012 52.500000000000007 51.500000000000007 0.080521250000000016 0.011169000000000002 0.00064650000000000005 0.00036150000000000006 0.00077329166666666681 3.750000000000001e-05 0.00018910000000000002 0.18652850000000001 0.055424000000000008 0.0017475000000000001 1.0000000180025095e-35 43.500000000000007 0.0027485000000000005 0.0015715000000000002 0.64701500000000001 0.018649750000000003 0.018274500000000003 0.00012850000000000001
decision_type=2 2 2 2 2 2 2 2 2 2 2 2 2 2 2 2 2 2 2 2 2 2 2 2 2 2 2 2 2 2
left_child=1 3 4 8 5 14 10 19 15 29 11 13 -13 20 -3 16 17 -1 -19 23 21 -6 -7 -4 -11 -17 27 -5 -29 -8
right_child=-2 2 7 26 6 22 9 -9 -10 24 -12 12 -14 -15 -16 25 -18 18 -20 -21 -22 -23 -24 -25 -26 -27 -28 28 -30 -31
leaf_value=0.026876370926098021 -0.047974314933551053 0.04796310462567125 -0.0027698529375362558 -0.025721482548757359 0.044931629565059236 0.034885845025401964 0.048354786353226847 -0.033862248916082541 0.048930559501903344 0.011418433731908744 0.063631774100837812 -1.0852187753177362e-05 0.062940032669313223 0.0064244027826941778 0.029778404932183533 -0.029356225878346371 0.048850508737991509 -0.044878156842760385 0.010614257374690307 -0.018106453179606196 0.060241254749076725 0.012409988453745854 0.059837223595163747 0.040104590459674391 -0.016720443868351285 0.012346706820587503 -0.035122769818568406 0.039144286695914909 -0.026320519177097546 0.0221934428210387
leaf_weight=276.54376931488514 8686.6581574231386 1148.9522178024054 156.81700746715069 434.43839392066002 957.16594102978706 354.96184107661247 273.79228211939335 351.49330708384514 372.92146344482899 607.9597711712122 371.04750430583954 388.11887149512768 76.797349765896797 218.22075410187244 1747.9935964494944 229.20782195031643 201.49090896546841 125.50498306751251 167.64362408220768 151.40436643362045 474.27930352091789 352.42122027277946 2648.7348017245531 272.96345372498035 350.69690965116024 157.90021535754204 447.92805042862892 171.20172117650509 229.48014649748802 918.21831141412258
leaf_count=1118 43608 4605 665 1947 3843 1425 1102 1661 1506 2505 1491 1611 308 905 7075 1012 809 568 694 665 1902 1426 10633 1100 1475 664 2033 719 1046 3735
internal_value=-6.81508e-05 0.0283644 0.0350613 0.000231044 0.0384442 0.0471247 0.028175 -0.00443327 0.0175712 0.0161379 0.0372943 0.0333275 0.0104065 0.0386477 0.036994 0.00746654 0.0174135 0.00627837 -0.013152 0.0133675 0.0425874 0.0361843 0.0568917 0.0244626 0.00112147 -0.0123436 -0.0204611 -0.0125885 0.00165223 0.028211
internal_weight=23323 14636.3 11822 2814.26 10889.4 5900.64 4988.72 932.678 1531.21 2150.67 2838.05 2467 464.916 2002.09 2896.95 1158.29 771.183 569.692 293.149 581.185 1783.87 1309.59 3003.7 429.78 958.657 387.108 1283.05 835.12 400.682 1192.01
internal_count=103856 60248 48132 12116 44041 23738 20303 4091 6371 8817 11486 9995 1919 8076 11680 4865 3189 2380 1262 2430 7171 5269 12058 1765 3980 1676 5745 3712 1765 4837
is_linear=0
shrinkage=0.035


Tree=10
num_leaves=31
num_cat=0
split_feature=0 1 9 2 2 6 1 1 3 9 6 8 5 7 7 2 2 0 8 2 7 5 5 0 3 3 5 1 9 5
split_gain=24535.9 2159.78 1279.81 759.186 720.396 491.718 433.678 336.681 322.962 253.68 245.412 220.16 213.435 170.33 153.016 147.32 146.271 137.112 133.57 118.143 251.604 116.219 177.64 137.998 115.588 113.267 128.784 110.402 168.537 97.6013
threshold=0.9981985000000001 6.5000000000000009 0.59386958333333351 0.0011385000000000002 0.15990650000000003 0.076640000000000014 18.500000000000004 2.5000000000000004 0.011970000000000001 0.51268934722222237 0.074791500000000011 0.00043050000000000006 0.58072850000000009 0.60297250000000002 0.67699500000000012 0.016810000000000002 0.0025515000000000004 0.83153000000000021 0.0020795000000000002 0.027896500000000005 0.42981250000000004 1.0000000180025095e-35 0.17214550000000003 0.70491800000000004 0.021825000000000004 0.00045450000000000004 0.050624000000000009 1.5000000000000002 0.45315406250000007 0.15766000000000002
decision_type=2 2 2 2 2 2 2 2 2 2 2 2 2 2 2 2 2 2 2 2 2 2 2 2 2 2 2 2 2 2
left_child=1 3 4 11 6 10 8 19 12 -8 -4 17 25 -10 -7 18 -14 -1 -9 20 -5 -11 -23 -24 -25 -3 -27 -22 -29 -28
right_child=-2 2 5 7 -6 14 9 15 13 21 -12 -13 16 -15 -16 -17 -18 -19 -20 -21 27 22 23 24 -26 26 29 28 -30 -31
leaf_value=0.030375813214685209 -0.047478089320253831 0.050554773262229249 0.025140677387065716 0.065790741590473822 -0.022555591688521372 0.042581854938271775 0.055013342948420189 0.0061175948085700916 0.029778802441378826 0.021531195199753491 -0.032372216228843897 0.043285602408422115 0.027803167025628121 -0.015354951089309161 0.0084244325596859355 -0.015219272736507689 -0.011253710142580479 0.0083556456714731862 0.040133447217923959 -0.035621615098728465 -0.04620171232090145 0.054287674283527446 -0.043482787984390391 0.039379097057128595 -0.0027104655989286688 0.025577390278145758 0.05577071065018406 0.034569074852534375 -0.016557387574308375 0.033319573649951896
leaf_weight=517.50089229643345 8458.6324146986008 1030.5179179161787 112.8397681415081 48.151609107851982 216.82270984351635 283.22017657756805 3107.5107304751873 371.8138705343008 180.66827557981014 385.79951351881027 463.68695333600044 455.50906126201153 642.54234844446182 235.95867840945721 371.57500465214252 206.03213940560818 143.54212300479412 1048.5760994851589 228.24141997098923 351.4182635396719 128.69502729177475 801.10254168510437 29.817271426320076 552.99184530973434 93.30811220407486 803.55030559003353 479.20119088888168 87.390175893902779 803.11536058783531 473.63100406527519
leaf_count=2119 43426 4128 471 193 984 1143 12514 1511 745 1555 2108 1837 2598 1002 1539 890 592 4363 926 1635 585 3229 126 2229 384 3226 1919 376 3586 1900
internal_value=-1.33473e-05 0.0273832 0.0359655 0.00634643 0.040461 0.00245805 0.0419866 -0.00775942 0.033387 0.0488871 -0.0211077 0.0218707 0.0367873 0.00421778 0.0232098 0.0103006 0.020668 0.0156361 0.0190681 -0.0180216 -0.0122198 0.0386629 0.0431324 0.0299002 0.0333008 0.0413316 0.0359139 -0.0159192 -0.0115315 0.0446219
internal_weight=23113.4 14654.7 10408.3 4246.44 9176.96 1231.32 8960.14 2224.86 3989.61 4970.53 576.527 2021.59 3572.98 416.627 654.795 806.087 786.084 1566.08 600.055 1418.77 1067.35 1863.02 1477.22 676.117 646.3 2786.9 1756.38 1019.2 890.506 952.832
internal_count=103839 60413 42392 18021 37131 5261 36147 9702 16110 20037 2579 8319 14363 1747 2682 3327 3190 6482 2437 6375 4740 7523 5968 2739 2613 11173 7045 4547 3962 3819
is_linear=0
shrinkage=0.035


Tree=11
num_leaves=31
num_cat=0
split_feature=0 1 9 3 3 6 1 4 3 1 9 6 5 5 8 3 3 4 3 4 8 7 9 5 1 7 3 3 8 0
split_gain=23241.5 2048.42 1224.4 754.174 662.793 457.242 412.542 362.695 341.246 307.081 245.892 245.488 218.592 139.803 160.288 139.449 136.749 162.894 173.927 214.832 127.257 126.367 125.678 123.976 155.773 111.245 185.502 110.22 127.484 107.081
threshold=0.9981985000000001 6.5000000000000009 0.59596075000000015 0.0014685000000000002 0.16894400000000001 0.076640000000000014 28.500000000000004 0.0031010161290322582 0.011970000000000001 2.5000000000000004 0.55209987500000013 0.074791500000000011 0.59145400000000004 1.0000000180025095e-35 0.053085500000000008 0.00027650000000000005 0.00060550000000000003 0.00079257608695652187 3.1500000000000007e-05 0.00025561904761904765 8.5000000000000016e-06 0.67788550000000014 0.46720787500000005 0.11684600000000002 54.500000000000007 0.42981250000000004 0.04418600000000001 0.017615000000000002 0.0020795000000000002 0.9174150000000002
decision_type=2 2 2 2 2 2 2 2 2 2 2 2 2 2 2 2 2 2 2 2 2 2 2 2 2 2 2 2 2 2
left_child=1 3 4 7 6 11 8 16 12 25 13 -4 -3 14 -8 -14 17 18 20 -20 -1 -7 -10 24 -12 26 -5 28 -11 -19
right_child=-2 2 5 9 -6 21 10 -9 22 27 23 -13 15 -15 -16 -17 -18 29 19 -21 -22 -23 -24 -25 -26 -27 -28 -29 -30 -31
leaf_value=0.013137829421185148 -0.046894040286782381 0.041031967850566224 0.025577073627973172 0.063384248412301211 -0.02170561162741886 0.039568849540753757 0.039279584208948642 0.048909909675878119 0.032935980057699613 0.0031547878364578254 0.021671053302661059 -0.032793296966549076 0.039137540331922384 0.055280630714104391 -0.051765704068759341 0.010037218729701534 -0.0062068382601922828 0.054465535666897352 -0.026724136462213863 0.016436657460746042 0.053469615116296602 0.0076315071174441569 -0.0028465306248666097 0.010479267999577265 0.064793067590185008 -0.021741889966555197 -0.040906165376635523 -0.013423109242999011 0.037091249592479725 0.017381617563452738
leaf_weight=256.74908718466759 8276.7568525671959 3440.9575560688972 109.32911302149296 49.455343246459961 213.65062667429447 279.19917969405651 412.52673198282719 440.17187272012234 173.34359666705132 341.85410495102406 225.70026980340481 454.53609165549278 327.72730939090252 3005.7299269288778 24.945340231060982 525.26479771733284 350.05638436973095 209.7843970656395 242.00903570652008 338.78074990212917 153.04259511828423 332.8545096963644 391.16412176191807 259.84990525245667 188.72130358219147 1242.1802267283201 35.871148958802223 202.87225244939327 224.73287029564381 175.58936546742916
leaf_count=1035 43470 13802 454 199 978 1125 1653 1769 707 1390 915 2091 1316 12173 100 2140 1478 846 1052 1403 614 1379 1639 1062 759 5664 171 880 909 713
internal_value=-2.37304e-05 0.0264952 0.0348945 0.00607201 0.0391974 0.00126526 0.0406477 0.0205553 0.0337359 -0.00888905 0.048801 -0.0214676 0.0370992 0.0525875 0.0340628 0.0212264 0.0133184 0.0182873 0.0107695 -0.00154799 0.0282233 0.0222113 0.00814589 0.0294526 0.0413342 -0.0190854 0.0195271 0.00870033 0.0166269 0.0375912
internal_weight=22905.4 14628.6 10365.5 4263.15 9189.58 1175.92 8975.93 2166.18 4858.46 2096.97 4117.47 563.865 4293.95 3443.2 437.472 852.992 1726.01 1375.96 990.581 580.79 409.792 612.054 564.508 674.271 414.422 1327.51 85.3265 769.459 566.587 385.374
internal_count=103886 60416 42293 18123 37244 5049 36266 8910 19604 9213 16662 2545 17258 13926 1753 3456 7141 5663 4104 2455 1649 2504 2346 2736 1674 6034 370 3179 2299 1559
is_linear=0
shrinkage=0.035


Tree=12
num_leaves=31
num_cat=0
split_feature=0 1 9 3 9 2 1 4 0 1 6 5 2 3 6 6 2 4 2 5 4 9 0 2 1 5 5 2 4 4
split_gain=21967.8 1919.75 1114.22 668.012 489.064 454.938 404.623 348.084 324.039 288.597 237.737 216.471 186.326 183.095 161.407 161.134 158.074 236.297 177.371 151.956 147.447 129.14 129.025 139.057 122.092 112.663 173.039 107.714 107.684 107.54
threshold=0.99756350000000016 6.5000000000000009 0.54891337500000015 0.0012575000000000002 0.65115100000000015 0.042371500000000013 26.500000000000004 0.001754291666666667 0.70644950000000006 2.5000000000000004 0.079674000000000009 0.64742100000000014 0.00033150000000000003 0.00045450000000000004 0.07863050000000002 0.07450950000000002 1.8500000000000006e-05 0.00017746428571428576 0.00036150000000000006 0.55251150000000016 0.018649750000000003 0.51603020833333346 0.90096950000000009 0.0026885000000000004 2.5000000000000004 1.0000000180025095e-35 0.12473250000000001 0.016810000000000002 0.0023370294117647061 0.004780925000000001
decision_type=2 2 2 2 2 2 2 2 2 2 2 2 2 2 2 2 2 2 2 2 2 2 2 2 2 2 2 2 2 2
left_child=1 3 5 7 8 6 13 16 -4 -5 15 14 -13 -3 22 -6 -1 -18 21 28 -7 -19 23 -10 -20 -16 -27 29 -15 -11
right_child=-2 2 4 9 10 20 -8 -9 11 27 -12 12 -14 19 25 -17 17 18 24 -21 -22 -23 -24 -25 -26 26 -28 -29 -30 -31
leaf_value=0.03099594314780325 -0.046225147937653033 0.046091268104649405 -0.037071402713488202 -0.017571970565749131 0.079000124700083191 0.041592019417496372 0.052436137777873287 0.042649487813102599 0.024789169888572039 -0.0021052016533974994 0.029858234959230515 0.03246676118652362 -0.014368145151349808 0.023165578301460033 0.017731609244272667 -0.037676287335361242 -0.027694835460772109 0.045182192281983606 -0.021759205414545586 0.0096523359628292709 -0.0010126582557501071 0.010310333222782631 0.044214640238112238 -0.013255295558824758 0.02251594375463464 0.05661623288571771 0.026944147556354412 -0.013235022362439007 0.039848288428355756 0.028465707568971849
leaf_weight=359.06816565990448 8138.6339835226536 1287.4462906271219 110.78076313436031 1371.6319218426943 14.981225982308386 132.51602184772491 3196.9667749255896 591.87383165955544 235.72920295596123 231.6488122344017 95.704137653112411 161.92194053530693 290.3091784119606 761.48825255036354 299.55016115307808 326.35633786022663 225.29936474561691 226.09402073919773 230.3163568675518 387.8945182710886 397.35205961763859 306.78329390287399 138.6822776645422 234.60448183119297 113.82507291436195 500.58696065843105 465.6192315518856 199.69801309704781 1263.2573248893023 359.3405659198761
leaf_count=1441 43731 5174 507 6264 64 547 13009 2387 964 941 390 655 1211 3051 1207 1552 984 912 1009 1583 1674 1243 562 999 459 2019 1885 868 5082 1451
internal_value=-0.000196033 0.0256088 0.0337505 0.00571151 0.015247 0.040912 0.043313 0.0200086 0.0213596 -0.0078643 -0.0188387 0.024145 0.00240423 0.0354275 0.0293875 -0.032507 0.0108331 0.00425927 0.0124745 0.029733 0.00965082 0.0251208 0.0145707 0.00581114 -0.00710551 0.0365118 0.0423275 0.00897389 0.0335778 0.0164833
internal_weight=22656 14517.3 10301.7 4215.58 2874.83 7426.92 6897.05 2053.26 2437.78 2162.32 437.042 2327 452.231 3700.09 1874.77 341.338 1461.39 1102.32 877.019 2412.64 529.868 532.877 609.016 470.334 344.141 1265.76 966.206 790.687 2024.75 590.989
internal_count=103825 60094 42135 17959 12015 30120 27899 8435 10009 9524 2006 9502 1866 14890 7636 1616 6048 4607 3623 9716 2221 2155 2525 1963 1468 5111 3904 3260 8133 2392
is_linear=0
shrinkage=0.035


Tree=13
num_leaves=31
num_cat=0
split_feature=0 2 9 0 7 6 5 3 3 5 5 5 7 2 2 4 5 4 9 3 5 3 7 4 5 6 4 2 5 5
split_gain=20859.4 1244.76 697.524 547.48 403.138 286.197 216.775 244.218 207.092 196.178 209.128 178.078 169.219 164.415 150.504 194.955 140.221 135.072 127.76 126.983 125.204 115.599 113.584 113.216 112.913 112.568 112.158 101.409 97.7453 233.753
threshold=0.9981985000000001 0.041460500000000004 0.55790745833333344 0.92355300000000007 0.67699500000000012 0.16714200000000004 0.60704800000000014 0.0036955000000000004 0.18652850000000001 0.81080400000000019 1.0000000180025095e-35 1.0000000180025095e-35 0.67752350000000006 0.00094550000000000005 0.0013035000000000002 0.065526350000000025 0.42479300000000003 0.0021972361111111116 0.53546875000000016 0.00032450000000000008 0.35101300000000007 0.0027405000000000003 0.57840000000000014 0.00028755000000000008 0.0010345000000000003 0.22175250000000005 5.0583333333333341e-05 4.4500000000000004e-05 0.14133800000000005 0.0017765000000000001
decision_type=2 2 2 2 2 2 2 2 2 2 2 2 2 2 2 2 2 2 2 2 2 2 2 2 2 2 2 2 2 2
left_child=1 2 3 5 8 6 11 -8 16 10 22 14 -4 26 17 -16 18 19 24 -1 -12 23 -5 -14 -3 -26 27 -7 29 -15
right_child=-2 4 12 9 -6 13 7 -9 -10 -11 20 -13 21 28 15 -17 -18 -19 -20 -21 -22 -23 -24 -25 25 -27 -28 -29 -30 -31
leaf_value=0.043503461968705796 -0.04583494577443329 -0.010578743570087987 0.02301863037954828 0.019808134531246552 -0.03250239062884628 0.02812373617420728 0.033523199764055767 -0.0086702760148386591 -0.024179139925848546 -0.022046946187384765 0.036769176092816498 0.046589428421329862 -0.0049757137998245864 0.0020543405727266751 0.013786733039103898 0.05965101407498434 -0.024754273653139494 0.057788281714563954 0.043959565956381397 0.015780158158806519 0.01300532011658301 -0.0086015423945987549 -0.0078432916457770625 0.019826955432490613 0.033206616038258585 -0.028010394955193696 0.04366041687182818 -0.029119360367736769 -0.002485145865176488 0.042943443359997696
leaf_weight=555.12521104514599 7898.0229219943285 185.16680400073528 997.23540581762791 327.65864346921444 471.12026350200176 139.85751292109489 746.27559132874012 216.69353970885277 207.62555879354477 153.05642832815647 756.36327870190144 3695.4834606647491 339.19540685415268 362.26813845336437 654.68784803152084 137.2618777602911 94.531679764389992 408.84597651660442 202.87470331788063 319.34761294722557 424.60565334558487 536.37113326787949 408.70334684848785 671.10328722000122 251.85714320838451 42.898365750908852 563.55763377249241 51.774224311113358 302.10604751110077 324.84241028130054
leaf_count=2241 43481 815 4071 1368 2277 564 3019 910 949 669 3091 15105 1428 1563 2695 557 411 1646 824 1289 1769 2297 1728 2757 1039 187 2290 231 1295 1335
internal_value=-4.3006e-05 0.0248165 0.0282306 0.032198 -0.00588055 0.0361386 0.0394124 0.0240269 0.00685536 0.0160588 0.0191036 0.0419785 0.0117777 0.023497 0.0337633 0.0217513 0.0151511 0.0411701 0.020684 0.0333871 0.0282302 0.00452677 0.00446041 0.0114987 0.0108271 0.0242783 0.0357953 0.0126347 0.014101 0.0213947
internal_weight=22446.5 14548.5 13092.4 10548.5 1456.07 8478.13 6733.72 962.969 984.954 2070.39 1917.33 5770.75 2543.91 1744.41 2075.27 791.95 777.329 1283.32 682.797 874.473 1180.97 1546.67 736.362 1010.3 479.922 294.756 755.189 191.632 989.217 687.111
internal_count=103901 60420 53918 43365 6502 34740 27462 3929 4225 8625 7956 23533 10553 7278 8428 3252 3276 5176 2865 3530 4860 6482 3096 4185 2041 1226 3085 795 4193 2898
is_linear=0
shrinkage=0.035


Tree=14
num_leaves=31
num_cat=0
split_feature=0 1 9 2 3 5 4 3 5 1 3 2 7 9 7 5 2 9 8 1 9 3 4 1 0 8 2 4 3 0
split_gain=19835.8 1754.98 900.895 660.891 563.134 549.583 390.63 384.899 304.928 247.718 251.075 232.816 230.224 192.678 182.915 175.018 168.74 172.627 144.384 122.293 112.804 132.929 136.688 171.557 104.308 103.014 132.579 100.903 110.475 98.1115
threshold=0.9981985000000001 3.5000000000000004 0.63321550000000015 0.00091850000000000015 0.18652850000000001 0.63327450000000007 0.0015715000000000002 0.0046985000000000004 1.0000000180025095e-35 28.500000000000004 0.012414500000000002 0.0013035000000000002 0.67586800000000002 0.55209987500000013 0.67774150000000011 0.12068150000000001 0.00041350000000000008 0.53677000000000008 0.00072150000000000003 52.500000000000007 0.45170925000000006 0.05521750000000001 0.080521250000000016 1.5000000000000002 0.70802350000000003 0.00016350000000000004 2.9500000000000002e-05 0.30707562500000002 0.0032325000000000006 0.81603600000000009
decision_type=2 2 2 2 2 2 2 2 2 2 2 2 2 2 2 2 2 2 2 2 2 2 2 2 2 2 2 2 2 2
left_child=1 3 4 6 5 8 16 14 11 10 -10 -3 -4 -11 -7 -15 17 25 -13 -14 21 22 23 -5 -12 26 -1 28 -20 -30
right_child=-2 2 12 20 -6 7 -8 -9 9 13 24 18 19 15 -16 -17 -18 -19 27 -21 -22 -23 -24 -25 -26 -27 -28 -29 29 -31
leaf_value=0.035940825416098353 -0.045322787598864663 0.036471720341468915 0.028873630793812152 -0.043403767464551234 -0.022802417630069349 0.034587579486940724 0.045049172612163707 -0.019085302808409563 0.038187904870621792 0.051696246248834475 -0.034560686512122844 -0.0056607231830185728 -0.026731380935973607 0.046196968643810864 0.0054253781457536607 0.0088519531585935594 -0.027421749955289561 -0.0083294988776446421 0.039973422141156102 0.048139806374625636 -0.020741208087173824 -0.030790478275248324 0.059573220956748586 0.027200001465149261 0.01643849742553978 0.050552527165239183 -0.0068604029616178668 0.058089285976372335 0.041281542605269013 0.0058463856512502906
leaf_weight=178.64011371135712 7729.6887758225203 1539.0192900598049 138.60984468460083 67.94152806699276 220.03137256205082 699.78641781210899 433.99976049363613 335.92003998160362 2583.9904294162989 2731.7151973992586 55.467168539762497 285.63557879626751 451.42321510612965 358.17596563696861 422.90031918883324 269.6404734402895 162.35922758281231 320.31504620611668 230.48392961919308 28.209599122405052 1204.8456337451935 106.15861648321152 64.782979086041451 110.36287872493267 417.5921281427145 136.18935683369637 175.58342237770557 89.045026242733002 115.30903324484825 560.30896866321564
leaf_count=717 43603 6206 563 315 1029 2831 1759 1422 10420 11303 239 1153 2112 1461 1723 1101 724 1332 925 118 5490 511 271 474 1721 549 759 362 468 2287
internal_value=-4.4016e-05 0.0241027 0.0302737 6.68663e-05 0.0326018 0.0337422 0.0174433 0.0137725 0.0368952 0.0411122 0.0338961 0.0272964 -0.010823 0.0476758 0.0236071 0.0301684 0.00512249 0.0116472 0.0162658 -0.022306 -0.015665 0.00184399 0.0161166 0.000268685 0.010443 0.0246967 0.014728 0.022561 0.0190555 0.0119072
internal_weight=22224.1 14494.4 11533.3 2961.18 10915 10695 1407.09 1458.61 9236.38 6416.58 3057.05 2819.8 618.243 3359.53 1122.69 627.816 973.087 810.728 1280.78 479.633 1554.09 349.246 243.087 178.304 473.059 490.413 354.224 995.147 906.102 675.618
internal_count=103948 60345 47444 12901 44651 43622 5840 5976 37646 26245 12380 11401 2793 13865 4554 2562 4081 3357 5195 2230 7061 1571 1060 789 1960 2025 1476 4042 3680 2755
is_linear=0
shrinkage=0.035


Tree=15
num_leaves=31
num_cat=0
split_feature=0 1 9 3 2 6 1 4 3 3 9 6 4 2 8 2 4 2 1 1 7 7 2 9 0 1 2 3 8 9
split_gain=18765 1591.67 955.753 614.937 542.294 388.041 352.511 287.577 248.817 235.545 228.341 198.456 190.601 153.348 159.691 145.999 209.939 153.877 143.248 122.128 118.367 116.653 159.658 110.38 111.82 108.292 106.402 106.116 97.8635 97.7316
threshold=0.9981985000000001 6.5000000000000009 0.59386958333333351 0.0052285000000000014 0.15990650000000003 0.076640000000000014 18.500000000000004 0.0081317500000000018 0.00064650000000000005 0.0012095000000000003 0.51268934722222237 0.074845500000000009 0.001754291666666667 0.021567500000000003 0.0010825000000000003 1.8500000000000006e-05 0.00018910000000000002 0.00036150000000000006 2.5000000000000004 2.5000000000000004 0.67699500000000012 0.42981250000000004 0.042371500000000013 0.51510712500000011 0.93266650000000018 12.500000000000002 0.0045075000000000002 0.0021655000000000003 5.5000000000000007e-06 0.44453637500000004
decision_type=2 2 2 2 2 2 2 2 2 2 2 2 2 2 2 2 2 2 2 2 2 2 2 2 2 2 2 2 2 2
left_child=1 3 4 7 6 11 8 9 -3 12 -8 -4 15 14 27 28 -17 23 21 -19 -7 22 -5 -18 -25 -16 -27 -10 -1 -28
right_child=-2 2 5 18 -6 20 10 -9 13 -11 -12 -13 -14 -15 25 16 17 19 -20 -21 -22 -23 -24 24 -26 26 29 -29 -30 -31
leaf_value=0.014788610353102952 -0.044864220065149334 0.038794003570803551 0.020098084624431058 0.059033466297876654 -0.021012114345796869 0.03701242827308112 0.048188019674147507 0.042239728565950041 0.023934819095055102 -0.0087452220360424472 0.032521720162668501 -0.030462356705442877 0.036828163510848444 -0.0048858694739375257 0.045715061549826366 -0.026329742976900657 0.042517539138574957 -0.022260156692208908 0.0013362810954772484 0.022327871693167238 0.0067577352505351828 -0.026965909098456229 -0.040850309184759494 0.027885801143119181 -0.014143063517130626 0.042674925118876342 0.058641114373568184 0.0029177632373540794 0.051926061937936085 -0.0098124531716126777
leaf_weight=225.21182683110237 7541.3402068465948 1609.0260529965162 120.74066823720932 46.686575174331665 209.53458811342716 282.79374964535236 3017.3949710577726 387.83479776978493 794.22227078676224 625.50047169625759 1836.4857840538025 444.95932073891163 419.74184428155422 251.60418480634689 519.64827311038971 226.56352697312832 215.27774284780025 220.96974718570709 454.96736405789852 113.84237538278103 360.47739414870739 791.17162504792213 33.489360481500626 182.31029906868935 134.61089232563972 139.5233266800642 30.638678759336472 467.87184627354145 141.80257233977318 148.71638083457947
leaf_count=905 43609 6520 499 190 984 1139 12522 1613 3192 2717 7513 2117 1699 1064 2104 997 869 977 1913 458 1488 3720 167 736 547 562 123 1896 569 606
internal_value=-0.000109478 0.023242 0.0307003 0.00515418 0.0346151 0.00147495 0.035938 0.0141996 0.0281862 0.00985603 0.0422626 -0.0196646 0.016045 0.0209265 0.0240192 0.010067 0.00365255 0.0114937 -0.0145784 -0.00708989 0.0200683 -0.0228885 0.0172926 0.0231864 0.010031 0.0358597 0.0197753 0.0161467 0.0291626 0.00192381
internal_weight=21995 14453.6 10233.6 4219.98 9024.67 1208.97 8815.13 2893.67 3961.25 2505.83 4853.88 565.7 1880.33 2352.22 2100.62 1460.59 1093.57 867.011 1326.31 334.812 643.271 871.348 80.1759 532.199 316.921 838.527 318.878 1262.09 367.014 179.355
internal_count=104015 60406 42329 18077 37086 5243 36102 12087 16067 10474 20035 2616 7757 9547 8483 6058 4584 3587 5990 1435 2627 4077 357 2152 1283 3395 1291 5088 1474 729
is_linear=0
shrinkage=0.035


Tree=16
num_leaves=31
num_cat=0
split_feature=0 3 7 7 5 9 4 5 0 5 0 6 5 5 5 3 2 3 5 2 5 4 4 0 7 5 3 5 3 3
split_gain=17822.7 1074.88 512.637 424.06 284.576 271.399 270.049 224.794 204.853 196.252 188.386 167.178 146.327 143.596 141.836 132.919 122.201 104.705 104.701 220.001 172.672 171.472 128.918 122.304 104.926 103.002 102.732 93.8034 90.016 89.4487
threshold=0.9981985000000001 0.012414500000000002 0.57840000000000014 0.67586800000000002 0.54524250000000019 0.5787270000000001 0.25091162500000003 1.0000000180025095e-35 0.92355300000000007 0.097760500000000014 0.9510630000000001 0.15309050000000005 0.74001200000000011 0.62696200000000013 1.0000000180025095e-35 0.18652850000000001 0.099096500000000018 0.0021655000000000003 1.0000000180025095e-35 0.0015865000000000002 0.15428000000000003 0.004780925000000001 0.00075362500000000017 0.72384650000000017 0.58865050000000008 1.0000000180025095e-35 0.00023550000000000001 0.3461220000000001 0.0045615000000000005 0.00081250000000000018
decision_type=2 2 2 2 2 2 2 2 2 2 2 2 2 2 2 2 2 2 2 2 2 2 2 2 2 2 2 2 2 2
left_child=1 2 8 4 7 10 16 15 14 -9 13 -11 -10 18 -1 -3 -5 -15 19 22 -20 -21 26 -22 29 -12 -4 -27 -23 -24
right_child=-2 3 5 6 -6 -7 -8 9 12 11 25 -13 -14 17 -16 -17 -18 -19 20 21 23 28 24 -25 -26 27 -28 -29 -30 -31
leaf_value=0.029812445946666231 -0.044407109476169257 0.0067189369172580725 0.029464509198950953 -0.011184281903283728 -0.024712341195288132 0.0076692969452359303 0.049727361756251691 0.042767327747509028 0.024641162508109757 0.024579175874156728 -0.007522864868373778 -0.014419156864932708 -0.032260894940256482 0.022058715817516616 0.044756715612289402 -0.041402714843837542 -0.038694276890176467 -0.0054739284527535364 0.045341523655812517 -0.021913253726327755 -0.0061572162163418681 0.043758261755486472 0.05335171854690525 0.030010827799991896 0.044867132705980591 0.032774184007201265 -0.0036046706485452179 0.0038287045978781368 0.0016263113321549555 -0.052308493910124661
leaf_weight=1123.1615548878908 7353.9430534243584 594.15817329287529 340.9417599439621 546.76622869074345 222.03240841627121 1381.780669182539 71.128426775336266 509.03180357813835 683.8236450701952 498.12024277448654 282.97372201085091 184.30215492844582 60.039953589439392 649.69812035560608 2552.3973403424025 79.546652570366859 310.1871681958437 228.54406049847603 1106.5575117319822 193.68412984907627 129.29969589412212 120.05377762019634 15.548399493098257 993.20810562372208 653.58925126492977 277.33436040580273 173.46746434271336 271.55661422014236 128.71921774744987 25.842520013451576
leaf_count=4640 43613 2563 1394 2419 982 5748 304 2123 2826 2103 1197 811 270 2625 10682 378 1591 957 4575 814 546 494 63 4072 2663 1135 704 1145 540 106
internal_value=-7.28612e-05 0.0225566 0.0274748 0.00397354 0.0127262 0.0215623 -0.0157071 0.017186 0.0368017 0.0263217 0.0249951 0.0140432 0.0200386 0.0276813 0.0401925 0.00102385 -0.0211507 0.0148923 0.0305741 0.0238868 0.0355264 0.00276315 0.0316117 0.0258428 0.0414448 0.00962204 0.0183126 0.0184636 0.0219843 -0.0125097
internal_weight=21761.4 14407.5 11392.2 3015.27 2087.19 6972.8 928.082 1865.16 4419.42 1191.45 5591.02 682.422 743.864 4759.15 3675.56 673.705 856.953 878.242 3880.91 1651.85 2229.07 442.457 1209.39 1122.51 694.98 831.865 514.409 548.891 248.773 41.3909
internal_count=104083 60470 47196 13274 8960 28778 4314 7978 18418 5037 23030 2914 3096 19553 15322 2941 4010 3582 15971 6778 9193 1848 4930 4618 2832 3477 2098 2280 1034 169
is_linear=0
shrinkage=0.035


Tree=17
num_leaves=31
num_cat=0
split_feature=0 1 9 3 7 3 4 1 8 0 1 6 3 2 8 2 4 6 9 7 4 4 4 3 3 4 1 3 0 0
split_gain=16877.2 1519.5 793.643 568.049 504.473 331.86 304.249 302.528 212.363 196.484 190.809 190.37 167.271 131.711 154.446 151.758 138.613 119.672 118.952 116.739 114.849 110.556 101.032 326.184 94.5596 106.04 93.946 89.93 99.876 86.8465
threshold=0.9981985000000001 3.5000000000000004 0.64581350000000015 0.0016165000000000001 0.63360950000000005 0.010392500000000001 0.0033777333333333335 28.500000000000004 0.053085500000000008 0.70802350000000003 29.500000000000004 0.077642000000000017 0.00064650000000000005 0.00041350000000000008 0.00020050000000000002 3.3500000000000008e-05 0.00018910000000000002 0.07450950000000002 0.55790745833333344 0.44410650000000002 0.00092680357142857158 4.6291666666666683e-05 0.016049833333333336 0.018274500000000003 0.021825000000000004 0.0081317500000000018 52.500000000000007 0.00033450000000000005 0.91887800000000019 0.83738550000000012
decision_type=2 2 2 2 2 2 2 2 2 2 2 2 2 2 2 2 2 2 2 2 2 2 2 2 2 2 2 2 2 2
left_child=1 3 4 6 7 18 13 12 -9 -7 -11 17 -3 14 15 21 -17 -4 26 -10 -15 -1 -5 -24 25 -14 -6 -20 29 -29
right_child=-2 2 11 22 5 9 -8 8 19 10 -12 -13 24 20 -16 16 -18 -19 27 -21 -22 -23 23 -25 -26 -27 -28 28 -30 -31
leaf_value=0.0024834586783458188 -0.043991776931398191 0.03917260851024805 0.054017694678637269 -0.027251844775597594 0.028200681394598207 -0.036276813347775459 0.042716067347694182 0.045895184573934232 0.052624611198418075 -0.0070103207177642313 0.02466533584192521 0.01974208305791882 0.019612894522679 -0.039758862964428397 0.037816740940062904 -0.038996035263408155 0.0057654338672806253 -0.036322788278368642 0.030950000710558284 -0.027249416138337128 0.0010432578650520483 0.0456628035303644 0.023495735322617204 -0.027810043158769376 0.0036301153155816656 0.039772332132507672 0.05035963196557481 0.031553625115378355 0.038523193849337126 0.0016775730294903411
leaf_weight=151.76544098556042 7154.9425685405731 1103.4719231873751 18.855333566665649 672.48736973106861 2234.7221106141806 130.59427557885647 338.2409356534481 2917.6469142585993 31.408374145627022 445.9846183359623 487.2234743386507 122.54993289709091 1123.64625890553 120.42159387469292 227.42270101606846 133.94457300007343 229.89499965310097 316.16627508401871 435.80388095974922 76.8471959233284 281.96463622152805 139.32271079719067 248.6499842107296 388.9866648465395 291.00420090556145 447.51378777623177 262.38222682476044 144.84544071555138 144.92703138291836 669.66983886063099
leaf_count=610 43536 4517 79 3125 9091 615 1393 12343 132 1910 2041 502 4541 563 924 625 936 1587 1758 333 1183 561 1067 1896 1222 1815 1103 593 584 2732
internal_value=-8.7428e-05 0.0218213 0.0275993 -0.000645709 0.0294869 0.0212237 0.0131917 0.0363209 0.0441092 0.00389686 0.00952725 -0.0175527 0.0283713 0.00541189 0.0129798 0.00434364 -0.0107207 -0.0312039 0.0259583 -0.00400498 -0.0111769 0.0231734 -0.0177882 -0.00779923 0.0219662 0.0253604 0.0305336 0.0177655 0.0117697 0.00699903
internal_weight=21493.3 14338.4 11405.3 2933.1 10947.7 4956.15 1622.98 5991.54 3025.9 1063.8 933.208 457.572 2965.64 1284.74 882.35 654.928 363.84 335.022 3892.35 108.256 402.386 291.088 1310.12 637.637 1862.16 1571.16 2497.1 1395.25 959.442 814.515
internal_count=103917 60381 47498 12883 45330 20427 6795 24903 12808 4566 3951 2168 12095 5402 3656 2732 1561 1666 15861 465 1746 1171 6088 2963 7578 6356 10194 5667 3909 3325
is_linear=0
shrinkage=0.035


Tree=18
num_leaves=31
num_cat=0
split_feature=0 1 3 9 2 4 1 1 9 8 3 5 5 2 6 2 9 5 5 5 6 2 4 6 1 8 5 8 0 8
split_gain=16004.6 1429.69 729.993 509.927 482.541 357.336 302.99 282.715 255.76 212.995 163.794 193.14 170.631 159.854 167.869 151.694 154.251 143.356 137.511 137.288 126.047 121.233 120.135 119.268 115.35 169.513 160.7 114.088 113.964 108.83
threshold=0.9981985000000001 2.5000000000000004 0.041572500000000005 0.49873775000000009 0.00091850000000000015 0.0015715000000000002 24.500000000000004 52.500000000000007 0.58898995833333345 1.5000000000000002e-06 0.0019125000000000004 0.64742100000000014 0.048955000000000005 0.42527150000000008 0.074903500000000012 0.00041350000000000008 0.53207430555555568 0.43967150000000005 0.13547050000000002 0.13845650000000004 0.075605000000000019 0.00043750000000000006 0.0016887321428571433 0.14463500000000004 14.500000000000002 0.053085500000000008 0.018472500000000003 0.00016350000000000004 0.86854500000000012 0.0052315000000000009
decision_type=2 2 2 2 2 2 2 2 2 2 2 2 2 2 2 2 2 2 2 2 2 2 2 2 2 2 2 2 2 2
left_child=1 4 3 6 5 15 21 8 10 -4 22 12 -12 14 29 16 27 24 -14 -9 -10 -3 -5 -20 -16 -26 -27 -1 -21 -11
right_child=-2 2 9 7 -6 -7 -8 19 20 13 11 -13 18 -15 17 -17 -18 -19 23 28 -22 -23 -24 -25 25 26 -28 -29 -30 -31
leaf_value=0.0097474511578959193 -0.043618698691969666 0.04052411273376004 -0.044474810638213118 0.024479785658591418 -0.015439271784818789 0.041121059172230162 0.048043264515331474 0.051881278167005218 -0.014375164043040099 0.029701816023636946 0.0046480384165287309 -0.011969679997748589 0.045591996210471976 -0.044684789008855814 -0.0046730501021059745 -0.030819093277457403 -0.011560414005258658 -0.022342277134216031 0.026960527720614205 0.0092899636586202278 0.012905487271920908 0.022641639667034575 0.041835148129816514 -0.0094335489999614174 0.040035737499639186 -0.049417817447917074 0.057829769474409522 0.049027446664705251 0.045474580353921878 -0.027253630310663621
leaf_weight=314.75984734296799 6976.3003018498421 730.81660102307796 116.50254537165165 1782.9653826355934 1454.2551130950451 406.26899109780788 2156.8868682682514 550.58716079592705 331.91324031352997 51.453951373696327 560.84297093749046 268.8992792069912 373.34759731590748 72.693229049444199 139.91004933416843 148.07666046917439 296.2147229462862 96.276218593120575 491.45058424770832 238.63385862112045 552.53859421610832 1279.6032430231571 674.4981515109539 142.019148260355 422.97484685480595 54.29425673186779 24.750577688217163 127.153599858284 192.96011091768742 200.84975455701351
leaf_count=1321 43570 3013 599 7278 6741 1671 9272 2323 1467 222 2278 1121 1546 371 617 684 1243 427 2007 982 2242 5188 2744 585 1770 239 105 518 802 949
internal_value=-0.000181338 0.0210777 0.026493 0.0294722 -0.00160983 0.0139493 0.0389292 0.0230739 0.0198065 0.000408604 0.0233365 0.0154245 0.0201254 0.00533588 0.00901693 0.00148431 0.00797369 0.0174406 0.0287426 0.0402916 0.00266481 0.0291464 0.029247 0.0187981 0.0234151 0.0312453 -0.0157531 0.0210707 0.0254853 -0.0156171
internal_weight=21230.7 14254.4 11507.7 10328 2746.73 1292.47 4167.31 6160.66 5178.47 1179.71 4294.02 1836.56 1567.66 1063.2 990.51 886.205 738.128 738.206 1006.82 982.181 884.452 2010.42 2457.46 633.47 641.93 502.02 79.0448 441.913 431.594 252.304
internal_count=103895 60325 48147 42848 12178 5437 17473 25375 21268 5299 17559 7537 6416 4700 4329 3766 3082 3158 4138 4107 3709 8201 10022 2592 2731 2114 344 1839 1784 1171
is_linear=0
shrinkage=0.035


Tree=19
num_leaves=31
num_cat=0
split_feature=0 1 9 2 9 1 4 0 2 2 3 5 6 4 2 0 2 6 0 6 5 5 4 9 2 4 2 9 8 9
split_gain=15221 1362.9 805.307 477.835 331.67 325.251 270.322 245.359 242.48 235.976 208.829 180.13 169.337 163.104 153.406 148.829 138.587 133.793 124.861 127.76 124.479 118.712 115.492 111.862 110.013 216.601 141.883 108.615 97.1234 94.7478
threshold=0.9981985000000001 6.5000000000000009 0.54891337500000015 0.0066005000000000013 0.65115100000000015 28.500000000000004 0.011663041666666667 0.70644950000000006 0.10432950000000001 0.021567500000000003 0.0014685000000000002 0.64742100000000014 0.079674000000000009 0.0031010161290322582 0.00033150000000000003 0.84533800000000003 0.00024050000000000002 0.07450950000000002 0.9174150000000002 0.075543500000000013 1.0000000180025095e-35 0.59145400000000004 0.00082912500000000011 0.40648650000000003 1.8500000000000006e-05 0.00017746428571428576 0.00036150000000000006 0.52494637500000019 0.0010635000000000002 0.50058457500000009
decision_type=2 2 2 2 2 2 2 2 2 2 2 2 2 2 2 2 2 2 2 2 2 2 2 2 2 2 2 2 2 2
left_child=1 3 5 6 7 9 10 -4 20 16 13 15 17 24 -13 -9 -3 -6 19 -17 23 22 29 -7 -1 -26 -27 -28 -8 -18
right_child=-2 2 4 -5 12 8 28 11 -10 -11 -12 14 -14 -15 -16 18 21 -19 -20 -21 -22 -23 -24 -25 25 26 27 -29 -30 -31
leaf_value=0.025837427129116304 -0.043230567371692619 0.040751611028793266 -0.035456737273774568 -0.015413191484082184 0.071745512888097565 -0.056500221509501333 0.0046487942265385296 0.046158324011055983 -0.004082566294684893 -0.0014429670788500453 -0.0098569844584032937 0.026573759910827142 0.023623538265071582 0.037442508477898449 -0.015515831085997807 -0.0031975908985417156 0.028141053948673694 -0.034296783813525224 0.043514720343668191 0.021703764820766133 0.046545556721661392 0.0077188725259224782 0.032147020559115141 0.029863834195523527 -0.02737709185491723 0.02227112651568347 -0.016851947627152693 0.014784880661665613 0.049739393556514654 -0.0062279480653634452
leaf_weight=364.4917628467083 6789.0084572285414 977.70427799224854 105.66524973511696 1162.3729309737682 15.108828291296957 19.086307376623154 74.676761507987976 306.66283991932869 134.82667084038258 329.43470419943333 659.44003953039646 164.50333143770695 96.136762380599976 283.45597992837429 297.81817650794983 337.87005144357681 199.2913822978735 306.58491992950439 226.2763956785202 995.62919345498085 2720.5986037701368 399.2748961597681 1832.6460443586111 389.86643175780773 222.4275368899107 588.54160730540752 295.06925871968269 241.56917740404606 272.45624077320099 193.38468833267689
leaf_count=1471 43537 4065 511 5370 63 77 311 1274 591 1391 2902 662 393 1168 1240 1416 820 1582 917 4071 11843 1620 7495 1611 991 2391 1281 1006 1140 789
internal_value=-0.000119171 0.0204739 0.0274512 0.00363766 0.0117109 0.0336893 0.0110149 0.0166558 0.0418576 0.0269052 0.00721496 0.019024 -0.0170899 0.0128578 -0.000530706 0.0238682 0.0294981 -0.0292694 0.0194793 0.0153936 0.0438374 0.0253025 0.0284557 0.0258032 0.00878258 0.00416525 0.0104059 -0.00260709 0.0400526 0.011216
internal_weight=21001.9 14212.9 10048.4 4164.5 2852.26 7196.11 3002.13 2434.43 3264.38 3931.74 2655 2328.76 417.831 1995.56 462.322 1866.44 3602.3 321.694 1559.78 1333.5 3129.55 2624.6 2225.32 408.953 1712.1 1347.61 1125.18 536.638 347.133 392.676
internal_count=103999 60462 42431 18031 12129 30302 12661 10091 14122 16180 11210 9580 2038 8308 1902 7678 14789 1645 6404 5487 13531 10724 9104 1688 7140 5669 4678 2287 1451 1609
is_linear=0
shrinkage=0.035


Tree=20
num_leaves=31
num_cat=0
split_feature=0 2 9 7 5 0 3 9 5 2 5 6 3 5 0 4 7 5 6 4 3 8 0 4 2 8 0 6 0 3
split_gain=14455.2 846.103 536.062 286.552 278.073 270.73 265.314 205.927 197.879 271.01 251.799 188.173 150.707 148.635 143.444 128.641 125.627 122.851 121.393 118.258 172.159 112.77 122.143 99.0678 85.5944 84.1419 79.692 79.6036 87.1916 74.715
threshold=0.9981985000000001 0.041460500000000004 0.50117575000000014 0.67699500000000012 0.63327450000000007 0.9309575000000001 0.0045615000000000005 0.5815935000000001 1.0000000180025095e-35 0.0015865000000000002 0.1446915 0.057975000000000006 0.18652850000000001 0.76951200000000008 0.70802350000000003 0.00075362500000000017 0.67774150000000011 1.0000000180025095e-35 0.075605000000000019 0.020023625000000003 0.0013275000000000003 0.028956000000000006 0.89361150000000011 0.018649750000000003 0.00023350000000000001 0.0011715000000000002 0.81697650000000011 0.074903500000000012 0.90072550000000018 0.0022905000000000004
decision_type=2 2 2 2 2 2 2 2 2 2 2 2 2 2 2 2 2 2 2 2 2 2 2 2 2 2 2 2 2 2
left_child=1 2 5 12 7 17 16 8 9 11 -10 -4 21 29 -12 24 -6 19 27 20 -1 23 26 -3 -13 -11 -23 -9 -29 -7
right_child=-2 3 4 -5 6 13 -8 18 10 25 14 15 -14 -15 -16 -17 -18 -19 -20 -21 -22 22 -24 -25 -26 -27 -28 28 -30 -31
leaf_value=0.030963583793882383 -0.042871498320138111 0.024854763596533189 -0.01414761768903732 -0.029390230031109698 0.021213420490534516 0.025384075993635673 -0.026352899773868139 0.010227341486564547 0.039873398969898152 -0.022921050293856018 -0.013515832630192126 0.025985158371144127 -0.022163873238557289 -0.036675411250512498 0.022632220123064407 0.039089307660512281 -0.0025385150797832498 0.038604891897370958 0.014367600980356518 0.044828033024523734 0.0034067617982400443 0.037282998894862168 0.045866925088671427 -0.0085672784307465402 -0.0045814076822893223 0.0045037898631801214 -0.036386488652032617 0.036385719394657394 -0.030981968703144406 0.0030496209822432445
leaf_weight=802.89355447888374 6609.5896482765675 159.65681432187557 144.54850018024445 439.5032911002636 605.38152910768986 505.99057452380657 305.17229844629765 145.13658870756626 1339.2677476555109 214.83814966678619 148.19642965495586 308.45763961970806 201.40531350672245 67.67269766330719 1434.1275906860828 605.17619176208973 496.09630227088928 2986.1364536732435 781.91424071788788 337.83971133828163 424.84084548056126 29.631294816732407 184.57311761379242 338.85933397710323 176.11916427314281 377.51269754767418 45.089586287736893 26.508446589112282 198.24518443644047 288.19734799861908
leaf_count=3361 43538 678 602 2285 2482 2106 1352 601 5686 923 643 1280 961 323 5993 2504 2029 12944 3224 1425 1805 135 769 1483 718 1601 195 116 920 1243
internal_value=-0.000154244 0.0198434 0.0226845 -0.00599299 0.0164987 0.0310323 0.00251317 0.0198325 0.0230531 0.0140127 0.0287034 0.023351 0.00472947 0.0130379 0.0192443 0.0283283 0.0105156 0.0344385 0.00655279 0.0264865 0.0214315 0.0118833 0.0305951 0.00213877 0.0148748 -0.00544428 -0.00712724 -0.00996111 -0.0230033 0.0172843
internal_weight=20728.6 14119 12720.3 1398.72 7306.7 5413.57 1406.65 5900.05 4748.24 1826.65 2921.59 1234.3 959.215 861.861 1582.32 1089.75 1101.48 4551.71 1151.8 1565.57 1227.73 757.81 259.294 498.516 484.577 592.351 74.7209 369.89 224.754 794.188
internal_count=103925 60387 53881 6506 30674 23207 5863 24811 19950 7628 12322 5104 4221 3672 6636 4502 4511 19535 4861 6591 5166 3260 1099 2161 1998 2524 330 1637 1036 3349
is_linear=0
shrinkage=0.035


Tree=21
num_leaves=31
num_cat=0
split_feature=0 1 2 2 9 1 7 4 2 5 1 2 9 4 6 9 0 5 4 4 9 3 4 1 2 4 3 5 2 0
split_gain=13790.1 1272.7 632.098 445.114 441.734 524.968 320.962 294.978 168.681 164.271 142.841 138.673 150.486 125.967 123.699 105.391 105.025 94.4987 94.2052 94.119 88.302 112.955 136.669 153.002 87.9549 99.9073 83.946 83.5272 83.1565 82.2118
threshold=0.9981985000000001 2.5000000000000004 0.041460500000000004 0.00091850000000000015 0.55790745833333344 26.500000000000004 0.67699500000000012 0.0015715000000000002 0.0006215000000000002 0.59145400000000004 14.500000000000002 0.00041350000000000008 0.53841200000000022 0.080521250000000016 0.07863050000000002 0.66564575000000004 0.70710650000000019 0.65300600000000009 0.00075362500000000017 0.0015063750000000001 0.45315406250000007 0.05521750000000001 0.07404875000000001 1.5000000000000002 3.3500000000000008e-05 0.00014838095238095243 0.00040250000000000003 1.0000000180025095e-35 0.0005055000000000002 0.70644950000000006
decision_type=2 2 2 2 2 2 2 2 2 2 2 2 2 2 2 2 2 2 2 2 2 2 2 2 2 2 2 2 2 2
left_child=1 3 4 7 5 8 10 11 19 16 -4 12 18 -12 15 26 -10 29 24 -3 21 22 23 -5 -1 -26 -6 -7 -19 -16
right_child=-2 2 6 20 14 27 -8 -9 9 -11 13 -13 -14 -15 17 -17 -18 28 -20 -21 -22 -23 -24 -25 25 -27 -28 -29 -30 -31
leaf_value=0.028341593053798676 -0.042524756416919489 0.028446235298658553 -0.013167914075030412 -0.042821732637471716 0.024155650042429512 0.027455515837488658 -0.027538636565029532 0.038048776687545964 -0.026691034192646998 -8.5994534560624366e-05 0.032788670403172085 -0.02958643604986071 -0.012478332512062176 -0.0016254770541500288 -0.029736854286854894 -0.033123377475790229 0.023336057666931587 0.020140754835224026 0.045865062988941246 0.048716088333812149 -0.020246267761251484 -0.032777021818686698 0.057511152152166282 0.023031271650915845 -0.042451696406854894 0.013265767086678535 -0.0011575124795000029 0.044560059857623853 -0.020903179817509922 0.026129425816342623
leaf_weight=166.91605730354786 6438.9449084848166 1596.5904672443867 199.24315519630909 70.576015949249268 234.84644713997841 404.14017735421658 360.07547435164452 394.12499867379665 52.292748332023621 475.66478300094604 385.05961449444294 145.26625703275204 279.16674527525902 196.70366793870926 33.135237142443657 90.364471554756165 2504.4408935159445 123.56381939351559 125.89438591897488 341.38145829737186 1107.7195617556572 91.83366471529007 61.992962449789047 110.79491905868053 62.633017584681511 105.57803510129452 505.5160389393568 2687.6191388815641 118.03850425779819 1018.1482573747635
leaf_count=675 43581 6642 883 337 951 1688 1897 1647 214 1952 1606 680 1174 843 143 451 10254 500 519 1429 5197 471 262 478 296 434 2115 11999 491 4140
internal_value=-0.000110467 0.0193286 0.0244931 -0.00215758 0.0272604 0.0310014 -0.000208018 0.0128688 0.0239549 0.0187967 0.0123941 0.00165291 0.00779252 0.0211531 0.0130556 0.00251409 0.0223102 0.0198262 0.0200712 0.0320224 -0.0154841 0.000250604 0.0127375 -0.0026031 0.0103546 -0.00749589 0.00687393 0.0423267 8.0173e-05 0.0243616
internal_weight=20488.3 14049.3 11326.8 2722.5 10185.7 8062.13 1141.08 1279.58 4970.37 3032.4 781.006 885.454 740.188 581.763 2123.61 830.727 2556.73 1292.89 461.021 1937.97 1442.92 335.198 243.364 181.371 335.127 168.211 740.362 3091.76 241.602 1051.28
internal_count=103949 60368 48198 12170 42969 34178 5229 5425 20491 12420 3332 3778 3098 2449 8791 3517 10468 5274 1924 8071 6745 1548 1077 815 1405 730 3066 13687 991 4283
is_linear=0
shrinkage=0.035


Tree=22
num_leaves=31
num_cat=0
split_feature=6 1 6 9 6 1 2 3 4 1 5 2 6 1 3 5 5 2 8 7 2 8 3 4 2 5 5 6 1 3
split_gain=5856.75 3074.18 745.699 535.954 399.965 399.554 390.79 328.999 304.491 255.475 235.45 193.421 165.97 157.594 129.14 115.526 111.299 103.842 179.466 100.886 162.736 100.486 112.883 97.055 126.269 113.843 93.0648 120.267 90 83.2667
threshold=0.05330250000000001 2.5000000000000004 0.0014635000000000002 0.54588962500000016 0.075769500000000017 42.500000000000007 0.00091850000000000015 0.011169000000000002 0.0015715000000000002 3.5000000000000004 0.12473250000000001 0.10432950000000001 0.074791500000000011 54.500000000000007 0.013690500000000003 0.43967150000000005 0.55251150000000016 4.4500000000000004e-05 1.4500000000000002e-05 0.42981250000000004 0.048717000000000003 0.030953000000000005 0.0026005000000000004 0.0074817 0.00043750000000000006 0.031531500000000011 1.0000000180025095e-35 0.17356500000000002 69.500000000000014 0.019108000000000003
decision_type=2 2 2 2 2 2 2 2 2 2 2 2 2 2 2 2 2 2 2 2 2 2 2 2 2 2 2 2 2 2
left_child=2 6 -1 5 12 7 8 16 17 -4 13 26 -5 21 -12 -9 23 18 -2 20 -8 22 -6 24 -3 -26 27 -7 -29 -11
right_child=1 3 9 4 10 11 19 15 -10 29 14 -13 -14 -15 -16 -17 -18 -19 -20 -21 -22 -23 -24 -25 25 -27 -28 28 -30 -31
leaf_value=-0.042189146620386836 -0.014737575699108042 0.033153683073480752 -0.027614126502807534 0.0079280326580270545 0.026319642794764946 0.030952680811980104 0.056723867646362655 0.0065905400576689423 0.021325045410832515 -0.0024506753511605367 0.010622444030806026 -0.0066860570303675562 -0.024199627500708424 0.052014726369037215 -0.018561749345985125 -0.024878518875368967 0.011565537332289546 -0.021704826202836931 0.039529804012827977 -0.028213099145582905 -0.039960610737087288 0.051347558030329435 -8.8143441790427686e-05 0.041352828423851927 0.0080034416381434322 0.026037435788534229 0.04088571726069317 -0.045278331881712944 0.058523524676480851 -0.027453355046559835
leaf_weight=3031.4397572427988 244.11990833282471 1146.5154159218073 1346.1270264834166 316.59565840661526 527.70697486400604 279.20789630711079 44.560967624187469 640.88931576907635 440.69869200885296 1146.7110339254141 1010.0909665077925 122.02687798440456 520.48597174882889 245.51642134785652 227.35521599650383 183.69473080337048 746.01898966729641 660.26262474060059 107.29400745034218 1991.1410288065672 40.526618838310242 114.41667824983597 317.36377197504044 465.95243878662586 759.51904660463333 986.36629393696785 2304.1916313171387 48.015460401773453 12.79260417819023 190.09295371174812
leaf_count=21083 1278 5018 7845 1451 2238 1190 187 2810 2138 5893 4261 558 2545 1072 1088 883 3179 3596 486 11411 236 482 1405 2001 3231 4278 10750 205 53 1058
internal_value=-0.000284046 0.0115403 -0.0302945 0.0206773 0.00882796 0.0257267 -0.0168768 0.0197499 -0.00294839 -0.016852 0.0159835 0.0363736 -0.0120474 0.0269948 0.0052569 -0.000422115 0.0238027 -0.013526 0.00183947 -0.026618 0.0106675 0.0205813 0.0164025 0.0265197 0.0241269 0.0181949 0.0383618 0.0212385 -0.0232919 -0.00601093
internal_weight=20217.7 14503.3 5714.37 10974.7 3279.53 7695.19 3528.6 4928.96 1452.38 2682.93 2442.45 2766.23 837.082 1205 1237.45 824.584 4104.37 1011.68 351.414 2076.23 85.0876 959.487 845.071 3358.35 2892.4 1745.89 2644.21 340.016 60.8081 1336.8
internal_count=103909 68030 35879 48698 14542 34156 19332 21400 7498 14796 10546 12756 3996 5197 5349 3693 17707 5360 1764 11834 423 4125 3643 14528 12527 7509 12198 1448 258 6951
is_linear=0
shrinkage=0.035


Tree=23
num_leaves=31
num_cat=0
split_feature=0 2 7 5 3 9 9 7 0 5 0 0 5 5 2 8 7 5 5 5 6 7 8 8 0 4 2 8 3 9
split_gain=12673.2 723.076 465.665 281.114 214.712 205.122 172.441 186.655 150.542 148.97 138.067 132.251 146.812 206.036 198.601 137.388 132.017 126.986 114.71 103.883 102.598 97.74 97.2693 231.068 85.9576 81.8571 106.47 145.821 77.1713 74.9575
threshold=0.9981985000000001 0.018037000000000001 0.57840000000000014 0.54524250000000019 0.33195550000000007 0.58015612500000013 0.65115100000000015 0.68053350000000012 0.9309575000000001 1.0000000180025095e-35 0.70802350000000003 0.98800300000000008 0.35542000000000001 1.0000000180025095e-35 0.0015865000000000002 0.0011715000000000002 0.63727950000000011 1.0000000180025095e-35 0.70795900000000012 0.1446915 0.057975000000000006 0.67979350000000005 0.053085500000000008 0.038803500000000012 0.70644950000000006 0.00067529166666666681 0.00029650000000000005 0.0001685 0.0071065000000000008 0.44314104166666668
decision_type=2 2 2 2 2 2 2 2 2 2 2 2 2 2 2 2 2 2 2 2 2 2 2 2 2 2 2 2 2 2
left_child=1 2 8 4 6 11 9 -8 17 22 -11 12 13 14 16 -16 -4 24 -10 -15 -18 28 23 -3 -1 26 -22 -28 -14 -26
right_child=-2 3 5 -5 -6 -7 7 -9 18 10 -12 -13 21 19 15 -17 20 -19 -20 -21 25 -23 -24 -25 29 -27 27 -29 -30 -31
leaf_value=-0.020290651797974367 -0.041995233204788401 -0.0083256675554946868 0.0041022245652298219 -0.031925442069351932 -0.036504230746279946 0.0043878060084508713 0.046228101110716888 -0.039983939686865186 0.020271981041310578 -0.017822134444442014 0.024303498605202981 -0.0053955538052062922 0.02028802634516164 0.038653219646649264 -0.022551437344116583 0.013087570333900799 -0.004950183695652326 0.037991632238918847 -0.029536056326013423 0.021278944179029511 0.031736881808516623 -0.0019111797492456909 -0.036762557481877907 0.048528446167084502 0.041926934519441031 0.042482300325602622 -0.050666777254806117 0.038774007015353981 -0.0048856648184888571 0.021237025788730279
leaf_weight=50.612438321113586 6127.7689744085073 410.92579391598701 321.49086928367615 288.2462423145771 141.15963396430016 1398.8930884003639 38.14461013674736 155.49200130999088 633.1482302993536 105.97955885529518 931.26872202754021 252.90347589552402 1137.357008934021 1219.086320862174 224.67332868278027 322.36586102843285 93.219897478818893 2560.5825880020857 62.002849817276001 646.68537223339081 273.29450675845146 450.32734222710133 83.963885709643364 111.06474436819553 282.77258563041687 523.95318928360939 51.451418802142143 39.129711732268333 171.48705497384071 895.52098181843758
leaf_count=214 43398 1861 1345 1368 748 5901 175 900 2669 493 4053 1081 4758 5311 971 1360 388 11493 293 2734 1149 1861 394 484 1205 2199 212 160 746 3812
internal_value=-7.39929e-05 0.0184374 0.021967 0.000352778 0.0050602 0.0164053 0.00825897 -0.0229618 0.0308033 0.0119415 0.0199951 0.01934 0.0204831 0.0244277 0.0161448 -0.00154935 0.0235765 0.0335504 0.0158197 0.0326351 0.0299543 0.0121495 -0.00184354 0.00378187 0.0242905 0.0336214 0.0208413 -0.0120101 0.0169881 0.02621
internal_weight=20005 13877.2 11611 2266.25 1978 7126.32 1836.84 193.637 4484.64 1643.2 1037.25 5727.43 5474.52 3715.35 1849.58 547.039 1302.54 3789.49 695.151 1865.77 981.049 1759.17 605.954 521.991 1228.91 887.829 363.876 90.5811 1308.84 1178.29
internal_count=103736 60338 49862 10476 9108 30176 8360 1075 19686 7285 4546 24275 23194 15829 7784 2331 5453 16724 2962 8045 4108 7365 2739 2345 5231 3720 1521 372 5504 5017
is_linear=0
shrinkage=0.035


Tree=24
num_leaves=31
num_cat=0
split_feature=0 1 9 3 3 1 6 4 3 6 5 3 8 9 3 4 4 5 1 4 3 4 4 7 5 0 8 0 5 0
split_gain=12164.3 1087.2 599.619 409.683 353.966 287.485 249.55 237.378 187.266 171.85 170.396 170.226 172.087 154.079 137.101 156.125 127.475 114.633 111.875 110.723 224.3 106.127 92.3262 91.0109 88.7973 88.6575 115.413 80.831 80.0179 87.7278
threshold=0.9981985000000001 6.5000000000000009 0.5815935000000001 0.0052285000000000014 0.068475500000000009 26.500000000000004 0.075769500000000017 0.0081317500000000018 0.00025350000000000009 0.07450950000000002 0.59145400000000004 0.00060550000000000003 0.00020550000000000003 0.51451637500000014 4.3500000000000007e-05 0.00027029166666666678 0.01730866666666667 0.12724450000000001 2.5000000000000004 0.025617875000000002 0.028102500000000006 4.6291666666666683e-05 0.0031010161290322582 0.67979350000000005 1.0000000180025095e-35 0.88701800000000008 0.033707500000000008 0.9000855000000002 1.0000000180025095e-35 0.70491800000000004
decision_type=2 2 2 2 2 2 2 2 2 2 2 2 2 2 2 2 2 2 2 2 2 2 2 2 2 2 2 2 2 2
left_child=1 3 4 7 5 8 9 11 -3 -4 24 12 14 -7 21 -16 -6 25 19 -5 -21 -1 -13 -12 -10 -8 -27 -11 -15 -30
right_child=-2 2 6 18 16 13 17 -9 10 27 23 22 -14 28 15 -17 -18 -19 -20 20 -22 -23 -24 -25 -26 26 -28 -29 29 -31
leaf_value=0.0060153266921895493 -0.041689509966552261 0.036262255870452793 0.022829549322683999 -0.033731566350772804 0.038549661216191765 0.04258917789710872 0.051482733172362592 0.036176603364910943 0.014832397805218712 0.038072733746381433 0.012244062776988637 -0.013291452114065789 0.032386618363271766 0.0084790391918854197 -0.029104617510571938 0.0091872207845746113 -0.010007846684940206 0.0020120419107918022 0.00058759239425662383 0.026003002164889138 -0.027733887553274199 0.039999035747232688 0.0083831157068829324 -0.017664555224051082 0.028107464695826766 0.007692007798801314 0.055143419253979739 -0.027769778139067457 -0.018289323774723632 0.033782992486483171
leaf_weight=271.90378223359585 5987.2667043358088 1097.9102097898722 120.50932730734348 420.83795301616192 79.843309953808784 2308.1105534434319 129.50306834280491 377.37903726100922 984.68977968394756 23.950185507535934 352.53350238502026 606.98767511546612 437.2175215035677 230.01625752449036 213.61011648178101 334.23418858647346 383.47720855474472 435.88620713353157 447.11146287620068 149.3916050940752 261.22803789377213 192.18064801394939 398.64339423179626 192.5201860666275 1661.0917861610651 293.52857679128647 79.752940073609352 423.45935432612896 41.279843255877495 906.79902032017708
leaf_count=1104 43606 4696 491 2068 345 10688 539 1608 4056 108 1435 2648 1852 944 965 1373 1755 1794 1898 659 1368 787 1714 803 6955 1203 341 2157 180 3992
internal_value=-2.47405e-06 0.0180115 0.0243791 0.00291561 0.0280919 0.0298628 0.00407516 0.0103398 0.0237916 -0.0142333 0.0194982 0.00636446 0.0140418 0.0373294 0.00610915 -0.00574514 -0.00162321 0.0151548 -0.0135273 -0.0211179 -0.00817594 0.0201032 -0.00469771 0.00167413 0.023169 0.02654 0.017859 -0.0242258 0.0270174 0.0315105
internal_weight=19842.9 13855.6 9744.86 4110.73 8238.27 7774.95 1506.59 2832.16 4288.75 567.919 3190.84 2454.78 1449.15 3486.21 1011.93 547.844 463.321 938.671 1278.57 831.458 410.62 464.084 1005.63 545.054 2645.78 502.785 373.282 447.41 1178.1 948.079
internal_count=104132 60526 42482 18044 35849 33749 6633 12051 17945 2756 13249 10443 6081 15804 4229 2338 2100 3877 5993 4095 2027 1891 4362 2238 11011 2083 1544 2265 5116 4172
is_linear=0
shrinkage=0.035


Tree=25
num_leaves=31
num_cat=0
split_feature=0 1 9 2 1 7 2 4 2 2 2 8 2 4 2 4 8 5 5 5 1 4 2 6 1 1 2 4 1 2
split_gain=11445.1 1043.87 577.018 364.722 301.931 286.209 285.43 223.124 198.342 193.492 185.364 122.873 131.486 122.85 117.722 114.81 104.935 102.332 100.421 100.208 94.5589 96.9452 202.218 93.1302 90.2344 151.85 84.7723 85.6075 83.4613 83.1928
threshold=0.9981985000000001 6.5000000000000009 0.54891337500000015 0.0048745000000000012 28.500000000000004 0.67752350000000006 0.018037000000000001 0.0039042500000000006 0.00060750000000000008 0.021567500000000003 0.099096500000000018 0.00020550000000000003 3.750000000000001e-05 0.00027029166666666678 0.00024050000000000002 4.6291666666666683e-05 0.0010825000000000003 1.0000000180025095e-35 0.37182850000000006 0.87011950000000005 2.5000000000000004 0.025617875000000002 0.027896500000000005 0.17356500000000002 41.500000000000007 52.500000000000007 0.0020685000000000005 0.0016100454545454547 3.5000000000000004 0.00084450000000000009
decision_type=2 2 2 2 2 2 2 2 2 2 2 2 2 2 2 2 2 2 2 2 2 2 2 2 2 2 2 2 2 2
left_child=1 3 4 7 9 -4 19 8 11 14 17 12 15 -14 -3 -1 26 23 -13 24 21 -5 -23 -6 -7 -26 27 -16 -10 -9
right_child=-2 2 5 20 10 6 -8 29 28 -11 -12 18 13 -15 16 -17 -18 -19 -20 -21 -22 22 -24 -25 25 -27 -28 -29 -30 -31
leaf_value=0.0042800050353001924 -0.041396128877804542 0.035610915687164298 0.023007838532107385 -0.03179169793578656 0.029846267894588531 0.020048523681076656 -0.026630763785593224 0.04381732634460378 -0.020736707352744028 -0.0028937853267057075 -0.0017633955380787299 0.039011934218726653 -0.026750549010080997 0.0066422288258663077 0.01297549012596238 0.040368888148675439 0.031035400443204225 0.041766445673881734 0.00072301961825913441 -0.024964264367455902 -0.0001983631781840112 0.023621771699743808 -0.027216907402777733 -0.017126382696901293 -0.014317095933174295 0.027650031887076237 0.003421233715477793 0.031720123747800942 0.0051564678992752216 0.018246173284161581
leaf_weight=269.2051478177309 5795.1205804795027 925.23243020474911 1199.7533499002457 421.6226409226656 324.60713431239128 644.4574630856514 368.44665563106537 225.58247897028923 445.73292009532452 336.09114973247051 142.01993694901466 280.49483236670494 223.46600975096226 340.01465250551701 711.36705693602562 180.31844489276409 855.13756781816483 2503.7842919826508 119.83500070869923 100.19746494293213 456.75250867009163 154.77901965379715 250.9468021094799 61.308700978755951 311.63114485144615 159.5103872269392 474.05532598495483 515.25872512161732 231.49438869953156 506.68248195946217
leaf_count=1092 43414 4024 5027 2099 1395 2641 1983 981 2021 1424 628 1175 1013 1401 2974 741 3616 11786 520 415 1938 684 1335 254 1382 659 1950 2154 934 2156
internal_value=-0.000146135 0.0172524 0.0235514 0.00247696 0.029013 0.0101138 0.000346318 0.00951191 0.00368622 0.0224604 0.0372605 0.011149 0.00465723 -0.00660242 0.0249089 0.0187718 0.0210315 0.039179 0.027561 0.00852619 -0.0129856 -0.0200411 -0.00781623 0.0223744 0.0115396 -9.92255e-05 0.0159972 0.0208547 -0.0118842 0.0261359
internal_weight=19534.9 13739.8 9632.86 4106.93 6848.86 2784 1584.24 2822.83 2090.56 3817.14 3031.72 1413.33 1013 563.481 3481.05 449.524 2555.82 2889.7 400.33 1215.8 1284.1 827.348 405.726 385.916 1115.6 471.142 1700.68 1226.63 677.227 732.265
internal_count=103816 60402 42312 18090 30205 12107 7080 12034 8897 16142 14063 5942 4247 2414 14718 1833 10694 13435 1695 5097 6056 4118 2019 1649 4682 2041 7078 5128 2955 3137
is_linear=0
shrinkage=0.035


Tree=26
num_leaves=31
num_cat=0
split_feature=0 1 9 3 1 7 3 4 3 3 3 4 3 0 0 5 3 0 4 8 8 5 4 9 3 3 8 8 0 5
split_gain=11001.5 957.271 571.412 338.272 295.876 258.764 279.295 228.752 195.598 179.113 172.832 170.158 131.393 128.8 119.179 169.315 113.503 106.176 104.098 99.903 98.6208 93.6869 92.5247 90.8411 90.2989 81.3129 81.1082 76.2161 74.0243 71.8353
threshold=0.9981985000000001 6.5000000000000009 0.54891337500000015 0.0073000000000000009 28.500000000000004 0.67586800000000002 0.079804500000000014 0.011663041666666667 0.023692000000000001 0.10448050000000002 0.00060550000000000003 0.00067529166666666681 4.3500000000000007e-05 0.90613200000000016 0.90072550000000018 0.52462100000000012 0.00025350000000000009 0.92355300000000007 0.00027029166666666678 8.5000000000000016e-06 0.0010825000000000003 1.0000000180025095e-35 0.0035971000000000002 0.40648650000000003 0.0021655000000000003 0.0029435000000000004 0.0010635000000000002 0.00011650000000000001 0.70710650000000019 0.13278300000000001
decision_type=2 2 2 2 2 2 2 2 2 2 2 2 2 2 2 2 2 2 2 2 2 2 2 2 2 2 2 2 2 2
left_child=1 3 4 7 8 -4 13 10 16 21 11 12 19 14 15 28 -3 -13 -14 -1 24 23 -12 -6 27 -24 -9 -18 -7 -5
right_child=-2 2 5 29 9 6 -8 26 -10 -11 22 17 18 -15 -16 -17 20 -19 -20 -21 -22 -23 25 -25 -26 -27 -28 -29 -30 -31
leaf_value=0.0036290626439321448 -0.041147927727450531 0.034903709582113092 0.022644401282699129 -0.0056437238853108921 -0.053396447137009445 -0.036184260208690554 -0.03404769701873863 0.0034631545789611763 -0.0044393341383177076 -0.0019004555261479198 -0.012702813866707787 0.041548439884409601 -0.027792329560338686 0.032171083996298734 -0.013080051758180031 -0.010465636824909978 0.0028388015923262412 0.011504923382540732 0.0065499989513449295 0.037880644884483824 0.03021822475350289 0.041123207134611019 0.019565940728343379 0.026343298182182496 0.0027591814916537671 -0.009781880709297695 0.044218725877304105 0.025015395757408833 0.025635138785053635 -0.023627247726453356
leaf_weight=265.58768014609814 5650.8263860046864 920.76437070965767 1117.9195167720318 594.62735858559608 18.17642268538475 24.767897039651871 239.90763725340366 76.594480529427528 314.81917752325535 140.21814598143101 704.2199032753706 320.00858691334724 209.67888461053371 208.36102809011936 405.67530323565006 304.02900210022926 235.70274069905281 262.73887772858143 222.7577503323555 171.78246513009071 859.78546737134457 2461.4619762152433 276.12958447635174 368.87214583158493 477.87655021250248 198.63700826466084 275.04023420810699 980.6052315980196 480.05222050845623 502.22120164334774
leaf_count=1078 43556 4045 4692 2821 75 110 1422 324 1339 621 3092 1353 961 858 1808 1261 986 1114 918 709 3656 11778 1179 1589 1966 885 1179 4119 1988 2438
internal_value=-8.43267e-05 0.0169291 0.0229869 0.0027356 0.0284679 0.00962462 0.000868518 0.00884677 0.0219706 0.0367035 0.00530182 0.0133823 0.00357292 0.0067608 0.00239545 0.0101606 0.024364 0.0280145 -0.0101029 0.017097 0.0205611 0.0386044 -0.00465276 0.0225684 0.0156561 0.00728451 0.0353532 0.0207205 0.0225855 -0.0138824
internal_weight=19289.8 13639 9558.99 4080.02 6778.28 2780.71 1662.79 2983.18 3789.55 2988.73 2631.54 1452.55 869.807 1422.89 1214.52 808.849 3474.73 582.747 432.437 437.37 2553.97 2848.51 1178.99 387.049 1694.18 474.767 351.635 1216.31 504.82 1096.85
internal_count=103920 60364 42313 18051 30174 12139 7447 12792 16111 14063 11289 6133 3666 6025 5167 3359 14772 2467 1879 1787 10727 13442 5156 1664 7071 2064 1503 5105 2098 5259
is_linear=0
shrinkage=0.035


Tree=27
num_leaves=31
num_cat=0
split_feature=0 1 7 2 2 1 4 5 8 5 1 5 8 2 2 7 6 6 2 4 2 8 7 4 2 4 0 8 6 1
split_gain=10503 934.077 481.883 348.135 324.597 268.675 224.789 222.135 203.6 182.074 181.533 146.404 145.848 133.78 131.315 107.327 106.872 111.49 103.449 144.269 102.002 101.538 100.555 94.5903 240.726 94.2174 89.7346 83.9576 81.7979 76.2621
threshold=0.9981985000000001 2.5000000000000004 0.63360950000000005 0.0096075000000000015 0.0015505000000000002 24.500000000000004 0.0033777333333333335 1.0000000180025095e-35 0.038803500000000012 0.25903500000000007 52.500000000000007 0.32819150000000002 0.053085500000000008 0.0006215000000000002 0.08679350000000001 0.67979350000000005 0.075543500000000013 0.074791500000000011 0.00041350000000000008 0.00077329166666666681 4.4500000000000004e-05 0.00035250000000000006 0.6800980000000002 0.018649750000000003 0.020705000000000005 0.00018910000000000002 0.70710650000000019 5.5000000000000007e-06 0.10815500000000002 6.5000000000000009
decision_type=2 2 2 2 2 2 2 2 2 2 2 2 2 2 2 2 2 2 2 2 2 2 2 2 2 2 2 2 2 2
left_child=1 4 5 9 6 13 18 12 10 16 14 -12 -7 -3 -5 -11 17 29 19 20 27 -20 -17 -6 -25 -22 -15 -1 -28 -4
right_child=-2 2 3 8 23 7 -8 -9 -10 15 11 -13 -14 26 -16 22 -18 -19 21 -21 25 -23 -24 24 -26 -27 28 -29 -30 -31
leaf_value=-0.0060153262194257255 -0.04090018571727895 0.02999791640239231 -0.0036228381626852795 -0.0051045060519811286 -0.024858857098163257 0.020044922917805356 0.034682778357044322 0.039393939787154018 0.037640610089023287 0.016978591038454754 0.045650382460627602 -0.017511592969428346 -0.041358331933510871 -0.044467210219996306 -0.033457330710956926 -0.024749419980663566 0.028691451219189906 -0.011905456259827755 -0.034317676234462927 0.033031275432916826 -0.041026976309328979 0.0024951372211365597 0.0064432978251098127 0.022151351712953658 -0.025574861076065481 0.00063668666851381995 0.0088830016523603565 0.032256029502297612 0.025026499709895057 0.029111010793681991
leaf_weight=132.19338861107826 5498.4148100614548 1022.8156373649836 115.94650435447693 668.26943725347519 649.10386376082897 401.37589095532894 320.09067070484161 2513.3145748227835 138.19737087190151 870.19775739312172 126.99192735552788 69.346181631088257 53.521897360682487 31.445053786039352 285.61108854413033 172.01847025752068 1816.8052172660828 173.34958906471729 163.13478128612041 216.71595366299152 108.52464793622494 209.28369943797588 477.65168330073357 228.25938993692398 298.54013365507126 170.93793120980263 1009.9000371396542 149.29035304486752 621.56553028523922 349.69161805510521
leaf_count=534 43617 4445 469 2903 3195 1709 1399 12069 625 3618 564 297 244 129 1630 750 7787 762 768 912 547 899 1964 992 1601 700 4203 618 2592 1491
internal_value=-9.62264e-05 0.0164445 0.0209661 0.0133442 -0.00221145 0.0280614 0.00875061 0.0353202 -0.0024653 0.018468 -0.0072912 0.0233377 0.0128016 0.0200364 -0.013601 0.00894352 0.0243606 0.0120391 0.00152687 0.00879192 -0.000578025 -0.0136355 -0.00181823 -0.0159174 -0.00489147 -0.0155542 0.0139054 0.0142849 0.0150368 0.0209583
internal_weight=19062.5 13564.1 10918 5264.08 2646.07 5653.94 1470.17 2968.21 1288.42 3975.66 1150.22 196.338 454.898 2685.73 953.881 1519.87 2455.79 638.988 1150.08 777.662 560.946 372.418 649.67 1175.9 526.8 279.463 1662.91 281.484 1631.47 465.638
